tree
version=v4
num_class=1
num_tree_per_iteration=1
label_index=0
max_feature_idx=16
objective=regression
feature_names=lag_1 lag_2 lag_3 lag_7 rolling_mean_7 rolling_sum_7 tmean_lag_1 tmean_roll_7 rh_lag_1 rh_roll_7 wind_lag_1 wind_roll_7 rad_lag_1 rad_roll_7 month day_of_year day_of_week
feature_infos=[0:133.90000000000001] [0:133.90000000000001] [0:133.90000000000001] [0:133.90000000000001] [0:31.585714285714285] [0:221.09999999999999] [0:31.300000000000001] [0:28.642857142857142] [0:100] [0:99.714285714285708] [0:59.399999999999999] [0:36.699999999999996] [0:33.869999999999997] [0:31.212857142857139] [1:12] [1:366] [0:6]
tree_sizes=2562 2680 2654 2663 2668 2686 2670 2687 2694 2691 2678 2679 2661 2667 2679 2706 2693 2688 2687 2714 2702 2678 2686 2712 2721 2705 2719 2703 2715 2700 2719 2705 2721 2719 2718 2719 2712 2720 2736 2717 2707 2719 2725 2728 2733 2716 2723 2716 2729 2736 2752 2745 2738 2733 2745 2735 2705 2721 2750 2732 2770 2708 2763 2762 2728 2740 2728 2746 2741 2750 2738 2745 2744 2740 2723 2730 2727 2717 2744 2732 2754 2749 2741 2767 2751 2743 2770 2740 2761 2748 2743 2755 2747 2754 2729 2734 2718 2731 2747 2742 2764 2758 2760 2758 2751 2743 2745 2754 2742 2761 2727 2741 2722 2748 2724 2754 2746 2768 2776 2745 2767 2776 2741 2764 2756 2768 2735 2763 2737 2784 2758 2739 2748 2763 2741 2731 2773 2754 2746 2756 2769 2748 2755 2775 2778 2777 2795 2758 2762 2785 2737 2739 2729 2752 2745 2775 2747 2768 2775 2751 2743 2736 2741 2739 2740 2737 2768 2772 2766 2763 2796 2807 2786 2781 2721 2724 2734 2779 2778 2772 2739 2708 2774 2759 2743 2744 2737 2756 2764 2782 2770 2773 2770 2758 2763 2775 2756 2767 2777 2795 2753 2754 2774 2769 2770 2752 2777 2777 2790 2774 2781 2770 2792 2774 2754 2745 2768 2755 2784 2768 2770 2748 2774 2786 2771 2754 2728 2745 2764 2779 2753 2754 2752 2775 2770 2784 2795 2800 2763 2782 2777 2744 2767 2745 2766 2773 2753 2757 2790 2757 2771 2773 2773 2778 2774 2765 2763 2771 2753 2770 2785 2790 2775 2774 2746 2729 2744 2710 2728 2750 2760 2792 2770 2774 2774 2729 2757 2768 2779 2768 2768 2771 2765 2763 2770 2778 2761 2781 2772 2748 2785 2779 2793 2796 2783 2779 2798 2787 2789 2775 2756 2777 2774 2744 2779 2788 2777 2792 2776 2802 2741 2748 2740 2751 2795 2800 2773 2759 2769 2776 2785 2793 2772 2772 2782 2771 2768 2772 2785 2783 2761 2760 2739 2761 2765 2810 2771 2783 2790 2780 2767 2773 2771 2775 2748 2765 2763 2775 2764 2756 2758 2770 2788 2799 2781 2774 2757 2778 2741 2763 2789 2779 2781 2796 2768 2793 2774 2764 2774 2779 2786 2792 2780 2776 2761 2780 2782 2783 2790 2792 2778 2792 2778 2780 2810 2784 2779 2807 2779 2777 2749 2749 2763 2750 2760 2785 2777 2778 2779 2761 2771 2766 2792 2803 2778 2786 2780 2762 2786 2792 2778 2775 2781 2780 2756 2773 2789 2777 2755 2786 2781 2786 2792 2789 2787 2791 2782 2771 2774 2773 2777 2769 2783 2794 2788 2764 2776 2795 2795 2789 2809 2786 2785 2775 2780 2786 2777 2803 2781 2781 2780 2794 2779 2772 2776 2744 2760 2769 2788 2777 2747 2743 2770 2744 2764 2803 2796 2805 2813 2806 2774 2777 2779 2764 2776 2816 2777 2802 2793 2775 2786 2805 2763 2786 2768 2800 2801 2800 2811 2789 2764 2779 2770 2771 2780 2794 2775 2782 2778 2779

Tree=0
num_leaves=31
num_cat=0
split_feature=4 5 4 1 0 1 0 2 2 2 4 11 4 1 0 0 5 2 1 4 1 2 9 13 9 2 9 12 13 10
split_gain=27924.9 9128.92 7237.71 6061.54 4571.49 4373.65 3326.83 2885.51 2756.83 2422.84 1714.73 1539.1 1285.16 1205.87 1028.99 1667.38 1674.99 969.731 828.63 823.556 776.589 644.22 642.162 645.177 1048.52 617.409 609.107 528.847 822.391 468.429
threshold=8.4857142857142858 23.749999999999989 15.407142857142855 26.850000000000005 0.35000000000000003 1.8500000000000003 13.050000000000002 1.2500000000000002 8.7500000000000018 0.65000000000000002 1.4428571428571397 16.864285714285717 11.021428571428572 21.150000000000002 22.550000000000004 0.75000000000000011 33.5 17.450000000000003 1.4500000000000002 10.742857142857142 24.650000000000002 0.65000000000000002 94.928571428571445 17.499285714285715 90.928571428571445 4.8500000000000005 91.642857142857153 11.885000000000003 11.021428571428572 21.150000000000002
decision_type=2 2 2 2 2 2 2 2 2 2 2 2 2 2 2 2 2 2 2 2 2 2 2 2 2 2 2 2 2 2
left_child=1 10 4 6 21 8 -4 11 9 19 -1 -3 20 14 15 22 29 -14 25 -6 -7 -2 23 -13 -25 -12 -18 28 -9 -17
right_child=2 7 3 -5 5 12 -8 27 -10 -11 18 13 17 -15 -16 16 26 -19 -20 -21 -22 -23 -24 24 -26 -27 -28 -29 -30 -31
leaf_value=3.8383681792622144 4.2003070170655139 4.4646130672294326 4.7967797017791298 4.209759797972457 4.8779880620736309 4.2180252923078276 5.6480107936324737 3.9626498152162122 4.2517797208526167 5.3043744290749473 4.0053344045794015 3.975965323061498 4.5855237828392212 3.871395944384473 3.9606418978175832 3.9545423984271197 4.2719880627292817 4.1675858800569472 3.8628195472485225 4.4242380701202579 3.8634554396248548 3.914057721415185 4.3613332996324274 3.9979816457176787 4.3749523529394612 3.8493564700042215 4.57387443345318 3.936824116232196 4.2461648860952614 4.2418867014223443
leaf_weight=999 29 40 24 23 20 47 22 68 24 22 384 88 35 38 52 23 24 23 227 20 23 61 21 39 35 76 55 244 41 37
leaf_count=999 29 40 24 23 20 47 22 68 24 22 384 88 35 38 52 23 24 23 227 20 23 61 21 39 35 76 55 244 41 37
internal_value=4.00674 3.94632 4.41021 4.87251 4.30528 4.43102 5.20389 4.08485 4.70678 4.88292 3.88018 4.1685 4.24574 4.13976 4.16702 4.20035 4.3309 4.41979 3.94099 4.65111 4.10152 4.00629 4.10119 4.06747 4.17628 3.97956 4.48216 3.97773 4.06929 4.13174
internal_weight=2864 2491 373 69 304 214 46 805 86 62 1686 452 128 412 374 322 139 58 687 40 70 90 183 162 74 460 79 353 109 60
internal_count=2864 2491 373 69 304 214 46 805 86 62 1686 452 128 412 374 322 139 58 687 40 70 90 183 162 74 460 79 353 109 60
is_linear=0
shrinkage=1


Tree=1
num_leaves=31
num_cat=0
split_feature=4 4 4 6 13 0 1 16 2 9 6 4 1 11 3 4 6 8 9 2 8 1 10 1 0 2 2 6 2 1
split_gain=25202.2 8212.71 6532.03 5873.23 5462.9 4125.77 3947.22 2641.34 2584.83 2196.08 1979.52 1552.18 1464.8 1378.81 1946.19 1159.86 982.722 1390.28 956.08 875.182 796.649 742.385 706.803 700.872 639.414 581.409 567.217 500.112 480.691 496.102
threshold=8.4857142857142858 3.3928571428571415 15.407142857142855 19.325000000000006 8.8950000000000014 0.35000000000000003 1.8500000000000003 3.5000000000000004 1.2500000000000002 94.642857142857153 13.225000000000001 1.4428571428571397 11.750000000000002 17.878571428571433 1.3500000000000003 11.021428571428572 23.075000000000006 93.500000000000014 93.642857142857153 17.450000000000003 94.500000000000014 1.4500000000000002 24.150000000000002 24.650000000000002 0.95000000000000007 0.65000000000000002 0.95000000000000007 14.675000000000002 16.850000000000005 6.5500000000000007
decision_type=2 2 2 2 2 2 2 2 2 2 2 2 2 2 2 2 2 2 2 2 2 2 2 2 2 2 2 2 2 2
left_child=1 11 5 4 -4 25 7 9 10 -7 -3 -1 13 14 24 23 18 -18 20 -17 -15 26 -20 -8 -12 -2 27 -13 29 -10
right_child=2 8 3 -5 -6 6 15 -9 28 -11 12 21 -14 16 -16 19 17 -19 22 -21 -22 -23 -24 -25 -26 -27 -28 -29 -30 -31
leaf_value=-0.16178827925367997 0.18205361632521844 -0.12721403986215593 1.1466671043634415 1.518070780947095 0.064714292011090691 0.62922171440816699 0.1988859711848992 0.3287164549316679 0.056253095394408217 1.3012438452243806 0.83160299573625851 -0.13190133436941184 -0.041858895938715029 -0.023026420130874171 0.037247017659246921 0.54800952323845464 0.51653586666692386 0.065841025326933186 0.43427646582325297 0.150968525202378 0.23069722880919774 -0.13831796514167063 0.088207345306873325 -0.13795538363249407 0.44142171811489828 -0.089883214137593259 -0.10990063501521946 0.03774464138347839 -0.12624675758341528 -0.089071994125843046
leaf_weight=999 29 56 20 21 28 31 47 35 169 20 21 52 58 99 20 35 44 28 36 23 45 226 25 23 21 61 144 264 94 90
leaf_count=999 29 56 20 21 28 31 47 35 169 20 21 52 58 99 20 35 44 28 36 23 45 226 25 23 21 61 144 264 94 90
internal_value=-0.00183657 -0.0592311 0.38146 0.82065 0.515528 0.281776 0.401229 0.663207 0.0720369 0.89276 0.151079 -0.122022 0.190334 0.23006 0.443201 0.225213 0.182354 0.341266 0.126541 0.390562 0.0562622 -0.0641105 0.292445 0.0882095 0.636512 -0.00225912 -0.0276521 0.00982821 -0.0293963 0.00575403
internal_weight=2864 2491 373 69 48 304 214 86 806 51 453 1685 397 339 62 128 277 72 205 58 144 686 61 70 42 90 460 316 353 259
internal_count=2864 2491 373 69 48 304 214 86 806 51 453 1685 397 339 62 128 277 72 205 58 144 686 61 70 42 90 460 316 353 259
is_linear=0
shrinkage=0.05


Tree=2
num_leaves=31
num_cat=0
split_feature=5 4 1 6 0 1 4 2 0 4 11 9 5 1 2 6 5 0 7 6 5 12 9 2 4 6 7 6 6 13
split_gain=22992.8 9431.48 5430.56 5971.97 5132.39 3277.1 2959.89 2754.1 3308.98 2005.49 2545.38 1623.78 1422.76 1284.02 1199.09 1152.48 1102.51 977.371 865.941 863.268 1924.8 860.009 752.264 955.766 718.699 715.678 707.815 700.782 645.262 461.188
threshold=33.5 15.407142857142855 26.850000000000005 16.625000000000004 1.3500000000000003 10.350000000000003 1.4428571428571397 23.700000000000006 22.950000000000003 6.3357142857142872 19.37857142857143 92.357142857142875 53.699999999999989 4.0500000000000007 0.65000000000000002 14.875000000000002 23.749999999999989 14.15 19.289285714285718 18.375000000000004 67.549999999999983 23.370000000000001 93.34285714285717 1.2500000000000002 11.021428571428572 17.875000000000004 14.510714285714288 22.525000000000002 23.625000000000004 20.942857142857147
decision_type=2 2 2 2 2 2 2 2 2 2 2 2 2 2 2 2 2 2 2 2 2 2 2 2 2 2 2 2 2 2
left_child=6 4 3 -3 19 7 -1 8 9 -6 -11 -12 -10 14 15 -8 -17 21 -14 22 28 27 -2 26 -7 -13 -24 -18 29 -21
right_child=1 2 -4 -5 5 24 13 -9 12 10 11 25 18 -15 -16 16 17 -19 -20 20 -22 -23 23 -25 -26 -27 -28 -29 -30 -31
leaf_value=-0.15369886652649464 -0.12538679245027526 0.52356765386850934 0.15230659520577478 1.6629773844843325 0.33532411376551052 0.021083671129063557 -0.12073339367675227 -0.14812453758148922 -0.1085135401322924 1.1918836132224118 0.92853743756810825 0.21517775732685221 0.58409853786230082 -0.14144833540474927 -0.078003595127145567 0.027238736832152406 0.26927299007125527 -0.069229681193828593 0.11881866212934256 0.057238545096837561 0.49381504089667883 0.044285417486120159 0.02894823804497719 -0.056446354497562759 0.29505724757909774 0.56868288383433008 0.43565856853257057 0.61785926236992794 0.26444802538112361 -0.16817653378238903
leaf_weight=999 103 23 23 23 59 95 86 21 29 21 24 22 20 216 330 283 46 25 20 78 29 27 20 66 32 41 23 21 27 32
leaf_count=999 103 23 23 23 59 95 86 21 29 21 24 22 20 216 330 283 46 25 20 78 29 27 20 66 32 41 23 21 27 32
internal_value=-0.00174474 0.219844 0.779617 1.09327 0.169156 0.297901 -0.0923203 0.400581 0.449407 0.569751 0.697818 0.578561 0.158137 -0.0330193 -0.00438769 0.0453936 0.0809332 0.208627 0.351459 0.0383664 0.123757 0.282525 -0.0284962 0.063061 0.0901164 0.445237 0.246491 0.378531 0.0454238 -0.00833675
internal_weight=2864 831 69 46 762 384 2033 257 236 167 108 87 69 1034 818 488 402 119 40 378 166 94 212 109 127 63 43 67 137 110
internal_count=2864 831 69 46 762 384 2033 257 236 167 108 87 69 1034 818 488 402 119 40 378 166 94 212 109 127 63 43 67 137 110
is_linear=0
shrinkage=0.05


Tree=3
num_leaves=31
num_cat=0
split_feature=5 4 6 13 0 1 4 2 0 4 3 6 1 2 6 5 0 9 4 6 5 2 7 9 2 2 4 9 9 6
split_gain=20751 8511.91 5113.52 4867.7 4631.98 2957.58 2671.3 2631.75 3707.13 1743.18 1399.97 1213.53 1158.83 1082.18 1040.11 995.018 890.609 811.132 792.995 779.1 1737.13 764.351 780.473 678.918 862.579 657.875 648.626 611.832 599.816 582.349
threshold=33.5 15.407142857142855 19.325000000000006 8.8950000000000014 1.3500000000000003 10.350000000000003 1.4428571428571397 8.3500000000000032 18.750000000000004 6.3357142857142872 0.55000000000000016 19.625000000000004 4.0500000000000007 0.65000000000000002 14.875000000000002 23.749999999999989 12.950000000000001 90.928571428571445 6.5357142857142829 18.375000000000004 67.549999999999983 23.700000000000006 19.63571428571429 93.34285714285717 1.2500000000000002 1.0000000180025095e-35 11.021428571428572 94.642857142857153 92.500000000000014 23.625000000000004
decision_type=2 2 2 2 2 2 2 2 2 2 2 2 2 2 2 2 2 2 2 2 2 2 2 2 2 2 2 2 2 2
left_child=6 4 3 -3 19 7 -1 8 9 -6 -11 -12 13 14 -8 -16 17 -17 -10 23 29 22 -9 -2 25 -25 -7 -20 -19 -21
right_child=1 2 -4 -5 5 26 12 21 18 10 11 -13 -14 -15 15 16 -18 28 27 20 -22 -23 -24 24 -26 -27 -28 -29 -30 -31
leaf_value=-0.14601392183933889 -0.11911745493851821 1.0516972279548644 1.3913898786618597 0.03038485707449062 0.41166439465385801 0.020029490972427948 -0.11469672150086872 0.4472079125188646 -0.056363542242483661 1.0793632945844107 0.34021484497003263 0.87275325338477683 -0.13437591946373384 -0.074103415407466164 0.025876798054249462 -0.0071906220912933347 -0.048398261623723168 0.58536914125084871 0.15788792788982392 -0.0079199123484167185 0.46912428942219969 -0.14071831249055408 0.0298199255252257 0.033991700410842894 -0.053624036546909448 0.42524228448217571 0.28030438842251898 0.50977312894094562 0.2622905753406824 0.25122561802466714
leaf_weight=999 103 20 21 28 47 95 86 21 22 28 20 23 216 330 283 20 28 20 30 110 29 21 24 21 66 22 32 21 51 27
leaf_count=999 103 20 21 28 47 95 86 21 22 28 20 23 216 330 283 20 28 20 30 110 29 21 24 21 66 22 32 21 51 27
internal_value=-0.00165751 0.208852 0.740636 0.455932 0.160698 0.283006 -0.0877043 0.380552 0.474607 0.647865 0.804222 0.625061 -0.0313683 -0.0041683 0.0431239 0.0768865 0.198195 0.27407 0.194546 0.0364481 0.117569 0.108363 0.224601 -0.0270714 0.059908 0.234166 0.0856106 0.302782 0.353299 0.0431526
internal_weight=2864 831 69 48 762 384 2033 257 191 118 71 43 1034 818 488 402 119 91 73 378 166 66 45 212 109 43 127 51 71 137
internal_count=2864 831 69 48 762 384 2033 257 191 118 71 43 1034 818 488 402 119 91 73 378 166 66 45 212 109 43 127 51 71 137
is_linear=0
shrinkage=0.05


Tree=4
num_leaves=31
num_cat=0
split_feature=5 4 1 6 0 1 4 2 0 4 16 16 1 2 4 1 4 15 2 7 13 4 6 0 15 13 6 2 2 4
split_gain=18727.8 7682 4864.57 5192.74 4180.36 2669.22 2410.85 2375.15 3345.69 1573.22 1602.06 1313.9 1045.84 984.207 866.846 767.557 814.763 2122.63 749.027 754.877 1116.51 715.678 712.179 871.495 950.723 952.482 1120.01 689.827 742.793 585.385
threshold=33.5 15.407142857142855 26.850000000000005 16.625000000000004 1.3500000000000003 10.350000000000003 1.4428571428571397 8.3500000000000032 18.750000000000004 6.3357142857142872 1.5000000000000002 3.5000000000000004 4.0500000000000007 4.9500000000000011 2.7571428571428549 30.050000000000004 11.021428571428572 228.50000000000003 1.1500000000000001 14.510714285714288 11.512857142857145 6.5357142857142829 14.875000000000002 14.750000000000002 164.50000000000003 15.011428571428572 22.475000000000005 23.700000000000006 14.950000000000001 11.021428571428572
decision_type=2 2 2 2 2 2 2 2 2 2 2 2 2 2 2 2 2 2 2 2 2 2 2 2 2 2 2 2 2 2
left_child=6 4 3 -3 15 7 -1 8 9 -6 -11 -12 13 14 -8 16 18 -18 19 -2 -21 -10 -16 24 -24 -26 -27 28 -9 -7
right_child=1 2 -4 -5 5 29 12 27 21 10 11 -13 -14 -15 22 -17 17 -19 -20 20 -22 -23 23 -25 25 26 -28 -29 -30 -31
leaf_value=-0.13871322358148294 -0.076538554355502136 0.46922711707327674 0.10988292538601419 1.531703566727431 0.39108117371797563 0.019028014885751825 -0.03167118255624729 0.014695107855874559 -0.05354536507617344 0.4781829465566011 1.2546765083074571 0.69472584729506215 -0.12765712117500327 -0.11738978598867694 -0.10620580280936041 -0.19200518832487221 -0.027458015187033294 0.64210448265075692 -0.051613690834002281 0.51475110635161403 0.098586492213499119 0.28764274260577033 0.052207626606305617 -0.090831678259101781 0.48703956995159392 0.028031782132501789 0.42495962028150203 -0.13368239743368968 0.42107748416337104 0.26628917204216124
leaf_weight=999 40 23 23 23 47 95 349 23 22 29 20 22 216 155 43 34 29 20 152 20 83 51 116 44 32 52 27 21 22 32
leaf_count=999 40 23 23 23 47 95 349 23 22 29 20 22 216 155 43 34 29 20 152 20 83 51 116 44 32 52 27 21 22 32
internal_value=-0.00157463 0.198409 0.703605 1.00047 0.152663 0.268856 -0.0833191 0.361524 0.450876 0.615471 0.764011 0.961369 -0.0297999 -0.00395989 0.0225584 0.0346257 0.0570252 0.245833 0.025664 0.107805 0.179395 0.184819 0.0828327 0.112828 0.152304 0.256908 0.163691 0.102945 0.213371 0.08133
internal_weight=2864 831 69 46 762 384 2033 257 191 118 71 42 1034 818 663 378 344 49 295 143 103 73 314 271 227 111 79 66 45 127
internal_count=2864 831 69 46 762 384 2033 257 191 118 71 42 1034 818 663 378 344 49 295 143 103 73 314 271 227 111 79 66 45 127
is_linear=0
shrinkage=0.05


Tree=5
num_leaves=31
num_cat=0
split_feature=5 4 0 6 5 1 0 1 11 11 6 7 6 3 4 2 2 1 0 0 3 0 11 6 2 8 4 9 6 1
split_gain=19011.8 6831.24 8352.38 3768.44 3760.3 2213.16 2512.56 2257.11 2753.92 2984.3 1340.81 1314.45 1302.81 935.964 908.713 1710.49 902.428 805.1 698.222 971.339 928.767 889.541 666.113 608.17 940.255 811.934 596.486 568.021 597.303 547.89
threshold=42.599999999999994 16.171428571428574 13.050000000000002 24.725000000000005 19.999999999999996 28.550000000000004 0.35000000000000003 1.1500000000000001 19.421428571428574 24.76428571428572 16.225000000000005 21.300000000000004 27.625000000000004 1.1500000000000001 8.8214285714285712 7.1500000000000012 11.750000000000002 4.2500000000000009 13.750000000000002 1.0000000180025095e-35 0.55000000000000016 0.65000000000000002 26.271428571428576 11.825000000000001 1.0500000000000003 92.500000000000014 1.3928571428571421 91.357142857142875 20.675000000000004 1.0000000180025095e-35
decision_type=2 2 2 2 2 2 2 2 2 2 2 2 2 2 2 2 2 2 2 2 2 2 2 2 2 2 2 2 2 2
left_child=4 3 -3 5 26 6 22 8 -8 10 -10 13 16 14 -9 -16 17 18 19 27 21 -21 23 -2 25 -25 -1 -6 -29 -23
right_child=1 2 -4 -5 12 -7 7 11 9 -11 -12 -13 -14 -15 15 -17 -18 -19 -20 20 -22 29 -24 24 -26 -27 -28 28 -30 -31
leaf_value=-0.13253653014806274 -0.10725470760772969 0.19702434902389845 1.4092125406419791 0.72322312677279121 -0.091404899324362104 -0.097385533537183488 0.98704667886098241 0.16836786917571367 -0.15693453773856164 0.8457136097161666 0.32887480027821603 -0.027691919347629525 0.41691588574931737 0.085383898644458237 0.86871893286705026 0.23647363483905792 -0.12524762488125515 -0.058501620122637502 -0.08910900192527936 0.46169409115572235 0.048600575437671267 0.30729615762829782 -0.17168329777540986 0.49718279024729367 0.005577772855758667 0.12831179491111211 -0.066790555969691412 0.012916610981273939 0.28455271933759962 0.057903547250494673
leaf_weight=978 29 30 27 32 78 70 21 29 20 23 49 52 21 41 20 23 96 156 58 37 95 40 27 26 59 35 533 73 28 49
leaf_count=978 29 30 27 32 78 70 21 29 20 23 49 52 21 41 20 23 96 156 58 37 95 40 27 26 59 35 533 73 28 49
internal_value=0.00316121 0.249916 0.771219 0.196474 -0.0643058 0.164306 0.204655 0.298246 0.470403 0.352474 0.18806 0.180344 0.0287914 0.276077 0.384666 0.530541 0.0173117 0.0396011 0.073016 0.0965242 0.166646 0.255649 0.0568234 0.0982307 0.14789 0.285535 -0.109345 0.00994864 0.0882217 0.16999
internal_weight=2855 613 57 556 2242 524 454 278 113 92 69 165 731 113 72 43 710 614 458 400 221 126 176 149 120 61 1511 179 101 89
internal_count=2855 613 57 556 2242 524 454 278 113 92 69 165 731 113 72 43 710 614 458 400 221 126 176 149 120 61 1511 179 101 89
is_linear=0
shrinkage=0.05


Tree=6
num_leaves=31
num_cat=0
split_feature=5 5 6 6 5 0 1 11 11 6 12 4 2 6 9 2 10 9 6 1 2 11 11 1 6 6 1 12 6 0
split_gain=17158.2 6183.83 7799.59 3430.06 3393.67 2086.38 3300.23 2867.74 1928.58 1175.78 1121.98 1084.65 1681.09 1056.71 854.275 824.663 676.546 774.395 1192.97 1078.89 916.825 622.307 880.55 644.016 687.097 588.442 555.728 574.39 669.652 582.55
threshold=42.599999999999994 111.10000000000002 16.525000000000002 24.725000000000005 19.999999999999996 0.45000000000000007 1.1500000000000001 19.421428571428574 24.76428571428572 27.625000000000004 15.165000000000001 11.021428571428572 7.1500000000000012 16.275000000000002 94.642857142857153 5.5500000000000007 13.850000000000003 94.071428571428584 19.325000000000006 1.0000000180025095e-35 1.3500000000000003 22.76428571428572 18.235714285714291 1.0000000180025095e-35 16.675000000000004 17.175000000000004 3.3500000000000001 26.905000000000005 17.875000000000004 6.9500000000000011
decision_type=2 2 2 2 2 2 2 2 2 2 2 2 2 2 2 2 2 2 2 2 2 2 2 2 2 2 2 2 2 2
left_child=4 3 -3 5 -1 16 7 -7 13 15 11 14 -13 -9 -8 21 -2 18 -18 -20 -19 22 23 24 -6 -16 27 28 -23 -30
right_child=1 2 -4 -5 9 6 10 8 -10 -11 -12 12 -14 -15 25 -17 17 20 19 -21 -22 26 -24 -25 -26 -27 -28 -29 29 -31
leaf_value=-0.10387762084727814 -0.15367444651882822 0.12123526458082529 1.253366513713263 0.68706198083236814 0.04572010824368114 0.99844826236367235 -0.0089114508488112032 -0.10338670298457148 0.74059362628243186 0.39607009156828837 -0.097222161578371172 0.70144736766815186 0.1075822094312081 0.33194999322295193 0.47103485703468329 -0.081103242610592444 -0.11383034006969349 0.50387643281370398 0.43235202765464786 -0.053783998886744178 0.025121598392724993 0.034825402711118968 -0.03628199559782571 0.024038270837627353 0.42125944186901232 0.10381380704542001 -0.027498856859236233 -0.049516948915663217 0.42458945140242577 0.10135711491107942
leaf_weight=1511 41 29 32 32 21 20 72 20 22 21 47 22 26 46 20 166 74 20 25 21 20 28 274 64 29 24 41 21 46 20
leaf_count=1511 41 29 32 32 21 20 72 20 22 21 47 22 26 46 20 166 74 20 25 21 20 28 274 64 29 24 41 21 46 20
internal_value=0.00300315 0.237421 0.71514 0.184629 -0.0610905 0.15371 0.23321 0.458 0.335171 0.0273519 0.118152 0.179876 0.37977 0.20003 0.0971604 0.0164461 0.0275383 0.0739741 0.0104658 0.21042 0.264499 0.046213 0.0123037 0.12908 0.263533 0.270732 0.130552 0.1869 0.239717 0.32664
internal_weight=2855 613 61 552 2242 520 319 108 88 731 211 164 48 66 116 710 201 160 120 46 40 544 388 114 50 44 156 115 94 66
internal_count=2855 613 61 552 2242 520 319 108 88 731 211 164 48 66 116 710 201 160 120 46 40 544 388 114 50 44 156 115 94 66
is_linear=0
shrinkage=0.05


Tree=7
num_leaves=31
num_cat=0
split_feature=4 4 0 6 4 1 0 7 11 1 11 6 6 1 6 12 15 12 0 10 9 6 10 4 13 11 10 2 2 11
split_gain=15388.7 5589 7366.1 3084.51 3054.29 1901.9 2000.79 1944.25 2088.67 1993.18 1583.2 1395.94 1059.16 764.225 815.244 1246.82 1059.02 762.9 813.768 750.482 1000.51 918.491 702.633 548.633 496.162 494.673 427.43 333.987 318.01 309.604
threshold=6.0857142857142836 16.171428571428574 13.050000000000002 24.725000000000005 2.8642857142857125 28.550000000000004 0.35000000000000003 21.753571428571433 19.535714285714288 2.7500000000000004 25.764285714285716 16.225000000000005 27.625000000000004 1.0000000180025095e-35 16.425000000000004 24.630000000000006 146.50000000000003 20.975000000000005 6.9500000000000011 13.850000000000003 94.071428571428584 19.325000000000006 26.350000000000005 1.4142857142857126 11.452142857142858 18.678571428571434 25.950000000000003 12.450000000000001 0.95000000000000007 23.63571428571429
decision_type=2 2 2 2 2 2 2 2 2 2 2 2 2 2 2 2 2 2 2 2 2 2 2 2 2 2 2 2 2 2
left_child=4 3 -3 5 23 6 19 8 9 -8 11 26 13 14 -6 16 25 18 -18 -2 21 -21 -9 -1 -13 -16 -10 29 -25 -15
right_child=1 2 -4 -5 12 -7 7 22 10 -11 -12 24 -14 27 15 -17 17 -19 -20 20 -22 -23 -24 28 -26 -27 -28 -29 -30 -31
leaf_value=-0.12034400473924994 -0.14418963852681613 0.15658185660839083 1.2949524195105941 0.65270888078375722 -0.035330461477860807 -0.095568135380744934 1.0033768355846406 -0.064850950499578397 -0.14512825704046659 0.30593057602643969 0.58244174332357945 0.20635422573999521 0.3762665772721881 -0.030445559897149605 0.28759338513016702 -0.073935544552902382 0.66156314978232755 0.10721918169874699 0.237336969897151 -0.092291267712910977 0.32927904157219712 0.21645730741513081 0.28682744920253755 -0.028059516270100539 0.44759451258294763 -0.01126422597302331 0.1424259163439274 -0.12946058787179715 -0.10936514258205413 0.084838446525678249
leaf_weight=990 38 30 27 32 98 70 21 49 28 20 32 47 21 288 20 48 26 20 20 63 37 39 20 337 39 45 24 66 187 73
leaf_count=990 38 30 27 32 98 70 21 49 28 20 32 47 21 288 20 48 26 20 20 63 37 39 20 337 39 45 24 66 187 73
internal_value=0.00285299 0.224165 0.69581 0.176072 -0.058035 0.147131 0.184305 0.267486 0.34283 0.663159 0.265574 0.192098 0.0263552 0.0159175 0.0805973 0.144066 0.223945 0.365027 0.477117 0.0527209 0.106553 0.0257597 0.0370848 -0.0984464 0.315754 0.080692 -0.0124109 -0.026041 -0.0570751 -0.00713328
internal_weight=2855 616 57 559 2239 527 457 280 211 41 170 138 725 704 277 179 131 66 46 177 139 102 69 1514 86 65 52 427 524 361
internal_count=2855 616 57 559 2239 527 457 280 211 41 170 138 725 704 277 179 131 66 46 177 139 102 69 1514 86 65 52 427 524 361
is_linear=0
shrinkage=0.05


Tree=8
num_leaves=31
num_cat=0
split_feature=5 5 6 6 4 2 9 10 1 2 1 0 0 4 11 2 9 1 6 4 9 0 16 6 7 6 2 11 11 9
split_gain=14051.6 5678.45 6849.43 2528.64 1878.67 1749.1 2919.88 1067.52 1491.33 1487.06 1020.07 896.449 1839.49 2905.83 979.675 1109.74 942.532 896.436 1071.06 773.292 605.377 592.062 593.072 449.065 703.31 550.277 471.891 407.742 447.975 759.639
threshold=36.150000000000013 111.10000000000002 16.525000000000002 24.725000000000005 2.014285714285712 0.95000000000000007 95.785714285714292 23.850000000000005 6.9500000000000011 17.450000000000003 1.6500000000000001 3.1500000000000008 26.550000000000004 8.4857142857142858 18.607142857142858 0.35000000000000003 91.928571428571445 0.35000000000000003 23.025000000000002 4.0357142857142865 92.500000000000014 0.25000000000000006 1.5000000000000002 13.475000000000001 19.289285714285718 16.425000000000004 1.0000000180025095e-35 20.021428571428576 23.37857142857143 92.500000000000014
decision_type=2 2 2 2 2 2 2 2 2 2 2 2 2 2 2 2 2 2 2 2 2 2 2 2 2 2 2 2 2 2
left_child=4 3 -3 5 -1 6 11 21 9 20 -5 14 13 16 -2 27 -13 18 23 -20 -9 -7 -23 -6 25 -25 -27 -16 29 -29
right_child=1 2 -4 10 17 7 -8 8 -10 -11 -12 12 -14 -15 15 -17 -18 -19 19 -21 -22 22 -24 24 -26 26 -28 28 -30 -31
leaf_value=-0.10506781886426771 0.40604577916009088 0.089841436517649698 1.1507746374234558 0.75546919439326643 -0.1085257964461674 -0.10683019570303415 0.72629564879834652 0.71461822144687182 0.011541186912376204 0.015546061940815138 0.26208644121885299 -0.037764760039069437 0.012832116799222099 0.88552132404368855 -0.20785416853427888 0.31689006275144121 0.39015655017668205 -0.061831965188729791 0.09527577541686677 0.38799635489781698 0.32558842062950138 0.24791489104429881 -0.0091493421893441267 -0.015241388154440913 -0.071704598282482115 0.27811696120336948 0.022646715438791685 -0.060211085031429926 -0.091150555312633524 0.35156819309507098
leaf_weight=1225 21 29 32 22 81 106 25 20 81 23 20 22 45 23 25 29 31 406 91 30 20 30 89 58 102 51 28 24 45 21
leaf_count=1225 21 29 32 22 81 106 25 20 81 23 20 22 45 23 25 29 31 406 91 30 20 30 89 58 102 51 28 24 45 21
internal_value=0.00271034 0.183155 0.646397 0.144017 -0.0654789 0.120762 0.20811 0.0471428 0.153448 0.3359 0.520525 0.162815 0.266186 0.416198 0.0870092 0.040483 0.212529 -0.00822217 0.0411329 0.167851 0.520103 -0.0208926 0.0556568 -0.00678246 0.0276996 0.101709 0.187571 -0.0292197 0.020401 0.131953
internal_weight=2855 783 61 722 2072 680 311 369 144 63 42 286 121 76 165 144 53 847 441 121 40 225 119 320 239 137 79 115 90 45
internal_count=2855 783 61 722 2072 680 311 369 144 63 42 286 121 76 165 144 53 847 441 121 40 225 119 320 239 137 79 115 90 45
is_linear=0
shrinkage=0.05


Tree=9
num_leaves=31
num_cat=0
split_feature=5 5 6 6 5 0 7 10 13 16 6 6 7 11 2 6 11 0 12 6 10 11 11 7 9 13 6 4 6 7
split_gain=12682.8 4554.04 6181.61 2580.87 2507.35 1608.34 1748.16 1774.56 1400.62 1681.9 902.126 771.868 887.455 1097.55 656.919 556.537 715.525 500.241 556.106 726.204 626.409 464.002 788.74 753.137 462.361 1157.7 798.173 456.767 404.301 528.591
threshold=42.599999999999994 111.10000000000002 16.525000000000002 24.725000000000005 19.999999999999996 0.45000000000000007 21.753571428571433 15.450000000000001 12.883571428571431 3.5000000000000004 27.625000000000004 19.475000000000005 13.875000000000002 24.335714285714285 12.450000000000001 11.825000000000001 18.607142857142858 16.850000000000005 18.305000000000003 16.225000000000005 20.650000000000002 17.478571428571431 22.76428571428572 21.38214285714286 90.357142857142875 17.989285714285717 14.025000000000002 0.69999999999999585 20.775000000000002 23.203571428571433
decision_type=2 2 2 2 2 2 2 2 2 2 2 2 2 2 2 2 2 2 2 2 2 2 2 2 2 2 2 2 2 2
left_child=4 3 -3 5 27 15 7 -7 11 -10 14 12 -9 -14 17 -2 -17 18 19 -6 -20 23 -23 -21 -18 26 -26 -1 -22 -30
right_child=1 2 -4 -5 10 6 -8 8 9 -11 -12 -13 13 -15 -16 16 24 -19 20 21 28 22 -24 -25 25 -27 -28 -29 29 -31
leaf_value=-0.12271803315789974 -0.15394839330299481 0.085349361649875 1.0932359243743122 0.59463454531505711 -0.0095068355756146583 0.71746558070182809 -0.011184508517082479 0.33610805085589812 0.70696759593897862 0.1411145235101382 0.34646305434760594 0.35907382421396877 -0.050392720785485692 0.35422932851527422 -0.11476208178818913 0.3260660867799412 -0.1172751006691955 -0.11655640226717179 -0.07282245579090986 0.5097424829290027 -0.068284428399056199 0.029577162035621041 0.2775238341632042 0.095590366779462158 0.25717950037547521 0.41890415430068972 -0.10257677308701237 -0.06668780018719167 0.2809186464225924 0.024502682821317154
leaf_weight=610 37 29 32 32 112 20 74 31 29 24 21 37 83 21 87 22 43 52 154 21 32 101 47 23 21 20 58 901 37 44
leaf_count=610 37 29 32 32 112 20 74 31 29 24 21 37 83 21 87 22 43 52 154 21 32 101 47 23 21 20 58 901 37 44
internal_value=0.00257483 0.204115 0.614077 0.158812 -0.0525297 0.131992 0.201792 0.26612 0.226 0.450732 0.0234913 0.156752 0.101301 0.0313098 0.0139386 0.0212136 0.0607319 0.0319113 0.045432 0.0916754 -0.00721967 0.150698 0.108317 0.293254 0.0196237 0.0790848 -0.00694536 -0.0893076 0.0821859 0.141631
internal_weight=2855 613 61 552 2242 520 319 245 225 53 731 172 135 104 710 201 164 623 571 304 267 192 148 44 142 99 79 1511 113 81
internal_count=2855 613 61 552 2242 520 319 245 225 53 731 172 135 104 710 201 164 623 571 304 267 192 148 44 142 99 79 1511 113 81
is_linear=0
shrinkage=0.05


Tree=10
num_leaves=31
num_cat=0
split_feature=5 5 1 0 1 0 4 11 6 9 4 7 1 6 13 9 1 0 12 3 10 11 3 9 1 6 12 15 4 1
split_gain=10606.3 3941.42 6649.36 5242.62 1770.26 1577.91 2106.7 1577.4 1768.34 1486.45 1227.83 878.264 810.828 903.588 764.218 713.562 670.738 627.718 608.842 602.617 484.188 919.392 958.766 607.418 479.834 465.643 403.891 346.611 416.649 338.738
threshold=33.5 111.10000000000002 19.950000000000003 15.350000000000003 20.750000000000004 0.35000000000000003 8.4857142857142858 18.678571428571434 17.075000000000006 91.785714285714292 1.3714285714285694 23.410714285714288 1.0500000000000003 23.025000000000002 23.842142857142864 89.214285714285737 1.5500000000000003 24.350000000000005 13.345000000000001 0.75000000000000011 12.450000000000001 20.178571428571434 1.1500000000000001 93.34285714285717 4.4500000000000011 14.125000000000002 23.370000000000001 62.500000000000007 3.4357142857142846 31.150000000000002
decision_type=2 2 2 2 2 2 2 2 2 2 2 2 2 2 2 2 2 2 2 2 2 2 2 2 2 2 2 2 2 2
left_child=10 4 3 -3 5 11 14 -8 25 -10 -1 20 13 26 15 -7 -11 18 19 24 -2 22 -22 -23 -17 -9 -12 -15 -29 -6
right_child=1 2 -4 -5 29 6 7 8 9 16 12 -13 -14 27 -16 17 -18 -19 -20 -21 21 23 -24 -25 -26 -27 -28 28 -30 -31
leaf_value=-0.10420757273692567 -0.15000755111960806 0.35595924019813541 -0.066008587541251357 1.5007981818914413 0.02048353043599771 -0.17744660662568135 0.75096715032344774 0.23969991448379699 0.7155947050657766 0.46974871797221046 -0.0057985273389080869 0.36964164718985559 -0.081781373934193269 0.039642283958481989 0.4088455083779991 0.48608239108118517 0.14539171195513495 -0.10117552333644458 0.032106334547842702 0.10879200021922589 0.39250514770255374 -0.067992104722985211 -0.031108205426823011 0.17608779086308046 0.17225418711702031 -0.063305043522268539 -0.12461703618367513 0.10780380259043183 0.35551332123577595 -0.14573680604326314
leaf_weight=942 34 20 29 20 65 23 21 21 29 28 402 20 404 94 20 29 37 28 62 50 34 112 22 33 21 32 87 58 24 58
leaf_count=942 34 20 29 20 65 23 21 21 29 28 402 20 404 94 20 29 37 28 62 50 34 112 22 33 21 32 87 58 24 58
internal_value=-5.11518e-05 0.148253 0.510448 0.928379 0.116171 0.148809 0.210647 0.345613 0.287705 0.417922 -0.0625881 0.0515653 -0.025913 0.00802801 0.113333 0.0855856 0.285115 0.117426 0.155209 0.231533 0.024495 0.0540128 0.226086 -0.0124429 0.354275 0.0567535 -0.026938 0.105178 0.180304 -0.0578968
internal_weight=2859 848 69 40 779 656 401 168 147 94 2011 255 1069 665 233 213 65 190 162 100 235 201 56 145 50 53 489 176 82 123
internal_count=2859 848 69 40 779 656 401 168 147 94 2011 255 1069 665 233 213 65 190 162 100 235 201 56 145 50 53 489 176 82 123
is_linear=0
shrinkage=0.05


Tree=11
num_leaves=31
num_cat=0
split_feature=5 5 1 0 2 1 4 0 0 8 3 4 1 6 15 0 3 13 15 8 2 1 10 8 4 10 10 11 2 3
split_gain=9572.17 3557.13 6001.05 4731.47 1950.52 1864.16 2041.27 1853.48 2591.34 1549.79 1429.73 1108.12 731.772 815.488 669.464 727.329 882.544 881.066 1372.05 841.326 645.632 993.07 1215.28 637.925 558.309 586.728 509.064 445.826 403.144 366.365
threshold=33.5 111.10000000000002 19.950000000000003 15.350000000000003 6.8500000000000005 28.550000000000004 8.4857142857142858 1.1500000000000001 21.850000000000005 91.500000000000014 0.95000000000000007 1.3714285714285694 1.0500000000000003 23.025000000000002 265.50000000000006 21.050000000000004 1.4500000000000002 9.4471428571428593 112.50000000000001 91.500000000000014 27.850000000000005 4.2500000000000009 24.750000000000004 95.500000000000014 6.7999999999999998 21.450000000000003 26.650000000000002 21.492857142857147 1.0000000180025095e-35 0.35000000000000003
decision_type=2 2 2 2 2 2 2 2 2 2 2 2 2 2 2 2 2 2 2 2 2 2 2 2 2 2 2 2 2 2
left_child=11 4 3 -3 5 6 14 9 10 -8 -9 -1 13 28 15 16 17 -2 19 -19 21 22 29 -10 25 -18 -16 -11 -13 -6
right_child=1 2 -4 -5 20 -7 7 8 23 27 -12 12 -14 -15 26 -17 24 18 -20 -21 -22 -23 -24 -25 -26 -27 -28 -29 -30 -31
leaf_value=-0.098997190650928213 0.048345044713753921 0.33816128969192505 -0.062708153395817201 1.4257582664489747 0.18382752270534122 -0.1516570670264108 0.4664246828718619 0.99911288213729854 0.026655759500420612 -0.22297002218663692 0.45883290217413264 0.02258497461028721 -0.077692305544704798 0.099919030307368803 -0.057034648765980356 -0.06432763455169542 0.024422902578058153 0.47355458253905891 0.65843538693312942 0.06366835121185549 -0.11395872805622363 -0.058623273325103677 0.46142866359307216 0.39515301926682395 -0.098848913822855267 0.37976035816328868 0.1858198125516215 0.11088090032339096 -0.068372972378629521 -0.059766596465399772
leaf_weight=942 26 20 29 20 29 42 22 25 23 20 24 230 404 176 71 28 26 21 29 31 84 95 26 24 28 21 31 20 259 33
leaf_count=942 26 20 29 20 29 42 22 25 23 20 24 230 404 176 71 28 26 21 29 31 84 95 26 24 28 21 31 20 259 33
internal_value=-4.85934e-05 0.14084 0.484925 0.88196 0.110363 0.167497 0.196017 0.342444 0.480068 0.129348 0.734486 -0.0594587 -0.0246174 0.00762661 0.121865 0.172909 0.209407 0.301588 0.382876 0.229199 0.000801879 0.0534789 0.174498 0.214825 0.0778959 0.183191 0.0167741 -0.0560446 -0.0255911 0.0541726
internal_weight=2859 848 69 40 779 512 470 158 96 62 49 2011 1069 665 312 210 182 107 81 52 267 183 88 47 75 47 102 40 489 62
internal_count=2859 848 69 40 779 512 470 158 96 62 49 2011 1069 665 312 210 182 107 81 52 267 183 88 47 75 47 102 40 489 62
is_linear=0
shrinkage=0.05


Tree=12
num_leaves=31
num_cat=0
split_feature=5 5 3 1 2 1 4 0 0 8 3 4 6 11 3 1 2 1 10 8 2 6 0 12 6 15 2 4 11 12
split_gain=8638.88 3210.31 5780.88 10752.7 1760.34 1682.4 1842.25 1672.77 2338.68 1398.68 1290.33 1016.68 672.052 633.818 651.434 588.044 582.683 896.246 1100.69 575.727 558.783 474.21 436.476 655.484 628.287 613.027 648.547 419.071 402.358 391.035
threshold=33.5 111.10000000000002 1.6500000000000001 8.6500000000000004 6.8500000000000005 28.550000000000004 8.4857142857142858 1.1500000000000001 21.850000000000005 91.500000000000014 0.95000000000000007 2.014285714285712 24.825000000000006 18.121428571428577 1.4500000000000002 1.4500000000000002 27.850000000000005 4.2500000000000009 25.950000000000003 95.500000000000014 8.3500000000000032 14.425000000000002 12.950000000000001 23.655000000000005 24.575000000000006 154.50000000000003 0.55000000000000016 2.4499999999999988 21.492857142857147 11.115
decision_type=2 2 2 2 2 2 2 2 2 2 2 2 2 2 2 2 2 2 2 2 2 2 2 2 2 2 2 2 2 2
left_child=11 4 3 -3 5 6 12 9 10 -8 -9 -1 13 14 -2 20 17 18 -6 -10 21 -13 23 25 -25 29 27 -27 -11 -23
right_child=1 2 -4 -5 16 -7 7 8 19 28 -12 15 -14 -15 -16 -17 -18 -19 -20 -21 -22 22 -24 24 -26 26 -28 -29 -30 -31
leaf_value=-0.085893757327969097 0.39390428258526711 1.6590335750579834 -0.1659968823194504 0.10360464000701904 0.06677385221666364 -0.14407421357574918 0.44310346652160998 0.94915723681449904 0.025322972173276156 -0.21182152166962626 0.43589126504957676 -0.077681130442667667 0.33284114450216296 0.055463017014111493 0.027892979313619438 -0.072734660770918919 -0.10826079254703863 -0.055692109767543643 0.48162883204363638 0.37539537151654567 -0.10420236274783995 0.22063045978546142 -0.085815435416168651 -0.11617327875165798 0.13424938008189202 0.099924223870038992 0.031111318100657728 0.3556173702670356 0.10533685132861137 -0.0026323195342179183
leaf_weight=1194 31 20 24 25 67 42 22 25 23 20 24 74 32 229 20 277 84 95 21 24 81 25 45 67 40 22 36 59 20 91
leaf_count=1194 31 20 24 25 67 42 22 25 23 20 24 74 32 229 20 277 84 95 21 24 81 25 45 67 40 22 36 59 20 91
internal_value=-4.61639e-05 0.133798 0.460679 0.794906 0.104845 0.159122 0.186216 0.325322 0.456065 0.12288 0.697762 -0.0564857 0.115772 0.090964 0.25037 -0.0135075 0.000761785 0.0508049 0.165773 0.204083 0.0168738 0.0382402 0.0605212 0.0798893 -0.0225573 0.126936 0.20769 0.28617 -0.0532423 0.0454847
internal_weight=2859 848 69 45 779 512 470 158 96 62 49 2011 312 280 51 817 267 183 88 47 540 459 385 340 107 233 117 81 40 116
internal_count=2859 848 69 45 779 512 470 158 96 62 49 2011 312 280 51 817 267 183 88 47 540 459 385 340 107 233 117 81 40 116
is_linear=0
shrinkage=0.05


Tree=13
num_leaves=31
num_cat=0
split_feature=5 2 5 1 1 4 0 16 2 1 12 4 10 15 15 0 1 6 15 2 7 15 12 10 4 2 7 6 7 13
split_gain=7796.59 2909.38 6435.7 5264.25 1455.43 1473.54 1527.15 1186.22 1303.5 1101.31 3872.24 924.447 907.515 736.803 608.781 620.26 585.544 625.97 577.225 568.643 753.131 1846.05 1162.61 503.412 430.892 406.377 429.292 714.663 403.062 438.464
threshold=33.5 28.250000000000004 111.10000000000002 9.1500000000000004 20.750000000000004 8.4857142857142858 0.35000000000000003 3.5000000000000004 0.25000000000000006 1.6500000000000001 11.115 1.7714285714285722 19.950000000000003 132.50000000000003 265.50000000000006 24.350000000000005 1.0500000000000003 23.025000000000002 206.50000000000003 1.1500000000000001 15.667857142857143 116.50000000000001 20.765000000000004 26.650000000000002 5.9642857142857144 1.0000000180025095e-35 20.067857142857147 16.425000000000004 23.110714285714288 22.966428571428576
decision_type=2 2 2 2 2 2 2 2 2 2 2 2 2 2 2 2 2 2 2 2 2 2 2 2 2 2 2 2 2 2
left_child=11 2 4 -4 5 14 12 9 -9 10 -8 -1 -7 -11 15 19 17 25 -10 20 24 22 -22 -16 -2 26 27 -13 29 -19
right_child=1 -3 3 -5 -6 6 7 8 18 13 -12 16 -14 -15 23 -17 -18 28 -20 -21 21 -23 -24 -25 -26 -27 -28 -29 -30 -31
leaf_value=-0.084667434864698757 0.23082960058342328 -0.11925289125669569 1.2462223837773005 0.18765713857567831 -0.041420454851218633 -0.10350772053808779 0.22554512703418733 0.51533012181520466 0.21025575101375582 0.065224531590938578 1.1589549559354784 -0.023196481830543944 0.29127248326937355 0.4944106769561768 -0.066301957208935808 -0.097058930277824418 -0.067198715411359453 0.38773421807722613 -0.16046576315448399 0.068502465497864332 -0.030985504121053966 0.61897802390158185 0.4182826889057954 0.15587418240469855 -0.069831328724439326 -0.06067379248842341 -0.12082654711078196 0.19845197327209241 0.051392080399011254 0.064263147711753843
leaf_weight=1095 22 105 24 23 112 37 25 20 21 20 20 81 24 20 82 25 352 22 21 92 36 32 24 37 26 232 34 66 109 20
leaf_count=1095 22 105 24 23 112 37 25 20 21 20 20 81 24 20 82 25 352 22 21 92 36 32 24 37 26 232 34 66 109 20
internal_value=-4.38551e-05 0.127108 0.161924 0.728201 0.123684 0.155348 0.262132 0.349406 0.1831 0.470711 0.640394 -0.0536614 0.0518156 0.279818 0.0962755 0.139568 -0.0165964 0.0149852 0.024895 0.165067 0.228523 0.312289 0.148722 0.00277802 0.0679716 -0.0168656 0.0392863 0.0763192 0.1021 0.2337
internal_weight=2859 848 743 47 696 584 208 147 62 85 45 2011 61 40 376 257 916 564 42 232 140 92 60 119 48 413 181 147 151 42
internal_count=2859 848 743 47 696 584 208 147 62 85 45 2011 61 40 376 257 916 564 42 232 140 92 60 119 48 413 181 147 151 42
is_linear=0
shrinkage=0.05


Tree=14
num_leaves=31
num_cat=0
split_feature=5 2 5 1 1 4 4 11 6 11 3 1 3 1 6 15 3 1 3 3 10 1 13 4 11 2 12 10 10 1
split_gain=7036.42 2625.72 5808.22 4750.99 1352.38 1480.19 845.693 833.367 1340.76 1139.91 1013.68 752.884 576.95 569.019 596.6 442.632 504.682 504.109 790.856 633.955 437.833 451.099 437.686 375.048 378.723 358.657 347.125 340.486 582.071 348.394
threshold=33.5 28.250000000000004 111.10000000000002 9.1500000000000004 31.150000000000002 8.4857142857142858 1.3714285714285694 18.678571428571434 17.075000000000006 24.558571428571433 1.5500000000000003 1.0500000000000003 0.25000000000000006 0.55000000000000016 23.025000000000002 265.50000000000006 1.4500000000000002 4.2500000000000009 1.0000000180025095e-35 0.35000000000000003 26.650000000000002 1.9500000000000002 14.367857142857144 3.3928571428571415 21.535714285714292 0.65000000000000002 23.370000000000001 21.450000000000003 24.950000000000003 1.2500000000000002
decision_type=2 2 2 2 2 2 2 2 2 2 2 2 2 2 2 2 2 2 2 2 2 2 2 2 2 2 2 2 2 2
left_child=6 2 4 -4 5 15 -1 -7 11 10 22 -9 -13 14 26 16 17 18 -2 -20 -17 -22 -10 -16 -25 -19 -8 29 -29 -18
right_child=1 -3 3 -5 -6 7 13 8 9 -11 -12 12 -14 -15 23 20 27 25 19 -21 21 -23 -24 24 -26 -27 -28 28 -30 -31
leaf_value=-0.085519270102380765 0.12835945031709142 -0.11329024485179356 1.1839112540086112 0.17827428423840067 -0.12281780452639968 0.49975997165397362 0.0025910026207566265 -0.09352858996107466 0.22795755123453484 0.57228573933243754 -0.0048253496808390471 0.37765057449755463 0.036867414911588035 -0.06095031528597853 0.043714070800726992 -0.056002911827066439 -0.15032050707510541 0.20810774493785134 0.58692807284268467 0.20285610481209698 0.29540086293762385 -0.032697705775499346 0.5259779477661306 0.09555009999151888 0.37837316527962689 -0.054702183669980836 -0.11631149893274179 0.32651040440513973 -0.0144227885430859 0.1112793980911374
leaf_weight=942 72 105 24 23 54 27 360 42 28 32 31 23 27 480 106 91 35 21 22 21 22 20 22 29 20 34 74 21 31 20
leaf_count=942 72 105 24 23 54 27 360 42 28 32 31 23 27 480 106 91 35 21 22 21 22 20 22 29 20 34 74 21 31 20
internal_value=-4.16621e-05 0.120753 0.153828 0.691791 0.1175 0.137713 -0.0509784 0.23864 0.204249 0.319627 0.219812 0.0625346 0.193628 -0.020541 0.0123902 0.080603 0.116602 0.170145 0.229689 0.399358 0.00562857 0.139163 0.359087 0.0965942 0.210988 0.0456434 -0.0176827 0.0315325 0.123262 -0.0551933
internal_weight=2859 848 743 47 696 642 2011 232 205 113 81 92 50 1069 589 410 277 170 115 43 133 42 50 155 49 55 434 107 52 55
internal_count=2859 848 743 47 696 642 2011 232 205 113 81 92 50 1069 589 410 277 170 115 43 133 42 50 155 49 55 434 107 52 55
is_linear=0
shrinkage=0.05


Tree=15
num_leaves=31
num_cat=0
split_feature=5 0 1 10 2 4 10 1 2 5 4 14 3 1 12 6 13 3 3 14 3 9 6 1 2 8 0 9 14 9
split_gain=6260.32 3203.78 3123.18 4516.37 2729.54 2827.92 1507.63 989.141 927.133 2298.37 912.811 782.946 705.815 677.412 690.781 1201.32 863.701 905.413 796.635 1057.9 569.767 869.514 549.043 680.414 515.965 531.566 704.303 494.996 449.396 444.561
threshold=36.150000000000013 1.3500000000000003 1.7500000000000002 30.450000000000003 4.9500000000000011 8.4857142857142858 17.250000000000004 37.150000000000013 10.350000000000003 86.549999999999997 2.1999999999999971 6.5000000000000009 9.9500000000000011 21.350000000000005 25.515000000000004 18.875000000000004 8.5121428571428588 0.45000000000000007 1.2500000000000002 3.5000000000000004 0.25000000000000006 93.642857142857153 13.825000000000001 1.0000000180025095e-35 0.45000000000000007 88.500000000000014 13.750000000000002 90.928571428571445 4.5000000000000009 91.642857142857153
decision_type=2 2 2 2 2 2 2 2 2 2 2 2 2 2 2 2 2 2 2 2 2 2 2 2 2 2 2 2 2 2
left_child=10 12 3 4 5 11 -4 8 9 -8 -1 -3 13 14 15 16 17 -2 19 -17 21 -18 -12 24 25 -24 28 -14 -27 -16
right_child=1 2 6 -5 -6 -7 7 -9 -10 -11 22 -13 27 -15 29 18 20 -19 -20 -21 -22 -23 23 -25 -26 26 -28 -29 -30 -31
leaf_value=-0.074260738064258244 -0.022834417791593644 0.034506305526284607 0.39353821371731007 1.0071282014846801 -0.11954906582832336 0.74370313647546271 0.061480235385865271 -0.25100000028808916 -0.080350289615717801 0.60581839283307393 -0.10680160875721226 0.3989962241970576 0.051954515622212344 -0.13236344877216552 -0.18293706798875653 0.14569289508307803 -0.086764942682706403 0.42672212794423103 0.0049481657289323355 0.56582636926924035 -0.17242528013885022 0.30085665544737944 -0.044683422107954285 -0.027607660157560415 -0.029669691864401104 0.078549876318950412 -0.083845030807930487 -0.21993770978433336 0.28868393131664821 0.10509388815788996
leaf_weight=1284 21 34 38 25 33 38 101 24 55 24 116 26 26 45 37 29 39 24 21 31 48 23 37 429 80 38 23 47 77 21
leaf_count=1284 21 34 38 25 33 38 101 24 55 24 116 26 26 45 37 29 39 24 21 31 48 23 37 429 80 38 23 47 77 21
internal_value=-0.00229349 0.115664 0.216837 0.391288 0.273761 0.406202 0.104382 0.050519 0.0907216 0.165993 -0.0481407 0.192452 0.0179286 0.0482974 0.0759496 0.113944 0.0323953 0.216929 0.269995 0.362762 -0.0430958 0.0570302 -0.00621802 0.01084 0.0755226 0.12361 0.168733 -0.123099 0.219248 -0.07865
internal_weight=2894 810 398 156 131 98 242 204 180 125 2084 60 412 339 294 236 155 45 81 60 110 62 800 684 255 175 138 73 115 58
internal_count=2894 810 398 156 131 98 242 204 180 125 2084 60 412 339 294 236 155 45 81 60 110 62 800 684 255 175 138 73 115 58
is_linear=0
shrinkage=0.05


Tree=16
num_leaves=31
num_cat=0
split_feature=4 0 1 4 15 10 10 1 13 6 4 12 7 3 4 1 15 10 9 4 6 11 11 11 4 3 4 6 1 6
split_gain=5576.21 2790.79 2861.59 4046.33 5393.3 1293.03 1041.77 825.439 810.319 813.353 1046.98 801.816 805.646 757.053 666.154 661.216 723.757 813.642 803.246 1082.38 635.315 1003.08 463.353 491.758 604.972 451.931 670.2 424.17 414.304 400.19
threshold=4.6499999999999968 1.3500000000000003 1.7500000000000002 8.4857142857142858 170.50000000000003 17.250000000000004 15.050000000000002 37.150000000000013 18.947142857142861 19.825000000000006 10.492857142857142 18.510000000000002 19.246428571428574 9.9500000000000011 2.1999999999999971 21.350000000000005 42.500000000000007 12.450000000000001 90.642857142857153 11.021428571428572 17.525000000000002 24.235714285714291 23.721428571428579 19.692857142857147 6.3357142857142872 0.15000000000000005 6.1500000000000012 21.875000000000004 2.9500000000000006 13.925000000000002
decision_type=2 2 2 2 2 2 2 2 2 2 2 2 2 2 2 2 2 2 2 2 2 2 2 2 2 2 2 2 2 2
left_child=14 13 3 11 -5 6 -4 8 9 20 -11 12 -3 15 -1 16 -2 -18 27 22 21 -7 23 24 -20 -25 -27 -19 29 -16
right_child=1 2 5 4 -6 7 -8 -9 -10 10 -12 -13 -14 -15 28 -17 17 18 19 -21 -22 -23 -24 25 -26 26 -28 -29 -30 -31
leaf_value=-0.070547700137686215 -0.18374656530526967 0.24376553798976697 0.098198088648773385 1.1345283235273054 0.25097440091463236 -0.0087933081846970785 0.60242162257432941 -0.23844999993840854 -0.12245950182633741 0.11617254667604965 0.56737080141901974 0.39995100504159931 -0.072213664720224779 -0.12201314802485995 -0.090345939210592183 -0.12662575564214162 -0.11997381020337344 -0.0948117752401334 0.22114227077235349 0.45579543319241761 -0.18509926752497752 0.39396167465231641 -0.042845043178760644 0.34903289147398692 -0.13418148925900461 -0.084027219847554263 0.29574637149388971 0.17071493182863509 -0.072084784740102048 0.032774812518985341
leaf_weight=1284 26 38 21 31 39 52 20 24 42 36 20 25 43 82 78 49 40 53 23 29 24 22 33 44 25 21 26 21 194 429
leaf_count=1284 26 38 21 31 39 52 20 24 42 36 20 25 43 82 78 49 40 53 23 29 24 22 33 44 25 21 26 21 194 429
internal_value=-0.00217882 0.100384 0.191434 0.347245 0.642263 0.0863664 0.344161 0.038323 0.0722135 0.125306 0.277315 0.152421 0.0760235 0.0160849 -0.0491457 0.0451209 0.0698001 0.0907277 0.121375 0.173225 0.0384441 0.110945 0.125582 0.165568 0.0360778 0.233871 0.12606 -0.0194596 -0.00994442 0.0138332
internal_weight=2894 909 437 176 70 261 41 220 196 154 56 106 81 472 1985 390 341 315 275 201 98 74 172 139 48 91 47 74 701 507
internal_count=2894 909 437 176 70 261 41 220 196 154 56 106 81 472 1985 390 341 315 275 201 98 74 172 139 48 91 47 74 701 507
is_linear=0
shrinkage=0.05


Tree=17
num_leaves=31
num_cat=0
split_feature=5 0 1 10 2 9 10 12 2 1 4 4 3 1 15 0 0 13 2 1 0 4 16 2 8 9 10 10 13 8
split_gain=5114.31 2612.21 2543.71 3942.79 2434.35 2476.74 1230.85 893.313 874.858 849.339 2011.96 739.597 573.624 552.02 618.628 687.951 966.429 509.377 489.276 584.14 495.877 487.024 1300.7 1136.7 474.254 446.734 434.716 431.626 575.985 370.45
threshold=36.150000000000013 1.3500000000000003 1.7500000000000002 30.450000000000003 4.9500000000000011 94.928571428571445 17.250000000000004 7.705000000000001 26.550000000000004 20.750000000000004 12.300000000000002 2.1999999999999971 9.9500000000000011 21.350000000000005 42.500000000000007 0.35000000000000003 0.65000000000000002 7.1900000000000004 8.7500000000000018 4.0500000000000007 12.65 6.9071428571428584 1.5000000000000002 1.3500000000000003 86.500000000000014 90.928571428571445 17.750000000000004 20.550000000000004 14.759285714285717 92.500000000000014
decision_type=2 2 2 2 2 2 2 2 2 2 2 2 2 2 2 2 2 2 2 2 2 2 2 2 2 2 2 2 2 2
left_child=11 12 3 4 5 7 -4 -3 9 10 -8 -1 13 14 -2 17 -17 -16 19 20 24 22 -19 -24 -13 -14 -26 28 -23 -28
right_child=1 2 6 -5 -6 -7 8 -9 -10 -11 -12 18 25 -15 15 16 -18 21 -20 -21 -22 27 23 -25 26 -27 29 -29 -30 -31
leaf_value=-0.067020314184164001 -0.17463584343592328 0.050963029422258083 0.35568236081311816 0.92874681758880628 -0.12790544990337258 0.78689344662886407 0.06344688704703004 0.40374543824616604 -0.23782039154320955 -0.06628253017702411 0.59356587393717331 -0.05675299496222766 0.05545744712536152 -0.11941398864353284 0.2801734386455445 0.46119826634724936 0.063059090290750783 -0.17781436034926662 -0.096638203161954886 -0.071049945506199114 -0.097634372518708323 -0.19554748524512566 0.5057628013193608 0.056332897088106938 0.013001502989480893 -0.20284016636457852 0.19586883579376058 0.12731079953908919 0.11150824370838347 0.066025718536973005
leaf_weight=1284 24 38 38 25 33 26 96 34 24 62 22 78 26 45 21 27 35 27 125 164 60 56 24 34 150 47 98 25 21 125
leaf_count=1284 24 38 38 25 33 26 96 34 24 62 22 78 26 45 21 27 35 27 125 164 60 56 24 34 150 47 98 25 21 125
internal_value=-0.00206988 0.104546 0.195902 0.353339 0.243529 0.368604 0.0944135 0.217555 0.0457458 0.0835546 0.162283 -0.0435088 0.0162937 0.0436714 0.0686334 0.0902574 0.236442 0.046683 -0.00577272 0.0110542 0.0374047 0.0204621 0.108855 0.242304 0.05537 -0.110844 0.0788166 -0.0531982 -0.111805 0.123087
internal_weight=2894 810 398 156 131 98 242 72 204 180 118 2084 412 339 294 270 62 208 800 675 511 187 85 58 451 73 373 102 77 223
internal_count=2894 810 398 156 131 98 242 72 204 180 118 2084 412 339 294 270 62 208 800 675 511 187 85 58 451 73 373 102 77 223
is_linear=0
shrinkage=0.05


Tree=18
num_leaves=31
num_cat=0
split_feature=5 0 1 10 11 9 12 10 1 13 4 9 3 3 11 1 12 10 7 12 12 1 7 1 9 10 8 0 10 9
split_gain=4615.67 2357.52 2295.7 3558.37 2259.01 1744.7 1395.43 1110.84 767.51 701.743 667.487 560.566 1219.62 517.696 515.885 498.198 576.134 965.443 1380.08 868.768 752.451 584.887 544.276 429.128 403.178 383.061 379.438 402.225 381.839 366.409
threshold=36.150000000000013 1.3500000000000003 1.7500000000000002 30.450000000000003 19.735714285714291 94.785714285714292 12.725000000000003 17.250000000000004 37.150000000000013 18.947142857142861 2.1999999999999971 93.34285714285717 1.1500000000000001 9.9500000000000011 22.76428571428572 21.350000000000005 25.515000000000004 19.950000000000003 19.946428571428573 12.535000000000002 13.050000000000002 0.95000000000000007 20.996428571428574 2.9500000000000006 90.928571428571445 18.850000000000005 86.500000000000014 12.65 30.950000000000003 92.071428571428584
decision_type=2 2 2 2 2 2 2 2 2 2 2 2 2 2 2 2 2 2 2 2 2 2 2 2 2 2 2 2 2 2
left_child=10 13 3 4 5 -3 29 -4 9 11 -1 12 -9 15 -13 16 17 20 19 -19 21 -2 -22 26 -15 -18 -12 28 -28 -6
right_child=1 2 7 -5 6 -7 -8 8 -10 -11 23 14 -14 24 -16 -17 25 18 -20 -21 22 -23 -24 -25 -26 -27 27 -29 -30 -31
leaf_value=-0.06366929768046474 0.032882348849223211 0.21430724740028381 0.33789824282162284 0.88230950307846079 0.12769710659980774 0.87474337622523324 0.36608833824434589 0.48940338519988241 -0.2221412586669127 -0.1220711841753551 -0.070924840848892931 -0.028417453157805628 -0.018651361692519415 0.052684573026803828 0.21168823335851941 -0.11344328936603335 0.048152056249479457 -0.083245889885084967 0.47262249492641006 0.30267078638076783 -0.16177620382632241 0.35530630024996673 0.13463122929845536 -0.063665275971840102 -0.19269816082842806 -0.20899316785590993 0.042430890812268786 -0.089546236483978914 0.2663380126096308 -0.13441295504570008
leaf_weight=1284 39 20 38 25 20 20 31 27 24 35 100 62 21 26 35 45 30 35 35 25 59 22 21 227 47 28 397 56 20 40
leaf_count=1284 39 20 38 25 20 20 31 27 24 35 100 62 21 26 35 45 30 35 35 25 59 22 21 227 47 28 397 56 20 40
internal_value=-0.00196638 0.0993184 0.186107 0.335673 0.231352 0.544525 0.0936941 0.0896929 0.0434585 0.0788718 -0.0413333 0.127375 0.267129 0.015479 0.0582186 0.0414878 0.0652017 0.0999007 0.223105 0.0775527 0.0168909 0.149166 -0.0839693 -0.00548408 -0.105302 -0.075987 0.017565 0.0362732 0.0531698 -0.0470429
internal_weight=2894 810 398 156 131 40 91 242 204 180 2084 145 48 412 97 339 294 236 95 60 141 61 80 800 73 58 573 473 417 60
internal_count=2894 810 398 156 131 40 91 242 204 180 2084 145 48 412 97 339 294 236 95 60 141 61 80 800 73 58 573 473 417 60
is_linear=0
shrinkage=0.05


Tree=19
num_leaves=31
num_cat=0
split_feature=5 2 4 1 4 16 11 11 1 4 4 6 7 7 11 2 6 3 4 16 11 9 7 16 1 7 9 8 1 12
split_gain=4165.64 1951.08 3245.5 1219.3 1087.95 1309.72 1223.84 760.182 1075.16 695.084 608.898 600.421 982.822 557.338 519.136 501.178 538.857 511.493 544.149 490.462 431.52 408.013 403.48 553.54 285.762 396.979 270.516 255.079 283.681 246.964
threshold=36.150000000000013 26.550000000000004 16.735714285714291 20.750000000000004 8.4857142857142858 5.5000000000000009 18.678571428571434 24.657142857142862 3.5500000000000003 10.742857142857142 1.3714285714285694 20.725000000000005 21.875000000000004 20.13214285714286 21.892857142857149 1.2500000000000002 14.975000000000001 0.45000000000000007 4.6499999999999968 2.5000000000000004 16.035714285714288 91.214285714285737 17.917857142857148 2.5000000000000004 0.55000000000000016 15.800000000000001 89.928571428571445 86.500000000000014 6.8500000000000005 16.630000000000006
decision_type=2 2 2 2 2 2 2 2 2 2 2 2 2 2 2 2 2 2 2 2 2 2 2 2 2 2 2 2 2 2
left_child=10 2 3 4 11 6 -6 8 9 14 -1 13 21 22 -8 16 -12 18 20 -14 -18 -13 24 -24 -2 -26 -21 -22 -29 -19
right_child=1 -3 -4 -5 5 -7 7 -9 -10 -11 15 12 19 -15 -16 -17 17 29 -20 26 27 -23 23 -25 25 -27 -28 28 -30 -31
leaf_value=-0.067704876147670137 -0.065253972588106987 -0.10563306816598789 0.59382145030157907 -0.054790435425031973 0.59209163711907775 -0.067848089247038876 0.33289995392163596 0.42723506128086763 0.37862164619806649 -0.13727312604586284 -0.077537653898236469 0.16964221447706224 0.19840261710656656 -0.1605240433556693 -0.003357841209931807 -0.05756143039728559 0.27569788325400579 0.046909047524025159 0.30123912441730499 0.10355337411165239 -0.079622053629473638 0.44623292843500773 -0.017045435989680498 0.304533036518842 0.19825399904088542 -0.084051617067307238 -0.11899144049319957 0.085359498355537661 -0.069870756885835106 -0.056376057311470773
leaf_weight=989 64 106 35 107 26 33 24 34 37 30 134 24 37 35 22 407 21 91 25 22 38 30 23 32 33 20 36 185 35 159
leaf_count=989 64 106 35 107 26 33 24 34 37 30 134 24 37 35 22 407 21 91 25 22 38 30 23 32 33 20 36 185 35 159
internal_value=-0.00186806 0.0943525 0.124464 0.0999087 0.129362 0.220815 0.275878 0.219949 0.15758 0.0499675 -0.0392667 0.0764425 0.152978 0.0213515 0.172081 -0.0135814 0.0124359 0.0341985 0.0777665 0.0561619 0.0577421 0.323304 0.0583611 0.170055 0.00585552 0.0917236 -0.0345779 0.0400015 0.0606638 -0.0187803
internal_weight=2894 810 704 669 562 206 173 147 113 76 2084 356 149 207 46 1095 688 554 304 95 279 54 172 55 117 53 58 258 220 250
internal_count=2894 810 704 669 562 206 173 147 113 76 2084 356 149 207 46 1095 688 554 304 95 279 54 172 55 117 53 58 258 220 250
is_linear=0
shrinkage=0.05


Tree=20
num_leaves=31
num_cat=0
split_feature=4 0 1 4 11 10 6 4 4 1 2 0 3 8 1 11 11 11 4 16 8 0 4 0 9 6 9 2 0 16
split_gain=4399.04 2712.72 3108.22 6591.83 2390.57 1928.21 1116.25 864.096 839.98 778.17 598.789 676.478 664.25 914.187 686.959 1039.53 595.581 608.87 921.132 537.169 890.243 596.698 527.55 824.507 405.432 611.307 368.526 312.771 290.478 331.528
threshold=8.2571428571428545 1.0000000180025095e-35 7.3500000000000005 15.407142857142855 18.678571428571434 17.550000000000004 22.425000000000004 2.7571428571428549 10.142857142857142 2.2500000000000004 6.7500000000000009 19.950000000000003 1.4500000000000002 85.500000000000014 6.8500000000000005 17.478571428571431 25.764285714285716 21.63571428571429 11.242857142857142 1.5000000000000002 92.500000000000014 1.2500000000000002 5.4928571428571402 0.15000000000000005 92.619047619047635 21.125000000000004 93.642857142857153 25.850000000000005 0.65000000000000002 3.5000000000000004
decision_type=2 2 2 2 2 2 2 2 2 2 2 2 2 2 2 2 2 2 2 2 2 2 2 2 2 2 2 2 2 2
left_child=7 8 3 4 -3 -4 9 -1 -2 26 11 12 13 -9 15 -15 17 -7 -19 21 22 -17 23 -21 25 -22 -6 -10 -14 -30
right_child=1 2 5 -5 6 16 -8 10 27 -11 -12 -13 28 14 -16 19 -18 18 -20 20 24 -23 -24 -25 -26 -27 -28 -29 29 -31
leaf_value=-0.053469896744724757 0.097814059183001525 0.73429092644225991 0.46878820191258969 1.1520893915839818 -0.10374546574383248 -0.087713908217847358 0.42296113396684332 -0.11158898917111484 -0.28799228233260082 0.3408857786761863 -0.06134759245867856 -0.12155972506631824 -0.075243984488770371 0.38776752733086289 -0.010299272940210359 -0.13706939994357525 -0.24268158490841207 -0.049205100001848266 0.41476107463240625 -0.0038265975813070933 0.36874573798406696 0.15518813075557833 0.49909508135169744 0.36391874892371046 -0.019864998848149271 -0.017502771019935609 0.12266620732843876 -0.053194296878317129 0.10807028240087675 -0.074043519540530886
leaf_weight=1494 40 21 23 23 41 52 30 55 37 21 244 68 128 38 96 40 26 23 20 27 21 31 20 35 66 20 32 23 64 41
leaf_count=1494 40 21 23 23 41 52 30 55 37 21 244 68 128 38 96 40 26 23 20 27 21 31 20 35 66 20 32 23 64 41
internal_value=-0.00437536 0.146955 0.21959 0.365699 0.240961 0.0491305 0.157413 -0.0294349 -0.0796662 0.0726634 0.0066901 0.028825 0.0438194 0.079366 0.106022 0.143495 -0.0306392 0.0273935 0.166593 0.107794 0.151843 -0.009464 0.275802 0.203772 0.0568459 0.180332 -0.00449651 -0.197986 -0.0246803 0.0369592
internal_weight=2900 412 312 168 145 144 124 2488 100 94 994 750 682 449 394 298 121 95 43 260 189 71 82 62 107 41 73 60 233 105
internal_count=2900 412 312 168 145 144 124 2488 100 94 994 750 682 449 394 298 121 95 43 260 189 71 82 62 107 41 73 60 233 105
is_linear=0
shrinkage=0.05


Tree=21
num_leaves=31
num_cat=0
split_feature=4 0 1 4 16 10 9 3 5 5 1 2 0 1 3 8 10 12 13 0 7 6 5 13 15 12 1 2 5 15
split_gain=3970.13 2448.23 2805.17 5949.13 1840.5 1740.21 1714.41 1526.37 814.835 768.01 676.534 553.27 707.593 625.491 640.65 833.996 634.055 554.299 744.384 685.238 909.203 659.864 517.928 468.497 455.142 405.852 401.711 551.31 709.671 377.344
threshold=8.2571428571428545 1.0000000180025095e-35 7.3500000000000005 15.407142857142855 4.5000000000000009 17.550000000000004 95.500000000000014 1.5500000000000003 24.400000000000009 70.449999999999974 0.55000000000000016 10.65 22.550000000000004 22.950000000000003 1.4500000000000002 85.500000000000014 21.050000000000004 18.305000000000003 8.2864285714285746 0.65000000000000002 15.15357142857143 24.925000000000004 38.699999999999996 16.582857142857147 230.50000000000003 11.515000000000002 37.150000000000013 15.550000000000002 81.950000000000003 208.50000000000003
decision_type=2 2 2 2 2 2 2 2 2 2 2 2 2 2 2 2 2 2 2 2 2 2 2 2 2 2 2 2 2 2
left_child=8 9 3 4 6 -4 7 10 -1 -2 -3 12 13 14 15 -10 -16 18 -17 20 -20 22 -19 -18 -21 -26 27 28 -7 -6
right_child=1 2 5 -5 29 26 -8 -9 11 -11 -12 -13 -14 -15 16 17 23 21 19 24 -22 -23 -24 -25 25 -27 -28 -29 -30 -31
leaf_value=-0.047281845113711578 0.097612112072797921 0.56531018742493222 0.44534878938094435 1.0944849180138629 0.10713327541947365 -0.03287539641404974 0.74575915641727908 -0.06014480335371835 -0.095218959649403898 -0.18647807274685532 0.21111232781639466 -0.074067295505665251 -0.13358932260358544 -0.11796423828601837 -0.092621322683436744 -0.010677386075258255 -0.012836679452803076 0.072645488837886546 0.15550434317277828 0.059189295067506677 0.57977453555379599 0.25686269378289583 -0.1757286440115422 0.24026236841172885 0.14583461708747422 0.44542711853981021 -0.16909569992373388 -0.1296645012768832 0.33903421319049337 -0.19294656542214483
leaf_weight=1709 39 28 23 23 20 29 21 28 45 61 26 144 57 50 101 37 41 61 23 51 28 30 32 33 26 20 36 33 23 22
leaf_count=1709 39 28 23 23 20 29 21 28 45 61 26 144 57 50 101 37 41 61 23 51 28 30 32 33 26 20 36 33 23 22
internal_value=-0.00415659 0.139607 0.208611 0.347414 0.228913 0.046674 0.342665 0.239434 -0.0279632 -0.0756829 0.39477 0.0144189 0.034485 0.0510599 0.0670659 0.105845 -0.0111566 0.135221 0.189914 0.240062 0.388437 0.0529589 -0.0128166 0.100032 0.16205 0.276092 -0.0291072 0.030182 0.131623 -0.0500514
internal_weight=2900 412 312 168 145 144 103 82 2488 100 54 779 635 578 528 353 175 308 185 148 51 123 93 74 97 46 121 85 52 42
internal_count=2900 412 312 168 145 144 103 82 2488 100 54 779 635 578 528 353 175 308 185 148 51 123 93 74 97 46 121 85 52 42
is_linear=0
shrinkage=0.05


Tree=22
num_leaves=31
num_cat=0
split_feature=4 0 1 4 11 10 6 5 1 5 11 11 4 2 0 1 3 11 8 10 0 16 8 6 4 0 0 9 1 15
split_gain=3583.04 2209.52 2531.66 5369.09 2054.9 1570.54 981.509 735.389 709.871 693.129 530.861 534.345 786.39 499.326 638.603 564.506 578.186 1032.72 750.691 572.235 418.672 411.597 656.492 474.896 579.63 369.843 337.799 597.207 321.837 400.254
threshold=8.2571428571428545 1.0000000180025095e-35 7.3500000000000005 15.407142857142855 18.678571428571434 17.550000000000004 22.425000000000004 24.400000000000009 2.2500000000000004 70.449999999999974 25.764285714285716 21.63571428571429 11.242857142857142 10.65 22.550000000000004 22.950000000000003 1.4500000000000002 17.478571428571431 85.500000000000014 21.050000000000004 0.55000000000000016 1.5000000000000002 92.500000000000014 23.075000000000006 5.2785714285714294 1.4500000000000002 0.65000000000000002 93.214285714285737 2.9500000000000006 202.50000000000003
decision_type=2 2 2 2 2 2 2 2 2 2 2 2 2 2 2 2 2 2 2 2 2 2 2 2 2 2 2 2 2 2
left_child=7 9 3 4 -3 -4 8 -1 26 -2 11 -7 -13 14 15 16 17 20 -19 -18 -9 25 23 24 -23 -20 -6 -28 29 -21
right_child=1 2 5 -5 6 10 -8 13 -10 -11 -12 12 -14 -15 -16 -17 19 18 21 28 -22 22 -24 -25 -26 -27 27 -29 -30 -31
leaf_value=-0.044917752661493227 0.092731508765465182 0.67485227088133504 0.42308134307032053 1.0397606735644134 0.15609116667792911 -0.080695986174620121 0.38901254018147791 0.4734505005018867 0.31671807020902637 -0.17715417048970208 -0.22784202683430455 -0.041851411695065704 0.38683959260582923 -0.070363929916897591 -0.12690985768118448 -0.11206602573394775 -0.087990256232937977 -0.12591894684835922 -0.10415869331918658 0.33832126289606096 0.16835340149700642 0.020159421758405096 0.062387960147844937 0.46000990599393843 0.33909628149122001 0.12593108250969839 -0.27938065853985877 0.063594147761662806 -0.065280548550865874 0.053186975233256821
leaf_weight=1709 39 21 23 23 21 52 30 23 21 61 26 23 20 144 57 50 101 43 40 20 22 29 117 20 28 31 22 30 22 32
leaf_count=1709 39 21 23 23 21 52 30 23 21 61 26 23 20 144 57 50 101 43 40 20 22 29 117 20 28 31 22 30 22 32
internal_value=-0.00394876 0.132627 0.19818 0.330043 0.217467 0.0443403 0.140007 -0.026565 0.0605366 -0.0718988 -0.0276519 0.027137 0.15754 0.0136979 0.0327608 0.0485069 0.0637126 0.100553 0.0678633 -0.0105987 0.324292 0.0993073 0.137005 0.250383 0.17683 -0.00369696 -0.0131594 -0.0815106 0.0950302 0.162854
internal_weight=2900 412 312 168 145 144 124 2488 94 100 121 95 43 779 635 578 528 353 308 175 45 265 194 77 57 71 73 52 74 52
internal_count=2900 412 312 168 145 144 124 2488 94 100 121 95 43 779 635 578 528 353 308 175 45 265 194 77 57 71 73 52 74 52
is_linear=0
shrinkage=0.05


Tree=23
num_leaves=31
num_cat=0
split_feature=4 6 4 10 15 2 13 3 7 16 13 4 7 2 3 15 6 13 16 0 9 4 12 0 2 12 6 4 10 10
split_gain=3233.7 2008.02 4212.33 1572.22 1287.07 1143.03 2276.12 843.227 829.041 750.188 909.184 671.424 547.416 523.981 441.271 529.165 587.781 934.248 365.638 545.763 358.118 278.987 261.372 257.887 295.606 291.465 495.599 710.797 254.493 241.003
threshold=8.2571428571428545 19.325000000000006 15.121428571428574 26.850000000000005 132.50000000000003 0.15000000000000005 8.6714285714285726 0.15000000000000005 20.675000000000001 4.5000000000000009 8.8307142857142882 2.3785714285714277 23.060714285714287 1.0000000180025095e-35 0.45000000000000007 330.50000000000006 16.425000000000004 13.182857142857145 1.5000000000000002 0.35000000000000003 93.214285714285737 12.778571428571427 21.665000000000003 16.650000000000002 10.65 21.065000000000001 23.025000000000002 4.5071428571428553 15.250000000000002 12.850000000000003
decision_type=2 2 2 2 2 2 2 2 2 2 2 2 2 2 2 2 2 2 2 2 2 2 2 2 2 2 2 2 2 2
left_child=11 4 3 8 -2 6 -6 9 -3 10 -7 -1 -10 14 15 16 28 -18 -19 -20 -9 -22 -16 24 25 26 29 -28 -13 -15
right_child=1 2 -4 -5 5 7 -8 20 12 -11 -12 13 -14 23 22 -17 17 18 19 -21 21 -23 -24 -25 -26 -27 27 -29 -30 -31
leaf_value=-0.048872878908865366 -0.28230783854212083 0.29219308293634849 0.88990397401477983 0.48691276137171124 0.6404764590164026 0.059739233409204798 -0.012801836331685384 0.038816330177443376 -0.14288165323436261 -0.11573397630736942 0.47464364378348645 0.16030853696167469 0.12037530585359305 -0.14119417529839737 0.02416955666217421 -0.11466256315923401 0.42408749403492102 -0.026270696565960396 0.35659950558955855 0.065115321959768033 -0.064861353486776352 -0.28536442323372913 -0.11320713810298755 -0.14159149481633376 -0.07102913126455887 -0.045490358477192266 0.033754827980047621 0.38919294943863697 -0.0484823694659604 0.019739474684876555
leaf_weight=1361 28 31 23 29 24 31 30 35 40 21 23 20 39 26 140 27 31 33 26 42 32 26 46 43 175 182 39 22 54 221
leaf_count=1361 28 31 23 29 24 31 30 35 40 21 23 20 39 26 140 27 31 33 26 42 32 26 46 43 175 182 39 22 54 221
internal_value=-0.00375132 0.125996 0.263121 0.159409 0.0371384 0.0774289 0.277544 0.0131062 0.0730669 0.137844 0.236458 -0.0252368 -0.0129194 0.00330695 0.0476245 0.0934697 0.120749 0.183986 0.110292 0.176565 -0.0874889 -0.163708 -0.00980532 -0.0229205 -0.015247 0.00467513 0.0343184 0.161946 0.00794761 0.00279909
internal_weight=2900 412 162 139 250 222 54 168 110 75 54 2488 79 1127 419 233 206 132 101 68 93 58 186 708 665 490 308 61 74 247
internal_count=2900 412 162 139 250 222 54 168 110 75 54 2488 79 1127 419 233 206 132 101 68 93 58 186 708 665 490 308 61 74 247
is_linear=0
shrinkage=0.05


Tree=24
num_leaves=31
num_cat=0
split_feature=4 0 1 4 11 10 6 1 4 5 11 6 11 4 2 12 9 1 9 4 11 16 4 8 2 6 10 4 6 11
split_gain=2918.41 1877.22 2270.02 4690.58 1847.81 1362.08 868.394 625.641 622.167 604.883 517.41 505.705 484.616 702.957 412.888 365.189 463.531 308.006 337.116 306.112 300.726 326.993 418.536 501.566 297.478 255.395 245.96 272.559 289.895 380.732
threshold=8.2571428571428545 1.0000000180025095e-35 7.3500000000000005 15.407142857142855 18.678571428571434 17.550000000000004 22.425000000000004 2.2500000000000004 0.77857142857142625 70.449999999999974 25.764285714285716 28.125000000000004 21.63571428571429 11.242857142857142 1.0000000180025095e-35 6.7950000000000008 92.928571428571445 1.0000000180025095e-35 95.071428571428584 3.4357142857142846 18.435714285714287 2.5000000000000004 2.0499999999999994 94.500000000000014 25.850000000000005 16.125000000000004 19.250000000000004 2.1571428571428553 18.725000000000005 22.078571428571436
decision_type=2 2 2 2 2 2 2 2 2 2 2 2 2 2 2 2 2 2 2 2 2 2 2 2 2 2 2 2 2 2
left_child=8 9 3 4 -3 -4 7 15 -1 -2 12 14 -7 -14 17 -6 -17 20 -19 -20 21 25 -23 -24 -11 -10 -22 -28 -29 -30
right_child=1 2 5 -5 6 10 -8 -9 11 24 -12 -13 13 -15 -16 16 -18 18 19 -21 26 22 23 -25 -26 -27 27 28 29 -31
leaf_value=-0.064662807841192591 0.084969972799985846 0.63348527295248847 0.38715633724046794 0.96834131090537368 -0.17259016704559327 -0.081201348883601338 0.36052395951002841 0.29205821071352278 -0.099877676121890552 -0.25607841989478553 -0.23023657752917362 0.19850164708392373 -0.042839256188143854 0.36247282624244692 -0.031881591833884719 -0.10583607730540363 0.20600417396770074 -0.04106567310062012 -0.029794749440181824 0.2342409707929777 -0.045131390940139793 0.041184781828234276 0.45531219016937979 0.10544634185731412 -0.030053830891847613 0.12190425776773028 -0.021754280416722838 -0.015491381883621216 0.022828873445590338 0.25491341145243496
leaf_weight=682 39 21 23 23 25 52 30 21 25 37 26 29 23 20 1057 22 26 269 21 23 101 31 21 20 24 27 74 35 30 43
leaf_count=682 39 21 23 23 25 52 30 21 25 37 26 29 23 20 1057 22 26 269 21 23 101 31 21 20 24 27 74 35 30 43
internal_value=-0.00356376 0.119696 0.180119 0.304982 0.199759 0.0344453 0.126306 0.0515551 -0.0239749 -0.0688236 -0.0325989 -0.00860995 0.0214914 0.145678 -0.0119899 -0.0176307 0.0630774 0.0172121 -0.0200793 0.108224 0.0458908 0.11082 0.179822 0.284646 -0.167151 0.0152783 0.0174412 0.0521655 0.102814 0.159536
internal_weight=2900 412 312 168 145 144 124 94 2488 100 121 1806 95 43 1777 73 48 720 313 44 407 124 72 41 61 52 283 182 108 73
internal_count=2900 412 312 168 145 144 124 94 2488 100 121 1806 95 43 1777 73 48 720 313 44 407 124 72 41 61 52 283 182 108 73
is_linear=0
shrinkage=0.05


Tree=25
num_leaves=31
num_cat=0
split_feature=4 0 1 11 10 14 16 2 4 6 0 2 1 3 4 11 1 3 12 8 2 11 9 4 10 12 13 6 3 7
split_gain=3263.09 2016.4 3868.91 3461.72 5025.83 1338.26 1291.29 966.701 746.403 704.227 569.603 544.208 621.043 605.893 851.466 650.859 624.302 462.077 468.275 576.341 429.709 406.134 461.536 385.654 386.734 486.769 398.516 378.261 310.252 307.533
threshold=8.4857142857142858 1.3500000000000003 4.4500000000000011 20.550000000000001 27.750000000000004 5.5000000000000009 1.0000000180025095e-35 1.2500000000000002 3.3571428571428528 19.925000000000004 23.350000000000005 9.0500000000000025 21.350000000000005 0.45000000000000007 6.2285714285714286 17.30714285714286 0.75000000000000011 10.050000000000002 11.705000000000002 93.500000000000014 1.8500000000000003 25.950000000000006 94.214285714285737 7.2285714285714295 21.050000000000004 11.785000000000002 11.284285714285717 21.875000000000004 5.1500000000000012 19.63571428571429
decision_type=2 2 2 2 2 2 2 2 2 2 2 2 2 2 2 2 2 2 2 2 2 2 2 2 2 2 2 2 2 2
left_child=8 5 3 -3 9 20 -7 -4 -1 -5 11 12 13 14 15 -10 -16 18 -8 -20 -2 22 -9 24 25 -15 -26 29 -28 -17
right_child=1 2 7 4 -6 6 17 21 10 -11 -12 -13 -14 23 16 27 -18 -19 19 -21 -22 -23 -24 -25 26 -27 28 -29 -30 -31
leaf_value=-0.037543669355674276 -0.36717120289802552 0.98331861495971684 0.28116498803474793 -0.18189021394304608 0.96117255389690404 0.43589639534863339 -0.083535525202751162 0.18794354931000742 0.3341018941739331 0.20147537243366243 -0.13468636757948182 -0.048182700925607641 -0.095673739375366329 0.17731326989553595 0.11741611413333729 0.051210173490372574 0.47190834438359297 -0.18897413581609726 0.35595848767653759 -0.011040539741516114 -0.088627966195344923 -0.21601013287901882 -0.054937532287583038 -0.1501113985815356 -0.070957242250442518 -0.059402803835031152 0.076013482362031939 0.14508946243975615 0.29795662496359115 -0.11611722539130009
leaf_weight=1671 20 25 38 23 20 24 26 31 23 25 55 166 62 27 23 99 27 20 23 20 45 20 53 31 20 111 32 74 31 38
leaf_count=1671 20 25 38 23 20 24 26 31 23 25 55 166 62 27 23 99 27 20 23 20 45 20 53 31 20 111 32 74 31 38
internal_value=0.00321062 0.133373 0.229525 0.480213 0.295248 0.00643067 0.11041 0.0653424 -0.0183786 0.0177794 0.0207238 0.0319117 0.0541453 0.0714751 0.121551 0.0815313 0.308842 0.0226385 0.0839755 0.185261 -0.174334 -0.0135158 0.0346972 0.0150406 0.0382067 -0.0130888 0.123493 0.0539999 0.185224 0.00479819
internal_weight=2903 413 235 93 68 178 113 142 2490 48 819 764 598 536 284 234 50 89 69 43 65 104 84 252 221 138 83 211 63 137
internal_count=2903 413 235 93 68 178 113 142 2490 48 819 764 598 536 284 234 50 89 69 43 65 104 84 252 221 138 83 211 63 137
is_linear=0
shrinkage=0.05


Tree=26
num_leaves=31
num_cat=0
split_feature=4 0 1 4 11 14 16 10 14 5 9 0 3 3 11 3 12 8 1 14 10 6 12 10 4 13 12 4 4 11
split_gain=2944.94 1819.8 3491.69 3274.49 3170.54 1207.78 1165.39 937.143 685.28 679.928 622.408 520.82 467.426 586.157 1287.01 417.024 422.618 520.147 400.254 348.177 325.888 309.814 496.957 387.214 376.836 644.115 300.281 363.663 265.546 263.893
threshold=8.4857142857142858 1.3500000000000003 4.4500000000000011 13.128571428571428 20.550000000000001 5.5000000000000009 1.0000000180025095e-35 17.550000000000004 5.5000000000000009 23.749999999999989 91.464285714285737 22.550000000000004 0.25000000000000006 1.0000000180025095e-35 20.250000000000004 10.050000000000002 11.705000000000002 93.500000000000014 37.150000000000013 6.5000000000000009 29.050000000000004 23.075000000000006 25.330000000000002 20.250000000000004 5.8357142857142854 9.4471428571428593 16.630000000000006 12.135714285714284 0.58571428571428219 20.964285714285719
decision_type=2 2 2 2 2 2 2 2 2 2 2 2 2 2 2 2 2 2 2 2 2 2 2 2 2 2 2 2 2 2
left_child=9 5 3 4 -3 26 -7 -4 -6 28 -9 12 13 21 -15 16 -8 -18 19 -12 -14 22 24 -23 29 -26 27 -2 -1 -11
right_child=1 2 7 -5 8 6 15 10 -10 11 18 -13 20 14 -16 -17 17 -19 -20 -21 -22 23 -24 -25 25 -27 -28 -29 -30 -31
leaf_value=-0.063740150355416816 -0.095250762216746818 0.81173709988594056 0.37931948125362402 0.95926218057672186 0.26349551509255947 0.41410157003750403 -0.079358749664746805 0.26511068612337113 -0.1111767868583019 -0.061107305759513703 -0.12840661541200601 -0.12270800330502503 -0.018737146120622931 0.46312266505722494 0.0022411875200994088 -0.17952543064951898 0.33816056121950566 -0.010488512814044953 -0.20501731049131464 0.097961884288459422 0.16793285059928895 0.020841275597060172 -0.16037101452097749 0.29118400294190416 -0.066605606497753239 0.27843976650681151 -0.025153314322233201 -0.39316207479153364 -0.021558402211890849 0.06950719656859651
leaf_weight=558 20 20 20 24 23 24 26 20 26 74 26 59 361 28 33 20 23 20 27 49 25 27 33 26 21 38 24 21 1126 81
leaf_count=558 20 20 20 24 23 24 26 20 26 74 26 59 361 28 33 20 23 20 27 49 25 27 33 26 21 38 24 21 1126 81
internal_value=0.00305009 0.126704 0.218049 0.456203 0.281225 0.00610913 0.10489 0.0620753 0.0646898 -0.0174597 0.0100681 0.0203067 0.0316024 0.0725008 0.213793 0.0215066 0.0797767 0.175998 -0.0399403 0.0194875 -0.00664712 0.0437713 0.0202344 0.153462 0.0480847 0.155627 -0.165617 -0.247839 -0.0355355 0.00714931
internal_weight=2903 413 235 93 69 178 113 142 49 2490 122 806 747 361 61 89 69 43 102 75 386 300 247 53 214 59 65 41 1684 155
internal_count=2903 413 235 93 69 178 113 142 49 2490 122 806 747 361 61 89 69 43 102 75 386 300 247 53 214 59 65 41 1684 155
is_linear=0
shrinkage=0.05


Tree=27
num_leaves=31
num_cat=0
split_feature=4 6 4 7 7 5 6 9 1 2 3 10 11 4 2 10 6 1 13 15 15 1 8 2 11 16 8 13 15 11
split_gain=2711.24 2786.15 1356.69 1221.83 2051.88 937.63 749.844 1097.53 622.908 550.476 472.717 1086.17 956.97 611.953 934.982 493.273 389.909 384.095 319.969 425.856 323.335 349.68 319.32 293.699 265.454 263.469 249.979 270.5 543.594 958.741
threshold=11.021428571428572 22.725000000000005 12.135714285714284 19.246428571428574 17.732142857142865 23.749999999999989 15.075000000000001 93.785714285714292 5.5500000000000007 22.950000000000003 0.45000000000000007 29.950000000000003 16.864285714285717 6.2285714285714286 0.75000000000000011 21.250000000000004 21.875000000000004 1.0000000180025095e-35 20.514285714285716 312.50000000000006 114.50000000000001 0.55000000000000016 93.500000000000014 0.8500000000000002 18.735714285714291 2.5000000000000004 87.500000000000014 8.2864285714285746 250.50000000000003 19.80714285714286
decision_type=2 2 2 2 2 2 2 2 2 2 2 2 2 2 2 2 2 2 2 2 2 2 2 2 2 2 2 2 2 2
left_child=5 2 -2 4 6 -1 -4 -8 9 10 12 18 -7 16 25 -16 26 -18 20 22 -12 24 -20 -23 -22 -15 -14 -28 29 -29
right_child=1 -3 3 -5 -6 8 7 -9 -10 -11 11 -13 13 14 15 -17 17 -19 19 -21 21 23 -24 -25 -26 -27 27 28 -30 -31
leaf_value=-0.033758715379263129 0.39166447768608731 0.71882209721065715 -0.022788242513446938 0.30595531441472673 -0.36700361967086792 0.44435031786561013 -0.0012521399091929199 0.52256339371204374 -0.032390484282986659 -0.079418141112795895 -0.12142422679279533 0.37728652596473694 -0.13401329661569289 -0.09003909582441505 0.20752853773258351 0.53063301131838847 0.24157872796058655 0.018216184095332499 0.33270341776311402 -0.091141607761383067 0.11381628534623556 0.26841808453202248 0.050161437951028343 0.0089839170376459759 -0.087305739263693505 0.14305950452884039 -0.13925798870623113 -0.04981388628482819 -0.049965979593495531 0.43389933896916255
leaf_weight=1684 36 21 56 37 32 20 20 20 303 70 70 20 31 22 27 21 39 38 20 20 21 20 20 24 75 27 20 20 48 21
leaf_count=1684 36 21 56 37 32 20 20 20 303 70 70 20 31 22 27 21 39 38 20 20 21 20 20 24 75 27 20 20 48 21
internal_value=0.00289759 0.170818 0.113563 0.0528868 -0.0202659 -0.011007 0.0953134 0.260656 0.0274221 0.0535363 0.0684511 0.0217472 0.109002 0.0876426 0.192044 0.348887 0.0409744 0.131348 -0.00458905 0.0972411 -0.0336834 0.0101871 0.191432 0.126909 -0.0433103 0.038403 -0.00873093 0.0268998 0.0642387 0.197942
internal_weight=2903 222 201 165 128 2681 96 40 997 694 624 290 334 314 97 48 217 77 270 60 210 140 40 44 96 49 140 109 89 41
internal_count=2903 222 201 165 128 2681 96 40 997 694 624 290 334 314 97 48 217 77 270 60 210 140 40 44 96 49 140 109 89 41
is_linear=0
shrinkage=0.05


Tree=28
num_leaves=31
num_cat=0
split_feature=4 6 0 1 2 3 6 11 5 1 2 0 3 9 10 0 4 2 4 13 6 1 15 0 2 10 1 3 4 2
split_gain=2446.89 2514.5 1267.47 1939.53 1850.09 2288.55 2008.97 1212.41 846.211 579.299 656.501 754.453 531.251 992.176 931.81 600.002 502.96 1129.64 565.202 363.853 357.698 375.955 342.84 374.869 312.378 293.913 246.08 270.994 240.458 305.012
threshold=11.021428571428572 22.725000000000005 1.0000000180025095e-35 37.150000000000013 28.250000000000004 1.2500000000000002 17.775000000000002 24.335714285714285 23.749999999999989 21.350000000000005 8.3500000000000032 19.950000000000003 0.45000000000000007 95.642857142857153 29.750000000000004 11.750000000000002 6.2285714285714286 0.75000000000000011 8.1500000000000004 8.5121428571428588 21.875000000000004 0.15000000000000005 46.500000000000007 0.15000000000000005 10.850000000000003 27.850000000000005 0.55000000000000016 11.750000000000002 0.64285714285714202 0.75000000000000011
decision_type=2 2 2 2 2 2 2 2 2 2 2 2 2 2 2 2 2 2 2 2 2 2 2 2 2 2 2 2 2 2
left_child=8 2 24 4 5 6 -4 -7 28 10 11 12 13 16 15 19 20 18 -18 -14 -10 -22 -21 26 -2 -12 27 -24 -1 -30
right_child=1 -3 3 -5 -6 7 -8 -9 9 -11 25 -13 14 -15 -16 -17 17 -19 -20 22 21 -23 23 -25 -26 -27 -28 -29 29 -31
leaf_value=-0.05746633649369081 -0.21522314545280974 0.68288100815954667 0.34719076390067738 -0.17116463987096664 -0.10942227998375893 -0.12805455625057222 0.99413408935070047 0.39905499547719958 0.012167426160285398 -0.082176866897127845 -0.053389458758617517 -0.067842726303284528 0.14876448343197504 0.44020623352844268 0.36421592295169836 0.25939759699289094 0.24166456816548651 0.45298009514808657 -0.10919533311389387 0.11526779070977243 0.25994515144511271 0.031083666807150141 -0.11628236100473938 -0.14833518401474546 0.034630039469762279 0.14759493559598921 0.14291994280141335 0.084893585397646978 0.0017090970200498491 -0.053679637273730124
leaf_weight=600 29 21 30 31 25 24 20 20 126 110 201 93 30 24 20 22 22 30 24 31 38 34 47 76 22 20 23 26 698 386
leaf_count=600 29 21 30 31 25 24 20 20 126 110 201 93 30 24 20 22 22 30 24 31 38 34 47 76 22 20 23 26 698 386
internal_value=0.00275271 0.162277 0.107885 0.181097 0.272863 0.374534 0.605968 0.111541 -0.0104567 0.026051 0.0394728 0.0642518 0.0856913 0.13194 0.0355744 0.00979855 0.104939 0.214281 0.0586072 -0.0137687 0.062969 0.151872 -0.0377884 -0.0653741 -0.107443 -0.0352008 0.000303343 -0.0446307 -0.0320708 -0.0180142
internal_weight=2903 222 201 150 119 94 50 44 2681 997 887 666 573 298 275 255 274 76 46 233 198 72 203 172 51 221 96 73 1684 1084
internal_count=2903 222 201 150 119 94 50 44 2681 997 887 666 573 298 275 255 274 76 46 233 198 72 203 172 51 221 96 73 1684 1084
is_linear=0
shrinkage=0.05


Tree=29
num_leaves=31
num_cat=0
split_feature=4 0 1 10 11 15 16 10 11 12 8 4 0 4 3 6 3 13 4 13 1 1 12 11 12 11 11 6 9 1
split_gain=2222.45 1377.42 3035.99 2832.1 4287.73 1251.76 1191.74 868.505 763.388 661.842 838.627 583.623 521.466 499.73 488.395 514.47 415.364 392.085 615.298 608.337 703.116 345.618 552.601 341.504 328.175 262.471 322.262 251.275 262.514 355.098
threshold=8.4857142857142858 1.3500000000000003 2.5500000000000003 27.750000000000004 20.550000000000001 170.50000000000003 1.0000000180025095e-35 29.050000000000004 22.307142857142864 11.645000000000001 97.500000000000014 10.742857142857142 15.15 1.6071428571428561 0.45000000000000007 22.975000000000005 6.4500000000000011 19.040714285714291 5.8357142857142854 9.4471428571428593 7.6500000000000012 1.0000000180025095e-35 23.655000000000005 25.764285714285716 11.945000000000002 19.692857142857147 23.13571428571429 13.925000000000002 94.785714285714292 1.9500000000000002
decision_type=2 2 2 2 2 2 2 2 2 2 2 2 2 2 2 2 2 2 2 2 2 2 2 2 2 2 2 2 2 2
left_child=13 5 3 4 -3 25 -7 8 9 10 -4 -6 -10 -1 15 17 24 18 27 -20 -21 22 -17 -9 -8 -2 -27 -15 -29 -30
right_child=1 2 7 -5 11 6 16 23 12 -11 -12 -13 -14 14 -16 21 -18 -19 19 20 -22 -23 -24 -25 -26 26 -28 28 29 -31
leaf_value=-0.041133520037450431 -0.30599616226695836 0.85596990471794498 0.33333167414302411 0.94854770302772529 0.16970103504982861 0.44112061993642293 -0.045925671380499133 -0.0027684152126312258 0.11250444135882638 -0.22072682062163951 -0.10936845719814302 -0.19449887790463188 0.45300191135510154 -0.058736511607033519 -0.02860494987659545 0.33507745765587865 -0.13826730520679401 -0.058165490213872455 -0.048051242064684634 0.41482752904295928 0.047378761548063031 0.049724399881899105 0.055845888203160991 -0.28824218674562874 0.19586153113179738 0.0082900513956944144 -0.25081986486911773 0.003581861105085034 0.22346012837305251 -0.01903459825194799
leaf_weight=1064 21 21 23 20 22 22 23 22 22 20 20 22 23 108 633 34 26 164 24 30 23 117 37 20 36 30 20 194 36 26
leaf_count=1064 21 21 23 20 22 22 23 22 22 20 20 22 23 108 633 34 26 164 24 30 23 117 37 20 36 30 20 194 36 26
internal_value=0.00261507 0.110036 0.189506 0.428244 0.268151 0.00511693 0.113125 0.0542208 0.129249 0.0169004 0.127425 -0.0123989 0.286536 -0.0152021 0.00414651 0.0302899 0.0282326 0.00783995 0.0323862 0.160796 0.255369 0.102536 0.189562 -0.138708 0.101606 -0.157657 -0.0953539 0.00522254 0.0322053 0.121769
internal_weight=2903 413 235 85 65 178 107 150 108 63 43 44 45 2490 1426 793 85 605 441 77 53 188 71 42 59 71 50 364 256 62
internal_count=2903 413 235 85 65 178 107 150 108 63 43 44 45 2490 1426 793 85 605 441 77 53 188 71 42 59 71 50 364 256 62
is_linear=0
shrinkage=0.05


Tree=30
num_leaves=31
num_cat=0
split_feature=4 0 2 4 11 16 7 8 2 2 12 6 4 14 15 8 6 15 10 12 6 15 4 2 10 9 4 3 0 6
split_gain=1595.93 1435.85 1629.16 1444.29 948.4 628.693 522.562 974.861 1226.47 743.896 609.455 483.281 547.299 917.61 852.341 456.436 543.001 324.809 647.838 273.096 346.867 479.105 725.207 411.238 642.294 431.595 714.177 364.59 495.017 284.148
threshold=8.4857142857142858 44.000000000000007 28.250000000000004 16.171428571428574 18.678571428571434 5.5000000000000009 13.942857142857145 92.500000000000014 1.1500000000000001 6.5500000000000007 9.5450000000000017 23.125000000000004 2.7785714285714262 3.5000000000000004 330.50000000000006 91.500000000000014 24.875000000000004 256.50000000000006 19.950000000000003 23.120000000000001 13.725000000000001 112.50000000000001 2.0499999999999994 1.7500000000000002 22.550000000000004 94.785714285714292 4.3285714285714283 0.25000000000000006 0.35000000000000003 17.725000000000005
decision_type=2 2 2 2 2 2 2 2 2 2 2 2 2 2 2 2 2 2 2 2 2 2 2 2 2 2 2 2 2 2
left_child=11 2 3 4 -2 6 -6 8 -8 17 -11 19 -13 15 -15 16 -14 18 -9 20 -1 -22 -23 24 25 27 -27 28 -24 -26
right_child=1 -3 -4 -5 5 -7 7 9 -10 10 -12 12 13 14 -16 -17 -18 -19 -20 -21 21 22 23 -25 29 26 -28 -29 -30 -31
leaf_value=-0.058272759052356939 0.41994710576075778 -0.21511261062962672 -0.0901123594895408 0.48393482529755794 -0.068701764358276574 -0.090604704784022438 0.65510032936930662 -0.11700270846486092 0.16165317980682148 0.070788811600726587 0.43889379853552041 -0.013978566226872028 0.0071748354782660805 0.47967003971338279 0.078003527330500755 -0.019730956661701202 0.35993206779938192 -0.14488620722183473 0.24324054408531925 -0.06727161399905339 -0.063817267181267109 -0.034263560833312785 0.33645431692230293 -0.010014328560040843 -0.065697087126318374 0.10278029125928878 0.49338765049522576 -0.001393208573473261 0.06513805315829814 0.076047514541711242
leaf_weight=410 26 35 74 33 27 36 20 24 34 23 22 358 24 25 28 125 20 27 26 357 264 424 29 155 64 25 22 47 40 79
leaf_count=410 26 35 74 33 27 36 20 24 34 23 22 358 24 25 28 125 20 27 26 357 264 424 29 155 64 25 22 47 40 79
internal_value=-0.000749005 0.0910584 0.119865 0.172007 0.133163 0.101965 0.136115 0.167536 0.344411 0.0892465 0.250751 -0.0157192 0.0242689 0.0859474 0.267469 0.0290205 0.167519 -0.00513946 0.0703238 -0.0278242 -0.018791 -0.00470264 0.0129315 0.0563388 0.089949 0.157799 0.285618 0.10601 0.17917 0.0126094
internal_weight=2903 407 372 298 265 239 203 176 54 122 45 2496 580 222 53 169 44 77 50 1916 1559 1149 885 461 306 163 47 116 69 143
internal_count=2903 407 372 298 265 239 203 176 54 122 45 2496 580 222 53 169 44 77 50 1916 1559 1149 885 461 306 163 47 116 69 143
is_linear=0
shrinkage=0.05


Tree=31
num_leaves=31
num_cat=0
split_feature=5 1 3 5 9 6 9 6 13 8 5 8 6 6 15 11 0 6 5 7 3 8 6 10 5 6 6 11 10 12
split_gain=1424.96 1331.76 1325.31 2768.54 996.492 1060.71 1056.39 894.845 1071.27 1387.89 900.364 850.239 848.121 598.46 421.179 775.816 390.306 340.708 307.846 532.624 496.511 318.72 380.962 294.965 468.601 294.288 369.392 286.396 194.804 160.101
threshold=43.050000000000011 22.950000000000003 0.15000000000000005 103.65000000000002 90.642857142857153 15.175000000000002 92.785714285714292 24.425000000000004 8.713571428571429 94.500000000000014 101.25000000000001 93.500000000000014 19.125000000000004 16.325000000000006 230.50000000000003 21.335714285714285 1.8500000000000003 22.975000000000005 19.449999999999985 22.925000000000004 0.25000000000000006 91.500000000000014 24.575000000000006 17.350000000000005 60.949999999999982 17.075000000000006 14.325000000000001 21.26428571428572 22.850000000000005 23.120000000000001
decision_type=2 2 2 2 2 2 2 2 2 2 2 2 2 2 2 2 2 2 2 2 2 2 2 2 2 2 2 2 2 2
left_child=17 2 3 4 -2 11 -7 8 9 -4 14 -6 -8 -11 23 -16 -17 29 -19 20 -20 22 -21 -10 -25 26 -3 -14 -27 -1
right_child=1 25 7 -5 5 6 12 -9 10 13 -12 -13 27 -15 15 16 -18 18 19 21 -22 -23 -24 24 -26 28 -28 -29 -30 -31
leaf_value=-0.023320577883117741 -0.13350134472052255 -0.13139011521858199 0.42240291511407124 0.69086369681358351 -0.24454179026863795 0.49747739158132503 0.34123592887605941 0.34154092520475388 -0.20655592563562097 -0.18641850093136664 -0.30059307863314949 0.1857890086869399 -0.12958157420158387 0.18755665125325324 0.25007906224992543 0.061379559831442054 -0.19435980987548829 -0.012775689592670317 0.40184609591960907 -0.0092344972220334137 0.064527704520151025 -0.024169939857286715 0.28849650529168902 -0.13715507686138154 0.16874724426085042 -0.24276903150603177 0.12560603659728478 0.13799822419881821 -0.072083280938012265 -0.062980332826144805
leaf_weight=1380 30 27 32 25 22 34 35 22 32 23 30 24 20 20 36 37 25 371 20 22 24 111 21 31 21 32 29 20 35 312
leaf_count=1380 30 27 32 25 22 34 35 22 32 23 30 24 20 20 36 37 25 371 20 22 24 111 21 31 21 32 29 20 35 312
internal_value=-0.000711555 0.0650287 0.100086 0.197007 0.130269 0.181322 0.266292 0.0342184 0.0106606 0.173072 -0.0467962 -0.0200214 0.161488 -0.0124766 -0.00496159 0.0654581 -0.0417412 -0.0193782 0.0140918 0.0644343 0.217854 0.0206 0.136169 -0.0871179 -0.0136176 -0.0828982 0.00169718 0.00420832 -0.153605 -0.0306337
internal_weight=2903 642 519 210 185 155 109 309 287 75 212 46 75 43 182 98 62 2261 569 198 44 154 43 84 52 123 56 40 67 1692
internal_count=2903 642 519 210 185 155 109 309 287 75 212 46 75 43 182 98 62 2261 569 198 44 154 43 84 52 123 56 40 67 1692
is_linear=0
shrinkage=0.05


Tree=32
num_leaves=31
num_cat=0
split_feature=4 0 1 3 4 13 1 6 13 7 8 4 4 6 7 4 15 12 6 11 0 4 6 6 8 1 6 9 4 0
split_gain=1312.17 1281.33 1209.31 1398.65 2602.1 984.143 1209.14 1039.97 798.462 638.212 619.257 478.775 409.938 484.257 549.452 524.987 348.139 365.836 606.993 481.31 538.83 542.622 327.415 374.645 305.6 291.251 439.95 283.938 351.323 416.673
threshold=8.4857142857142858 44.000000000000007 19.950000000000003 1.0000000180025095e-35 14.592857142857147 8.713571428571429 1.5500000000000003 19.175000000000004 8.7785714285714302 21.578571428571433 92.500000000000014 14.342857142857142 0.84999999999999809 23.125000000000004 22.410714285714288 3.6571428571428539 110.50000000000001 23.120000000000001 15.975000000000001 17.93571428571429 6.5500000000000007 2.1999999999999971 17.625000000000004 15.075000000000001 91.500000000000014 0.45000000000000007 25.225000000000005 92.357142857142875 4.1285714285714263 3.5500000000000003
decision_type=2 2 2 2 2 2 2 2 2 2 2 2 2 2 2 2 2 2 2 2 2 2 2 2 2 2 2 2 2 2
left_child=12 2 3 4 8 6 -5 11 -2 -10 -9 -7 -1 16 15 -15 -14 18 -18 20 21 -20 23 -4 25 26 -16 28 -21 -30
right_child=1 -3 22 5 -6 7 -8 10 9 -11 -12 -13 13 14 24 -17 17 -19 19 27 -22 -23 -24 -25 -26 -27 -28 -29 29 -31
leaf_value=-0.046230769642609193 -0.0041116072851068832 -0.20665739808763775 -0.077235095991807834 0.46869621960253555 0.81750740925781429 -0.040383811640169694 -0.029482364654541016 0.32211881119471331 0.44232651419711844 0.089726144643056963 0.0054414942076331692 -0.33575606683026193 -0.066476368180626785 0.073115238243419881 0.063790896955208898 0.38002926111221313 -0.033031274874488918 -0.064163384790444256 0.096531629790034559 0.027937841631712451 -0.049249346057573959 0.38445611774921418 -0.16441127521296342 0.18404974402940794 -0.0076725719632809112 -0.0030383983088864224 0.34342675794931976 -0.014624320174052012 0.34740109335292474 0.051742477772327572
leaf_weight=715 34 35 34 29 20 34 21 26 33 21 38 23 272 38 39 22 421 201 36 124 24 30 36 23 253 45 22 206 22 26
leaf_count=715 34 35 34 29 20 34 21 26 33 21 38 23 272 38 39 22 421 201 36 124 24 30 36 23 253 45 22 206 22 26
internal_value=-0.000675977 0.0825705 0.109783 0.161831 0.302698 0.0728625 0.259461 -0.00424441 0.185696 0.305204 0.134092 -0.159569 -0.0142502 -0.00141132 0.0455951 0.18565 -0.0158722 -0.00324437 0.0105292 0.0497151 0.153632 0.227406 -0.0463619 0.0281956 0.0221876 0.0934576 0.164643 0.024973 0.0723978 0.187253
internal_weight=2903 407 372 279 108 171 50 121 88 54 64 57 2496 1781 419 60 1362 1090 889 468 90 66 93 57 359 106 61 378 172 48
internal_count=2903 407 372 279 108 171 50 121 88 54 64 57 2496 1781 419 60 1362 1090 889 468 90 66 93 57 359 106 61 378 172 48
is_linear=0
shrinkage=0.05


Tree=33
num_leaves=31
num_cat=0
split_feature=5 2 1 4 3 9 12 6 2 9 1 2 10 5 10 12 4 2 8 8 6 8 13 7 4 8 1 2 3 5
split_gain=1187.68 1170.05 1451.83 1658.12 606.229 969.92 1003.39 863.659 602.649 1181.31 553.74 609.635 671.377 544.873 481.882 335.126 288.783 400.773 313.721 324.596 583.102 282.334 247.036 332.566 356.648 217.766 278.805 215.09 204.436 244.802
threshold=43.050000000000011 28.250000000000004 22.950000000000003 16.171428571428574 0.15000000000000005 90.642857142857153 18.195000000000004 24.425000000000004 1.0000000180025095e-35 93.785714285714292 1.0000000180025095e-35 7.3500000000000005 21.250000000000004 85.250000000000014 18.150000000000002 15.385000000000003 0.64285714285714202 0.75000000000000011 85.500000000000014 91.500000000000014 25.125000000000004 92.500000000000014 16.694285714285716 14.510714285714288 2.0499999999999994 95.500000000000014 12.65 1.6500000000000001 1.1500000000000001 25.799999999999986
decision_type=2 2 2 2 2 2 2 2 2 2 2 2 2 2 2 2 2 2 2 2 2 2 2 2 2 2 2 2 2 2
left_child=16 2 3 4 5 -2 10 8 9 -6 -7 12 -12 14 -10 21 -1 18 -18 20 22 -16 23 -20 -25 26 -3 -4 29 -21
right_child=1 25 27 -5 7 6 -8 -9 13 -11 11 -13 -14 -15 15 -17 17 -19 19 28 -22 -23 -24 24 -26 -27 -28 -29 -30 -31
leaf_value=-0.047584836619413075 -0.1191541222234567 -0.12708955520550566 -0.16953639040390653 0.45615377272878377 0.0061793341182849633 -0.043337541360121509 0.49848749063633102 0.35660109917322796 -0.13976131796072691 0.42659546807408333 0.12482965469360352 0.069999550645415839 0.51015746203752665 -0.24469232010440184 0.28266850127415227 -0.064292975862820942 -0.058919195662763782 -0.037587782218902334 0.00040905573828653864 5.2498359259011023e-06 0.26520711988868084 0.055314311969818342 -0.010190061786798417 0.049896617575238153 0.31718672966727846 -0.23971573930719625 0.095107914507389077 -0.022505428006903069 -0.033221101069377854 0.082448050567439493
leaf_weight=595 24 48 42 35 55 26 27 21 39 24 20 37 26 26 22 30 133 652 44 288 34 36 108 24 26 23 20 61 226 131
leaf_count=595 24 48 42 35 55 26 27 21 39 24 20 37 26 26 22 30 133 652 44 288 34 36 108 24 26 23 20 61 226 131
internal_value=-0.000642178 0.0593755 0.0868071 0.125723 0.0977208 0.173896 0.225611 0.0495467 0.021753 0.133901 0.158017 0.221092 0.342624 -0.0361533 0.0065397 0.0713776 -0.0176839 -0.00700502 0.0126596 0.0234655 0.0736394 0.141552 0.0413953 0.100664 0.188887 -0.106721 -0.0617374 -0.0824598 0.00510735 0.0257809
internal_weight=2903 642 551 448 413 160 136 253 232 79 109 83 46 153 127 88 2261 1666 1014 881 236 58 202 94 50 91 68 103 645 419
internal_count=2903 642 551 448 413 160 136 253 232 79 109 83 46 153 127 88 2261 1666 1014 881 236 58 202 94 50 91 68 103 645 419
is_linear=0
shrinkage=0.05


Tree=34
num_leaves=31
num_cat=0
split_feature=4 0 2 1 4 11 10 6 3 0 4 6 4 14 15 8 6 12 10 15 6 4 12 2 10 9 4 6 6 0
split_gain=1091.16 1171.54 1283.25 1442.25 1747.01 1128.51 741.579 713.308 1348.34 884.137 761.258 347.356 394.535 737.731 714.559 343.792 401.18 303.446 231.148 198.953 299.737 380.615 526.336 390.398 561.507 421.546 576.682 295.324 258.422 478.112
threshold=8.4857142857142858 44.000000000000007 28.250000000000004 20.750000000000004 16.171428571428574 18.678571428571434 29.750000000000004 16.125000000000004 0.45000000000000007 2.0500000000000003 10.142857142857142 23.125000000000004 2.7785714285714262 3.5000000000000004 330.50000000000006 91.500000000000014 24.875000000000004 11.945000000000002 17.550000000000004 112.50000000000001 13.725000000000001 1.9714285714285693 23.235000000000003 1.7500000000000002 22.550000000000004 94.785714285714292 4.3285714285714283 20.075000000000006 17.725000000000005 13.750000000000002
decision_type=2 2 2 2 2 2 2 2 2 2 2 2 2 2 2 2 2 2 2 2 2 2 2 2 2 2 2 2 2 2
left_child=11 2 3 4 5 -2 7 10 9 -9 -7 19 -13 15 -15 16 -14 -10 -4 -1 -21 -22 23 24 25 27 -27 -23 -26 -30
right_child=1 -3 18 -5 -6 6 -8 8 17 -11 -12 12 13 14 -16 -17 -18 -19 -20 20 21 22 -24 -25 28 26 -28 -29 29 -31
leaf_value=-0.05663342832572224 0.50536867912326544 -0.20125661458287925 0.028231428270893439 -0.054697996136896757 0.59340521670304813 0.1611461824178696 0.3714121685922146 0.088733941316604614 0.13667678507891567 0.52086328268051152 -0.23709426814069354 -0.011560812919770042 0.0046141467988491062 0.43033523689210418 0.062563724070787433 -0.020072625588998201 0.30782526340335609 -0.097813393618609468 -0.1539787125328313 -0.05173452140951007 -0.033687901878639917 0.042552266727913832 -0.060860396863094406 -0.013675415274445657 -0.064495553781206791 0.1123833762274848 0.4572434766980058 0.21341644222330719 0.14500574112452311 -0.1287444198334759
leaf_weight=362 21 35 28 68 26 20 25 20 22 29 30 358 24 25 28 125 20 37 46 417 520 85 140 162 65 27 22 36 58 22
leaf_count=362 21 35 28 68 26 20 25 20 22 29 30 358 24 25 28 125 20 37 46 417 520 85 140 162 65 27 22 36 58 22
internal_value=-0.000610069 0.0753027 0.101323 0.1476 0.20741 0.158214 0.118377 0.0783393 0.150625 0.344484 -0.0777981 -0.0129885 0.020913 0.0732808 0.236041 0.0222377 0.142437 -0.0103764 -0.0850343 -0.0232509 -0.0154746 -0.00217607 0.0243817 0.0494004 0.0818393 0.143492 0.267219 0.0933879 0.00955686 0.0697244
internal_weight=2903 407 372 298 230 204 183 158 108 49 50 2496 580 222 53 169 44 59 74 1916 1554 1137 617 477 315 170 49 121 145 80
internal_count=2903 407 372 298 230 204 183 158 108 49 50 2496 580 222 53 169 44 59 74 1916 1554 1137 617 477 315 170 49 121 145 80
is_linear=0
shrinkage=0.05


Tree=35
num_leaves=31
num_cat=0
split_feature=4 6 10 9 2 6 0 10 1 4 0 7 13 3 4 2 14 7 4 9 1 8 6 9 14 16 6 2 4 0
split_gain=798.402 942.945 2283.25 833.912 1507.38 771.373 717.751 641.506 563.781 469.792 586.231 901.475 920.897 556.935 503.459 443.27 390.932 720.005 1115.73 971.362 511.856 593.944 943.447 387.118 322.303 280.456 248.632 306.591 455.361 527.709
threshold=5.1999999999999984 23.675000000000004 24.650000000000002 95.785714285714292 0.95000000000000007 24.725000000000005 40.050000000000004 12.550000000000002 1.7500000000000002 5.5785714285714274 10.450000000000001 17.967857142857145 10.159285714285717 1.0000000180025095e-35 16.171428571428574 5.4500000000000011 3.5000000000000004 17.364285714285717 9.9785714285714295 94.071428571428584 1.0000000180025095e-35 91.500000000000014 15.225000000000001 96.214285714285737 10.500000000000002 3.5000000000000004 15.725000000000001 0.95000000000000007 1.3285714285714254 10.950000000000001
decision_type=2 2 2 2 2 2 2 2 2 2 2 2 2 2 2 2 2 2 2 2 2 2 2 2 2 2 2 2 2 2
left_child=26 3 5 6 -5 -3 7 -2 -7 15 14 12 -12 -13 16 -9 25 20 19 24 -18 -22 -23 -6 -19 -11 -1 28 -28 -30
right_child=1 2 -4 4 23 8 -8 9 -10 10 11 13 -14 -15 -16 -17 17 18 -20 -21 21 22 -24 -25 -26 -27 27 -29 29 -31
leaf_value=-0.047809313629482833 -0.16851857786320829 -0.19762791049751371 0.62261384803315867 0.55009314954280863 0.19299816751480103 0.34395700638944454 -0.21441147273613348 0.26831637089316912 -0.013998393917625602 -0.20119663825944853 0.10521613678761893 0.16210290150982995 0.53052835106849672 -0.12578121258744174 -0.25434413637433734 -0.023847011029720307 -0.1835132139972232 0.039630945692671109 0.38915560389006582 0.2662554694847627 -0.13125678224619045 0.27743529115404403 -0.1347996483516434 -0.069595517753623423 -0.14979539229426272 0.030121474489569668 -0.025402822862708854 -0.042595433154176077 0.059727843327497226 -0.086018414319389391
leaf_weight=536 44 22 23 20 25 22 36 37 22 38 35 28 20 42 21 20 52 47 27 33 43 35 23 32 43 20 551 456 452 72
leaf_count=536 44 22 23 20 25 22 36 37 22 38 35 28 20 42 21 20 52 47 27 33 43 35 23 32 43 20 551 456 452 72
internal_value=-0.00201292 0.0400635 0.193611 0.0211096 0.17662 0.0441102 0.00251594 0.0153603 0.164979 0.0297055 0.0144046 0.108394 0.259875 -0.0106276 -0.016351 0.165803 -0.00250649 0.0202581 0.0981006 0.0342104 -0.0560581 0.00956239 0.113963 0.0455772 -0.0508727 -0.121432 -0.0185015 -0.0082409 0.00633182 0.0397016
internal_weight=2877 810 89 721 77 66 644 608 44 564 507 125 55 70 382 57 361 303 150 123 153 101 58 57 90 58 2067 1531 1075 524
internal_count=2877 810 89 721 77 66 644 608 44 564 507 125 55 70 382 57 361 303 150 123 153 101 58 57 90 58 2067 1531 1075 524
is_linear=0
shrinkage=0.05


