tree
version=v4
num_class=1
num_tree_per_iteration=1
label_index=0
max_feature_idx=16
objective=regression
feature_names=lag_1 lag_2 lag_3 lag_7 rolling_mean_7 rolling_sum_7 tmean_lag_1 tmean_roll_7 rh_lag_1 rh_roll_7 wind_lag_1 wind_roll_7 rad_lag_1 rad_roll_7 month day_of_year day_of_week
feature_infos=[0:67.5] [0:67.5] [0:67.5] [0:67.5] [0:26.185714285714287] [0:183.30000000000001] [0:33.200000000000003] [0:32.621428571428574] [0:100] [0:98.857142857142861] [0:36.200000000000003] [0:27.314285714285717] [0:31.350000000000001] [0:29.465714285714288] [1:12] [1:366] [0:6]
tree_sizes=1732 1817 1808 1823 1800 1831 1814 1803 1824 1826 1727 1833 1660 1819 1836 1745 1839 1659 1417 1090 1829 1576 1246 1238 918 1140 1001 994 1068 1835 992 1491 1158 1002 1751 1488 1080 1845 915 1071 1832 1495 1401 1001 1753 917 1821 1075 1653 831 1728 996 1838 1415 1418 1303 1003 1327 1005 1809 1566 1831 1243 1408 1665 906 1508 1841 1255 1822 1315 908 1828 1658 1842 1809 1833 1742 1641 1401 1823 1804 997 1833 1827 1854 1846 1416 1059 1840 1419 1761 1494 1831 1255 1404 1670 832 1064 1748 893 836 1593 912 1836 1746 981 830 757 1838 1820 1830 912 1839 839 905 1156 1083 1751 1434 1835 1344 930 761 1489 1154 1829 1087 998 1679 1086 890 1747 1579 1488 1848 917 1418 1770 1849 925 1093 1411 1846 1057 1838 1501 1154 1002 1258

Tree=0
num_leaves=20
num_cat=0
split_feature=4 0 4 5 9 2 1 6 9 6 1 2 6 12 7 4 13 0 6
split_gain=21330.5 5228.31 4160.96 3660.29 1963.67 1818.61 1062.05 1056.3 963.925 959.844 752.261 629.254 556.902 1043.45 374.271 288.538 158.787 116.185 84.3028
threshold=4.1642857142857146 0.45000000000000007 1.3357142857142845 69.65000000000002 88.071428571428584 18.350000000000005 14.65 27.475000000000005 67.357142857142875 22.875000000000004 19.100000000000005 0.25000000000000006 23.425000000000004 18.075000000000003 26.110714285714291 0.32857142857142713 13.533571428571431 0.25000000000000006 24.475000000000005
decision_type=2 2 2 2 2 2 2 2 2 2 2 2 2 2 2 2 2 2 2
left_child=2 12 15 4 6 10 -3 -6 -4 17 -5 -11 16 -14 -15 -1 -2 -10 -17
right_child=1 3 8 5 7 -7 -8 -9 9 11 -12 -13 13 14 -16 18 -18 -19 -20
leaf_value=2.814456059198414 3.1497742332716041 4.0128742223728953 3.6656075532932335 4.4320843407841686 3.4048851526134052 3.4345469542587508 3.2306075647600321 3.9704170792428481 2.8304409079575792 3.2530217433887829 3.7587028099794444 3.071021810657093 3.8404560317432503 2.9834444505713194 3.3220742267270142 2.8549528111620019 2.8339409068462964 2.9884584485976626 2.9444373600121296
leaf_weight=990 20 100 30 79 586 33 21 35 120 301 21 515 22 94 50 168 78 76 282
leaf_count=990 20 100 30 79 586 33 21 35 120 301 21 515 22 94 50 168 78 76 282
internal_value=3.11919 3.47748 2.95478 3.59516 3.50857 4.07825 3.87711 3.43676 3.10699 3.09043 4.29067 3.13816 3.08743 3.19902 3.10102 2.84464 2.8984 2.89171 2.91103
internal_weight=3621 1139 2482 875 742 133 121 621 1042 1012 100 816 264 166 144 1440 98 196 450
internal_count=3621 1139 2482 875 742 133 121 621 1042 1012 100 816 264 166 144 1440 98 196 450
is_linear=0
shrinkage=1


Tree=1
num_leaves=20
num_cat=0
split_feature=4 0 4 4 9 2 9 1 0 1 9 12 7 12 2 1 1 4 6
split_gain=17387.9 3858.24 3737.94 2900.66 1971.72 1243.72 1448.01 1166.65 961.682 766.505 649.844 486.374 448.341 376.387 718.978 355.322 256.017 233.716 180.918
threshold=4.3928571428571441 0.45000000000000007 1.3357142857142845 9.2000000000000011 80.357142857142875 18.350000000000005 91.071428571428584 5.4500000000000011 0.15000000000000005 1.3500000000000003 80.928571428571445 15.805000000000001 26.110714285714291 17.485000000000003 1.0000000180025095e-35 3.7500000000000004 6.5500000000000007 0.32857142857142713 25.825000000000006
decision_type=2 2 2 2 2 2 2 2 2 2 2 2 2 2 2 2 2 2 2
left_child=2 11 17 4 -3 6 -5 -6 13 10 -10 -2 -13 14 -4 -14 -11 -1 -15
right_child=1 3 8 5 7 -7 -8 -9 9 16 -12 12 15 18 -16 -17 -18 -19 -20
leaf_value=-0.27426378115259037 0.34184501282870772 1.3210352325439454 0.3836454174808554 1.6053985563608315 0.43742528362282079 0.27983893478238903 0.78099572792830807 0.16240027656765532 0.40935726344585421 0.02302354272687808 0.092586624675759066 -0.15994882786074302 -0.052207419395446777 -0.247346824357907 -0.21762193531491036 0.51329255729913714 -0.14886009557784061 -0.18734742255343331 -0.09037172769106204
leaf_weight=990 32 20 37 26 339 37 118 283 85 256 272 153 25 180 43 20 131 450 124
leaf_count=990 32 20 37 26 339 37 118 283 85 256 272 153 25 180 43 20 131 450 124
internal_value=9.02117e-10 0.342209 -0.140322 0.443401 0.343718 0.796972 0.929846 0.312293 -0.0040063 0.0623283 0.168008 -0.0198803 -0.0783409 -0.13253 0.0604642 0.199126 -0.0351593 -0.247102 -0.183318
internal_weight=3621 1053 2568 823 642 181 144 622 1128 744 357 230 198 384 80 45 387 1440 304
internal_count=3621 1053 2568 823 642 181 144 622 1128 744 357 230 198 384 80 45 387 1440 304
is_linear=0
shrinkage=0.1


Tree=2
num_leaves=20
num_cat=0
split_feature=5 4 0 4 2 2 3 0 10 9 2 6 4 6 12 6 12 6 4
split_gain=14260.1 3535.83 2683.56 2472.94 1353.63 1187.27 1079.58 1072.9 1069.95 773.12 643.225 623.142 611.02 551.424 544.072 400.717 357.438 724.784 189.31
threshold=33.250000000000007 1.3357142857142845 2.3500000000000001 9.3642857142857157 1.1500000000000001 18.350000000000005 1.0000000180025095e-35 0.15000000000000005 22.150000000000002 94.500000000000014 0.25000000000000006 23.425000000000004 2.2285714285714282 26.625000000000004 21.265000000000004 24.475000000000005 17.485000000000003 23.175000000000004 0.32857142857142713
decision_type=2 2 2 2 2 2 2 2 2 2 2 2 2 2 2 2 2 2 2
left_child=1 18 8 4 6 9 -4 16 11 -5 12 -2 -9 -6 -13 -12 17 -3 -1
right_child=2 7 3 5 13 -7 -8 10 -10 -11 15 14 -14 -15 -16 -17 -18 -19 -20
leaf_value=-0.2468374172304616 -0.16811199971923121 -0.25168183584038806 1.1918773597904615 1.1971798871954282 0.20574682115628901 0.2564544607853067 0.47156790991624198 -0.0034583533955913669 0.77751443593398395 0.67878665607422595 -0.16551198822756608 0.37148140599624585 0.29537687568775733 0.65625192714234204 0.047299979542252388 0.049454541358969768 -0.17095048258716833 0.3236317581318795 -0.16861268098072874
leaf_weight=990 81 41 28 66 288 29 81 106 23 51 108 77 193 30 158 440 334 47 450
leaf_count=990 81 41 28 66 288 29 81 106 23 51 108 77 193 30 158 440 334 47 450
internal_value=-3.52471e-09 -0.115144 0.342023 0.473964 0.352488 0.829241 0.656602 0.00655645 0.119007 0.971214 0.0714591 0.0710772 0.189435 0.248247 0.153521 0.00708887 -0.12371 0.0555879 -0.222392
internal_weight=3621 2709 912 573 427 146 109 1269 339 117 847 316 299 318 235 548 422 88 1440
internal_count=3621 2709 912 573 427 146 109 1269 339 117 847 316 299 318 235 548 422 88 1440
is_linear=0
shrinkage=0.1


Tree=3
num_leaves=20
num_cat=0
split_feature=4 0 4 4 2 4 6 2 12 12 6 7 4 4 9 9 0 6 4
split_gain=11590.9 2934.05 2206.05 1976.82 1788.58 2172.57 594.67 660.289 547.376 523.703 471.925 324.419 225.506 160.287 158.579 120.3 110.962 51.2113 30.9632
threshold=4.0000000000000009 0.45000000000000007 12.264285714285716 1.3357142857142845 5.7500000000000009 7.5071428571428589 20.725000000000005 1.2500000000000002 20.285000000000004 15.805000000000001 22.325000000000006 26.339285714285719 5.4619047619047629 0.74285714285714166 91.928571428571445 68.357142857142875 1.0000000180025095e-35 24.575000000000006 0.18571428571428525
decision_type=2 2 2 2 2 2 2 2 2 2 2 2 2 2 2 2 2 2 2
left_child=3 9 4 13 5 -3 -5 8 -8 -2 -6 14 -13 18 -11 -15 -9 -17 -1
right_child=1 2 -4 6 10 -7 7 16 -10 11 -12 12 -14 15 -16 17 -18 -19 -20
leaf_value=-0.22442436488386661 0.3443639860433691 0.31501409441828732 1.079055261077025 -0.21848232421114688 -0.25064548168863571 0.80082742464652323 0.19974025359207936 -0.19764154423505834 -0.008214163902282183 -0.18673706432035964 0.17632463679977481 -0.020954394032215252 0.41552467823028566 0.086437491079171508 0.0069619261597593631 -0.20839809703809975 -0.062344262568170543 -0.10976375896938657 -0.18718769297047647
leaf_weight=900 34 375 39 127 28 122 231 78 280 143 343 29 20 24 60 88 272 131 297
leaf_count=900 34 375 39 127 28 122 231 78 280 143 343 29 20 24 60 88 272 131 297
internal_value=2.65755e-09 0.25524 0.343303 -0.125412 0.310245 0.434268 -0.0164786 0.0133175 0.0857926 -0.0240367 0.1441 -0.0737415 0.1572 -0.200153 -0.129486 -0.126105 -0.0924962 -0.149398 -0.215185
internal_weight=3621 1193 907 2428 868 497 988 861 511 286 371 252 49 1440 203 243 350 219 1197
internal_count=3621 1193 907 2428 868 497 988 861 511 286 371 252 49 1440 203 243 350 219 1197
is_linear=0
shrinkage=0.1


Tree=4
num_leaves=20
num_cat=0
split_feature=5 4 0 4 2 1 3 0 6 12 0 1 2 9 6 4 6 12 1
split_gain=9476.81 2343.79 1907.99 1603.69 1196.95 886.333 850.941 1146.25 816.379 1622.13 775.597 659.262 617.367 434.578 416.056 331.302 321.111 671.537 278.459
threshold=33.250000000000007 2.092857142857143 3.0500000000000003 10.321428571428571 18.350000000000005 11.450000000000001 0.15000000000000005 7.0500000000000007 25.725000000000005 21.265000000000004 0.45000000000000007 4.6500000000000012 1.0500000000000003 91.357142857142875 27.525000000000002 0.74285714285714166 23.175000000000004 19.105000000000004 1.8500000000000003
decision_type=2 2 2 2 2 2 2 2 2 2 2 2 2 2 2 2 2 2 2
left_child=1 15 8 6 5 -5 7 -4 18 -10 16 12 -12 -8 -11 -1 -3 -18 -2
right_child=2 10 3 4 -6 -7 13 -9 9 14 11 -13 -14 -15 -16 -17 17 -19 -20
leaf_value=-0.19366667117259628 -0.1517018020512875 -0.21478205212512083 1.1455500886990475 1.4186495450990542 0.17621188224852086 0.69568919385241912 0.44215921525184704 0.376338595269542 0.8430967575464493 -0.021321241503738497 0.283748152130815 -0.061547836673756441 0.042885541079952814 0.17699651439113923 0.40311349583789707 -0.097810846242093477 0.29128199953924527 -0.10104958408587211 0.075622151081832192
leaf_weight=1197 88 124 26 28 25 43 82 76 39 83 219 180 207 251 32 516 55 211 139
leaf_count=1197 88 124 26 28 25 43 82 76 39 83 219 180 207 251 32 516 55 211 139
internal_value=3.22666e-09 -0.0938663 0.27882 0.40134 0.771272 0.9808 0.319699 0.572412 0.108064 0.285784 0.0281181 0.0989101 0.166709 0.242292 0.0967823 -0.164792 -0.0818819 -0.0199284 -0.0125034
internal_weight=3621 2709 912 531 96 71 435 102 381 154 996 606 426 333 115 1713 390 266 227
internal_count=3621 2709 912 531 96 71 435 102 381 154 996 606 426 333 115 1713 390 266 227
is_linear=0
shrinkage=0.1


Tree=5
num_leaves=20
num_cat=0
split_feature=4 4 10 0 2 2 6 9 4 6 6 0 2 13 6 11 0 15 4
split_gain=7750.61 2792.25 1421.25 1264.76 1281.02 1133.95 913.639 1146.26 731.307 611.306 374.209 359.115 298.173 492.132 208.261 165.427 136.602 31.6103 25.4219
threshold=3.1285714285714286 6.9928571428571447 22.650000000000002 1.9500000000000002 4.1500000000000012 5.3500000000000005 20.725000000000005 81.214285714285737 0.74285714285714166 26.125000000000004 23.325000000000006 0.8500000000000002 1.0000000180025095e-35 17.017857142857146 24.775000000000002 16.407142857142862 0.15000000000000005 80.500000000000014 0.27142857142857019
decision_type=2 2 2 2 2 2 2 2 2 2 2 2 2 2 2 2 2 2 2
left_child=8 5 3 9 -5 6 15 -8 18 -3 -10 17 13 -12 -13 -2 -14 -7 -1
right_child=1 2 -4 4 -6 11 7 -9 10 -11 12 14 16 -15 -16 -17 -18 -19 -20
leaf_value=-0.18144559188210285 -0.0010309568157902472 -0.084119992543544089 1.0502896010875702 0.75443257497202965 0.30592324413949312 -0.10056017041206361 0.57170919987062618 0.14808745192151596 -0.16970928424286627 0.42950194776058198 0.30433784099295735 -0.13029134423762073 -0.15380985267946257 -0.013312877823666828 0.090632446815954976 -0.32138426654040814 -0.033718568843863414 -0.20863731990166762 -0.14457809315143347
leaf_weight=965 27 84 30 93 202 36 72 566 221 32 64 61 138 205 142 40 302 109 232
leaf_count=965 27 84 30 93 202 36 72 566 221 32 64 61 138 205 142 40 302 109 232
internal_value=-7.79317e-11 0.174567 0.385817 0.337316 0.447318 0.0860947 0.159003 0.195894 -0.122615 0.0575688 -0.0560925 -0.061608 -0.0206774 0.062262 0.0242465 -0.192287 -0.0713836 -0.181804 -0.1743
internal_weight=3621 1494 441 411 295 1053 705 638 2127 116 930 348 709 269 203 67 440 145 1197
internal_count=3621 1494 441 411 295 1053 705 638 2127 116 930 348 709 269 203 67 440 145 1197
is_linear=0
shrinkage=0.1


Tree=6
num_leaves=20
num_cat=0
split_feature=5 4 4 2 10 7 0 6 2 0 5 6 4 12 6 7 9 2 7
split_gain=6402.65 1634.53 1594.54 1541.41 1268.01 841.188 632.161 584.954 529.952 730.034 506.464 268.725 199.41 182.354 167.911 152.098 137.218 87.5691 41.9332
threshold=34.450000000000003 14.214285714285717 2.092857142857143 5.7500000000000009 23.050000000000004 26.582142857142863 0.45000000000000007 22.325000000000006 0.95000000000000007 12.850000000000003 69.65000000000002 26.775000000000002 0.74285714285714166 15.595000000000001 26.375000000000004 27.103571428571431 68.357142857142875 1.7500000000000002 21.210714285714289
decision_type=2 2 2 2 2 2 2 2 2 2 2 2 2 2 2 2 2 2 2
left_child=2 3 12 4 5 -2 11 18 9 -8 -9 13 -1 -4 -10 -13 -14 -18 -5
right_child=1 -3 6 7 -6 -7 8 10 14 -11 -12 15 16 -15 -16 -17 17 -19 -20
leaf_value=-0.15687000934632128 0.22959535370199249 1.1061685748043515 0.12255784151730714 -0.11471806585788727 0.88618482687534428 0.63209065433408396 0.26081019718693493 0.057521486434564797 -0.051998076886804995 -0.16014685836434364 0.34722359385583307 0.16178184720657526 0.10579664938979678 -0.15024182295743027 0.091967150118345262 -0.081322282755916769 -0.074161909713825969 -0.17783963163383307 -0.2962326080458505
leaf_weight=1197 349 21 27 20 39 61 234 279 215 50 77 62 36 265 130 44 376 104 35
leaf_count=1197 349 21 27 20 39 61 234 279 215 50 77 62 36 265 130 44 376 104 35
internal_value=8.0033e-10 0.234505 -0.0754012 0.213221 0.341309 0.289479 0.0231214 0.07329 0.08553 0.186698 0.120182 -0.0755094 -0.134469 -0.125017 0.00224969 0.0608707 -0.0825029 -0.0966254 -0.230227
internal_weight=3621 881 2740 860 449 410 1027 411 629 284 356 398 1713 292 345 106 516 480 55
internal_count=3621 881 2740 860 449 410 1027 411 629 284 356 398 1713 292 345 106 516 480 55
is_linear=0
shrinkage=0.1


Tree=7
num_leaves=20
num_cat=0
split_feature=5 4 4 2 9 6 0 2 0 10 2 7 9 4 15 1 6 9 4
split_gain=5269.67 1603.77 1218.84 1249.83 896.169 1055.89 750.615 642.097 878.654 348.879 578.597 254.877 241.121 189.348 167.955 151.502 127.716 111.765 20.955
threshold=39.800000000000004 2.2285714285714282 14.214285714285717 15.65 81.500000000000014 22.325000000000006 0.45000000000000007 1.2500000000000002 12.850000000000003 21.650000000000002 0.25000000000000006 26.686607142857145 83.214285714285737 0.74285714285714166 299.50000000000006 3.5500000000000003 21.875000000000004 91.619047619047635 0.18571428571428525
decision_type=2 2 2 2 2 2 2 2 2 2 2 2 2 2 2 2 2 2 2
left_child=1 13 3 4 -2 -6 9 8 -8 11 -11 -3 -9 18 17 16 -15 -5 -1
right_child=2 6 -4 14 5 -7 7 12 -10 10 -12 -13 -14 15 -16 -17 -18 -19 -20
leaf_value=-0.14878370949129263 0.89398793137591825 -0.1430954617102318 0.99555171784900487 -0.33346332648396493 -0.1630287199108689 0.30270643742936043 0.28079924480207546 0.27651091205977624 -0.13251184236723931 0.50124091230905976 -0.18730904045312302 0.08070201038337145 -0.01430371979067863 -0.16715251065790654 0.10998219923313819 -0.19627920188719319 -0.029422498279990741 -0.079171841086021488 -0.11815058181096834
leaf_weight=900 23 307 21 25 54 494 262 31 64 26 23 61 355 80 33 84 425 56 297
leaf_count=900 23 307 21 25 54 494 262 31 64 26 23 61 355 80 33 84 425 56 297
internal_value=2.08715e-10 -0.0593691 0.245129 0.222123 0.282478 0.256813 0.0339232 0.096324 0.199658 -0.0726219 0.178044 -0.105999 0.00905186 -0.118343 -0.0801824 -0.0719257 -0.0512411 -0.157657 -0.141183
internal_weight=3621 2915 706 685 571 548 1129 712 326 417 49 368 386 1786 114 589 505 81 1197
internal_count=3621 2915 706 685 571 548 1129 712 326 417 49 368 386 1786 114 589 505 81 1197
is_linear=0
shrinkage=0.1


Tree=8
num_leaves=20
num_cat=0
split_feature=5 4 9 6 0 6 2 12 8 0 1 0 13 4 9 7 12 1 4
split_gain=4460.52 1663.8 1146.11 1021.88 1100.34 767.393 679.739 539.163 726.761 405.849 636.904 325.018 298.719 153.372 128.326 155.975 114.961 92.9648 17.1984
threshold=48.100000000000001 2.2285714285714282 84.642857142857153 26.875000000000004 1.9500000000000002 25.225000000000005 6.0500000000000007 20.195000000000004 80.500000000000014 1.3500000000000003 0.75000000000000011 0.25000000000000006 14.876428571428573 0.74285714285714166 68.357142857142875 27.31071428571429 15.595000000000001 3.5500000000000003 0.27142857142857019
decision_type=2 2 2 2 2 2 2 2 2 2 2 2 2 2 2 2 2 2 2
left_child=1 13 -2 4 12 9 -6 8 -7 16 -11 -9 -4 18 15 -15 -3 -16 -1
right_child=2 5 3 -5 6 7 -8 11 -10 10 -12 -13 -14 14 17 -17 -18 -19 -20
leaf_value=-0.13294199949526106 0.95961692805091536 0.020935607019891132 0.19494792871615466 0.77740226050510131 0.50065540631808214 0.73749480889393737 0.19022211673090589 -0.080218366452895887 0.17413393004098909 0.31724238365888602 -0.033840400656862633 0.10060493962524773 -0.15759684596119861 0.28745701042088595 -0.060479405530340681 -0.098399772047996534 -0.14895976216914097 -0.17654875790539348 -0.10261822138543659
leaf_weight=965 24 47 34 34 114 26 185 134 192 65 252 385 82 22 466 20 261 81 232
leaf_count=965 24 47 34 34 114 26 185 134 192 65 252 385 82 22 466 20 261 81 232
internal_value=-3.79422e-10 -0.0430221 0.286329 0.25034 0.207159 0.0402281 0.308581 0.109352 0.241324 -0.0412825 0.0381482 0.0539184 -0.0542648 -0.106509 -0.0647331 0.103716 -0.123034 -0.077667 -0.127065
internal_weight=3621 3148 473 449 415 1362 299 737 218 625 317 519 116 1786 589 42 308 547 1197
internal_count=3621 3148 473 449 415 1362 299 737 218 625 317 519 116 1786 589 42 308 547 1197
is_linear=0
shrinkage=0.1


Tree=9
num_leaves=20
num_cat=0
split_feature=4 6 5 3 14 10 0 4 2 9 3 10 12 6 6 4 9 6 11
split_gain=3646.94 1255.32 1392.71 1105.45 927.575 724.982 722.602 512.199 466.743 359.76 317.176 285.141 348.298 214.615 50.2166 37.0662 49.9666 31.5248 15.0237
threshold=4.0000000000000009 22.125000000000004 69.65000000000002 0.15000000000000005 4.5000000000000009 19.350000000000005 3.2500000000000004 1.3357142857142845 5.7500000000000009 67.928571428571445 22.850000000000005 19.250000000000004 9.7750000000000004 22.875000000000004 20.775000000000002 0.27142857142857019 62.785714285714292 24.075000000000006 12.850000000000003
decision_type=2 2 2 2 2 2 2 2 2 2 2 2 2 2 2 2 2 2 2
left_child=7 11 3 4 -3 6 -4 15 -5 -9 13 12 -2 -11 -14 18 -17 -18 -1
right_child=1 2 5 8 -6 -7 -8 9 -10 10 -12 -13 14 -15 -16 16 17 -19 -20
leaf_value=-0.033879649639129643 0.2362617335011882 0.11059087848165867 -0.086446363396114778 0.14743901239676099 0.56640826684175705 0.93272766545414931 0.51000370713995735 0.31492594555020337 -0.015855158819523579 -0.13182104549032975 0.36810586273670198 -0.36222559244204788 -0.21016479677387645 -0.010831747820788613 -0.028836635748545333 0.033175249849305012 -0.13221863045984386 -0.075533720202491453 -0.12146300221561755
leaf_weight=20 31 82 27 437 98 28 82 32 292 182 20 39 56 754 21 33 147 295 945
leaf_count=20 31 82 27 437 98 28 82 32 292 182 20 39 56 754 21 33 147 295 945
internal_value=-1.35455e-09 0.143171 0.181625 0.136829 0.358758 0.478851 0.362259 -0.0703471 0.0820317 -0.0148976 -0.0259377 -0.130459 -0.0467656 -0.0343574 -0.160712 -0.108392 -0.0855238 -0.0943859 -0.119648
internal_weight=3621 1193 1046 909 180 137 109 2428 729 988 956 147 108 936 77 1440 475 442 965
internal_count=3621 1193 1046 909 180 137 109 2428 729 988 956 147 108 936 77 1440 475 442 965
is_linear=0
shrinkage=0.1


Tree=10
num_leaves=19
num_cat=0
split_feature=4 0 1 10 7 3 2 4 9 0 1 3 1 10 0 4 4 15
split_gain=3119.4 1228.44 921.651 1330.08 736.136 621.644 519.559 519.498 1133.5 874.654 566.643 254.153 159.105 154.237 151.403 76.5817 103.408 8.9205
threshold=6.9928571428571447 0.15000000000000005 22.350000000000005 22.650000000000002 25.975000000000005 1.0000000180025095e-35 12.950000000000001 2.714285714285714 81.214285714285737 11.750000000000002 6.4500000000000011 4.3500000000000005 3.4500000000000006 26.850000000000005 7.3500000000000005 6.5642857142857141 5.6357142857142852 317.50000000000006
decision_type=2 2 2 2 2 2 2 2 2 2 2 2 2 2 2 2 2 2
left_child=1 13 3 4 5 -2 -6 12 9 -9 -10 -4 14 15 -3 16 -1 -14
right_child=2 7 11 -5 6 -7 -8 8 10 -11 -12 -13 17 -15 -16 -17 -18 -19
leaf_value=-0.09851694957220547 0.55726115719692126 -0.0019135128330128232 -0.34878610822147338 1.0216462229688963 0.66677359647926737 0.1175054733850518 0.12548164844512941 0.68725101784163833 0.10074256054135633 -0.025424184248997617 -0.080123645788524309 0.11458811998367309 -0.18434814115556386 0.10865481185751993 -0.18657384405330735 -0.27899275240690813 0.098835784638369534 -0.1093798537339483
leaf_weight=1594 37 473 29 24 61 245 25 51 564 26 250 20 65 37 49 23 27 21
leaf_count=1594 37 473 29 24 61 245 25 51 564 26 250 20 65 37 49 23 27 21
internal_value=5.77325e-10 -0.0345642 0.249239 0.30035 0.253309 0.175204 0.509421 0.0312541 0.079884 0.446607 0.045194 -0.159654 -0.0400112 -0.0932564 -0.0192475 -0.0978007 -0.0952298 -0.166042
internal_weight=3621 3180 441 392 368 282 86 1499 891 77 814 49 608 1681 522 1644 1621 86
internal_count=3621 3180 441 392 368 282 86 1499 891 77 814 49 608 1681 522 1644 1621 86
is_linear=0
shrinkage=0.1


Tree=11
num_leaves=20
num_cat=0
split_feature=5 0 2 9 6 0 1 4 9 14 0 10 4 1 4 15 12 12 1
split_gain=2535.05 951.272 850.801 1064.24 896.292 906.727 495.135 774.925 783.143 177.333 135.46 129.007 146.238 97.7495 93.9012 87.2913 194.011 97.5582 49.2933
threshold=48.100000000000001 0.45000000000000007 18.850000000000005 84.642857142857153 26.925000000000004 1.9500000000000002 7.6500000000000012 3.1285714285714286 88.214285714285737 8.5000000000000018 7.3500000000000005 26.850000000000005 0.92142857142857082 16.950000000000003 3.6285714285714286 82.500000000000014 24.695000000000004 16.805000000000003 10.750000000000002
decision_type=2 2 2 2 2 2 2 2 2 2 2 2 2 2 2 2 2 2 2
left_child=1 11 3 -2 5 -5 7 10 -9 18 -3 15 -13 14 -8 16 -1 -17 -4
right_child=2 6 9 4 -6 -7 13 8 -10 -11 -12 12 -14 -15 -16 17 -18 -19 -20
leaf_value=0.10660349312973649 0.96774939071564448 -0.0011158749904387501 -0.29520573200514683 -0.087161198018611163 0.78044819065502713 0.28579400041427178 -0.18603859262032943 0.35465500573460146 0.076253744112831118 0.11822372100971364 -0.14983087958059679 -0.065186865351818224 0.2915782105922699 -0.27834299471643237 -0.031830386136259353 -0.050758316092086475 -0.10234544841207077 -0.10387252867149875 -0.096465146852036332
leaf_weight=76 21 446 26 87 28 260 55 139 370 27 71 27 20 27 140 489 107 1181 24
leaf_count=76 21 446 26 87 28 260 55 139 370 27 71 27 20 27 140 489 107 1181 24
internal_value=-9.34698e-11 -0.0324334 0.215857 0.274997 0.236203 0.192287 0.0353939 0.0646932 0.152281 -0.0882918 -0.021539 -0.0769852 0.0866281 -0.100016 -0.075325 -0.0811351 -0.0155688 -0.0883199 -0.19981
internal_weight=3621 3148 473 396 375 347 1248 1026 509 77 517 1900 47 222 195 1853 183 1670 50
internal_count=3621 3148 473 396 375 347 1248 1026 509 77 517 1900 47 222 195 1853 183 1670 50
is_linear=0
shrinkage=0.1


Tree=12
num_leaves=18
num_cat=0
split_feature=4 0 1 10 0 5 9 7 4 6 9 10 10 6 12 15 4
split_gain=2076.23 832.822 727.775 1046.5 537.25 590.362 978.356 509.355 529.254 435.53 200.489 108.991 68.4064 60.1478 108.801 34.212 26.1083
threshold=6.9928571428571447 1.0000000180025095e-35 23.850000000000005 22.650000000000002 16.500000000000004 28.749999999999996 81.214285714285737 25.975000000000005 11.678571428571432 26.875000000000004 88.214285714285737 26.850000000000005 18.550000000000004 23.725000000000005 16.765000000000004 150.50000000000003 0.48571428571428454
decision_type=2 2 2 2 2 2 2 2 2 2 2 2 2 2 2 2 2
left_child=1 11 3 7 5 10 -7 8 -2 -9 -3 13 15 16 -15 -6 -1
right_child=2 4 -4 -5 12 6 -8 9 -10 -11 -12 -13 -14 14 -16 -17 -18
leaf_value=-0.090638194275238837 0.091367994217100998 0.023703493955493468 -0.20910151677253919 0.88366903960704812 -0.09724674483761192 0.80557763040065766 0.092635634312227932 0.27745475443509909 0.52867880444372861 0.77592772543430333 -0.068466530376193005 0.089844566825273878 -0.41279383344309672 0.0069038530604706872 -0.083477102271784773 -0.27999633096513293 -0.13203610444022704
leaf_weight=372 258 631 39 24 20 20 512 65 31 24 377 37 21 162 749 21 258
leaf_count=372 258 631 39 24 20 20 512 65 31 24 377 37 21 162 749 21 258
internal_value=-5.45844e-11 -0.0281987 0.203338 0.24335 0.0225921 0.0342117 0.119438 0.202695 0.138277 0.411874 -0.0107688 -0.079762 -0.266025 -0.0838343 -0.067405 -0.19085 -0.107592
internal_weight=3621 3180 441 402 1602 1540 532 378 289 89 1008 1578 62 1541 911 41 630
internal_count=3621 3180 441 402 1602 1540 532 378 289 89 1008 1578 62 1541 911 41 630
is_linear=0
shrinkage=0.1


Tree=13
num_leaves=20
num_cat=0
split_feature=4 4 2 6 12 9 2 0 0 6 3 6 0 12 4 2 9 10 15
split_gain=1681.75 710.483 688.856 739.412 731.372 583.005 538.103 534.744 698.719 264.348 238.597 140.771 132.255 72.6315 70.45 112.006 122.534 34.4278 22.054
threshold=6.9928571428571447 2.1928571428571426 18.850000000000005 27.125000000000004 22.145000000000003 87.642857142857153 1.2500000000000002 15.350000000000003 0.45000000000000007 23.475000000000005 0.65000000000000002 25.025000000000002 2.0500000000000003 12.115 0.79999999999999882 1.7500000000000002 90.214285714285737 17.350000000000005 342.50000000000006
decision_type=2 2 2 2 2 2 2 2 2 2 2 2 2 2 2 2 2 2 2
left_child=1 14 3 4 5 -2 7 8 -3 13 -11 -4 -6 -8 18 16 -16 -9 -1
right_child=2 6 11 -5 12 -7 9 17 -10 10 -12 -13 -14 -15 15 -17 -18 -19 -20
leaf_value=-0.082621994625749151 0.74666358828544621 -0.0022883082133910017 -0.22373987887054683 0.81487048239935023 -0.22175788473751812 0.23112360227487835 -0.27229930816425219 -0.13471221816539766 0.21884574600918727 0.080111976779806304 -0.04725227139589161 0.055277373280489088 0.057647423318121588 -0.10884051336361483 0.0063827584808071455 -0.12404646738984829 -0.15344985082745555 -0.30067079807817937 0.02325674332678318
leaf_weight=1203 24 252 40 21 36 255 36 25 330 234 396 33 32 111 375 118 55 25 20
leaf_count=1203 24 252 40 21 36 255 36 25 330 234 396 33 32 111 375 118 55 25 20
internal_value=-1.03137e-10 -0.0253788 0.183004 0.238669 0.203798 0.275471 0.027614 0.0961359 0.123097 -0.0281207 5.44494e-05 -0.0976088 -0.090273 -0.148871 -0.0675397 -0.037744 -0.0140609 -0.217692 -0.0808905
internal_weight=3621 3180 441 368 347 279 1409 632 582 777 630 73 68 147 1771 548 430 50 1223
internal_count=3621 3180 441 368 347 279 1409 632 582 777 630 73 68 147 1771 548 430 50 1223
is_linear=0
shrinkage=0.1


Tree=14
num_leaves=20
num_cat=0
split_feature=4 4 2 6 4 9 2 4 9 3 4 1 15 1 4 9 11 8 2
split_gain=1433.49 793.587 840.023 781.372 814.232 518.611 239.052 227.988 253.331 242.81 192.391 169.951 101.718 16.8852 25.3583 50.6275 11.5845 1.92767 0.485227
threshold=4.0000000000000009 14.214285714285717 5.6500000000000012 27.625000000000004 10.435714285714287 87.214285714285737 16.650000000000002 1.3357142857142845 67.928571428571445 22.850000000000005 6.6785714285714297 3.7500000000000004 299.50000000000006 1.7500000000000002 0.27142857142857019 73.214285714285737 12.850000000000003 86.500000000000014 0.25000000000000006
decision_type=2 2 2 2 2 2 2 2 2 2 2 2 2 2 2 2 2 2 2
left_child=7 2 3 4 -2 -5 10 13 -9 11 -4 -10 -8 14 16 -16 -1 -15 -19
right_child=1 -3 6 5 -6 -7 12 8 9 -11 -12 -13 -14 17 15 -17 -18 18 -20
leaf_value=-0.00076608102768659602 0.095419440665794386 0.69906087319056198 -0.045046506591141226 0.24766508404697693 0.62139070404152719 0.89647213708270679 -0.18533887910675639 0.26966061219573023 0.00015955898450331743 0.32839435458183291 0.097668643387336315 -0.099710661236063716 0.020004969229921701 -0.14431291087107226 0.0051976554461110099 -0.070148725574180268 -0.077674940472342469 -0.11847401384264232 -0.096446151360869412
leaf_weight=20 582 21 200 28 31 22 98 32 712 20 179 224 32 22 130 284 944 20 20
leaf_count=20 582 21 200 28 31 22 98 32 712 20 179 224 32 22 130 284 944 20 20
internal_value=-6.49778e-10 0.089761 0.0788435 0.153023 0.122018 0.53314 -0.0177793 -0.0441041 -0.00710987 -0.0163742 0.0223572 -0.023741 -0.134793 -0.0694863 -0.0671894 -0.0464892 -0.0760793 -0.120537 -0.10746
internal_weight=3621 1193 1172 663 613 50 509 2428 988 956 379 936 130 1440 1378 414 964 62 40
internal_count=3621 1193 1172 663 613 50 509 2428 988 956 379 936 130 1440 1378 414 964 62 40
is_linear=0
shrinkage=0.1


Tree=15
num_leaves=19
num_cat=0
split_feature=0 4 9 1 4 9 4 13 11 3 0 10 4 7 4 12 2 9
split_gain=1197.19 796.495 626.088 404.792 463.996 846.213 271.244 363.615 265.156 153.847 111.649 103.65 380.192 104.462 140.67 94.1044 63.0567 16.5994
threshold=0.65000000000000002 9.2000000000000011 91.071428571428584 18.050000000000004 3.1285714285714286 87.785714285714292 11.514285714285716 18.415714285714291 14.735714285714289 24.500000000000004 7.3500000000000005 24.850000000000005 2.0500000000000007 26.160714285714292 1.8999999999999997 19.055000000000003 3.3500000000000001 61.928571428571438
decision_type=2 2 2 2 2 2 2 2 2 2 2 2 2 2 2 2 2 2
left_child=9 3 -3 4 10 -6 7 -4 -8 11 -2 13 17 15 -15 -1 -5 -13
right_child=1 2 6 16 5 -7 8 -9 -10 -11 -12 12 -14 14 -16 -17 -18 -19
leaf_value=-0.052080743822237756 -0.0063816947035035864 0.67397036610111116 -0.091525989370765518 -0.36915935325351629 0.28510628309201552 0.042577423604703304 0.62674187990752139 0.30347129164672482 0.1696741133928299 0.18315620251399067 -0.14123034889602826 0.013537460731135476 0.43637798458337784 -0.054098641974285488 0.058742305842585531 -0.10518072638451384 -0.13912737507086534 -0.082493064911277211
leaf_weight=890 417 31 54 22 185 647 22 41 30 28 72 27 20 362 159 534 26 54
leaf_count=890 417 31 54 22 185 647 22 41 30 28 72 27 20 362 159 534 26 54
internal_value=-1.68711e-10 0.0665774 0.26557 0.0407039 0.0510693 0.0965051 0.179445 0.0789465 0.363049 -0.0496602 -0.0262367 -0.0528463 0.0459252 -0.0579753 -0.0196616 -0.0719932 -0.244559 -0.0504829
internal_weight=3621 1547 178 1369 1321 832 147 95 52 2074 489 2046 101 1945 521 1424 48 81
internal_count=3621 1547 178 1369 1321 832 147 95 52 2074 489 2046 101 1945 521 1424 48 81
is_linear=0
shrinkage=0.1


Tree=16
num_leaves=20
num_cat=0
split_feature=5 0 9 0 0 10 4 2 6 12 6 2 10 0 1 4 9 15 7
split_gain=1017.17 667.65 730.024 486.608 818.09 255.559 224.069 289.269 326.883 577.441 170.836 106.2 84.7292 36.9973 14.7524 19.859 63.6552 11.2914 1.55335
threshold=34.450000000000003 29.150000000000002 81.785714285714292 3.0500000000000003 4.1500000000000012 19.050000000000004 1.3357142857142845 0.25000000000000006 22.875000000000004 17.045000000000005 25.125000000000004 1.3500000000000003 14.250000000000002 9.9000000000000021 1.7500000000000002 0.74285714285714166 68.357142857142875 331.50000000000006 25.053571428571434
decision_type=2 2 2 2 2 2 2 2 2 2 2 2 2 2 2 2 2 2 2
left_child=6 2 -2 5 -5 -4 14 8 12 -10 13 -12 -8 -9 15 17 -17 -1 -16
right_child=1 -3 3 4 -6 -7 7 10 9 -11 11 -13 -14 -15 18 16 -18 -19 -20
leaf_value=-0.061326224378985494 0.56271458162980925 -0.40574034280501881 -0.044302831136070898 0.62756831185782658 0.11868973072240288 0.17357357224421716 0.040360027356516753 -0.086978419383295189 0.33085115826265382 0.037920174346520355 0.067787113222080517 -0.032444978441106297 -0.13195877189046881 -0.21896865154090139 -0.085025107984741541 0.1432670015608892 -0.044734252824638436 0.014458272904157639 -0.11752134373313504
leaf_weight=1157 34 26 274 34 446 67 42 277 88 286 153 342 89 23 24 20 181 20 38
leaf_count=1157 34 26 274 34 446 67 42 277 88 286 153 342 89 23 24 20 181 20 38
internal_value=6.28083e-11 0.0934693 0.10865 0.0898458 0.154735 -0.00149427 -0.0300534 4.36975e-05 0.0592294 0.106845 -0.0375523 -0.00146415 -0.0767115 -0.0970977 -0.0572245 -0.0550775 -0.0260277 -0.0600385 -0.104942
internal_weight=3621 881 855 821 480 341 2740 1300 505 374 795 495 131 300 1440 1378 201 1177 62
internal_count=3621 881 855 821 480 341 2740 1300 505 374 795 495 131 300 1440 1378 201 1177 62
is_linear=0
shrinkage=0.1


Tree=17
num_leaves=18
num_cat=0
split_feature=4 1 10 3 7 0 0 1 4 1 3 1 4 10 5 9 3
split_gain=900.724 606.002 714.453 458.015 526.749 345.399 384.004 411.036 631.164 261.137 175.146 149.768 86.9803 64.0621 45.58 41.5555 23.5467
threshold=7.1214285714285719 22.350000000000005 22.650000000000002 1.0000000180025095e-35 23.803571428571434 1.0000000180025095e-35 21.850000000000005 5.5500000000000007 4.5642857142857141 6.2500000000000009 4.3500000000000005 18.450000000000003 5.0785714285714283 26.850000000000005 30.199999999999999 86.928571428571445 1.9500000000000002
decision_type=2 2 2 2 2 2 2 2 2 2 2 2 2 2 2 2 2
left_child=5 2 3 9 -5 12 7 8 -7 -2 -3 -9 13 14 -1 -14 -17
right_child=1 10 -4 4 -6 6 -8 11 -10 -11 -12 -13 15 -15 -16 16 -18
leaf_value=-0.05330616931531737 0.22650987174775869 -0.35031347448198963 0.72063969581023513 -0.20795467305690685 0.15636793334110111 0.011842305746752782 -0.42116352260112766 -0.052445521550934494 0.1905688322519502 0.69668890237808234 0.034353284165263176 -0.30076314199429294 -0.28615164889022709 0.08329695523590655 0.041137657637866039 -0.18240881535139952 -0.032487531602382658
leaf_weight=1426 27 29 23 47 255 957 20 369 249 21 20 26 20 37 53 22 20
leaf_count=1426 27 29 23 47 255 957 20 369 249 21 20 26 20 37 53 22 20
internal_value=-2.14328e-10 0.13732 0.180753 0.145275 0.0996687 -0.0181147 0.0143055 0.0197455 0.0487436 0.432213 -0.193307 -0.0687905 -0.0514183 -0.0466704 -0.0499218 -0.167513 -0.111018
internal_weight=3621 422 373 350 302 3199 1621 1601 1206 48 49 395 1578 1516 1479 62 42
internal_count=3621 422 373 350 302 3199 1621 1601 1206 48 49 395 1578 1516 1479 62 42
is_linear=0
shrinkage=0.1


Tree=18
num_leaves=15
num_cat=0
split_feature=4 6 9 0 0 1 4 7 11 13 0 2 4 4
split_gain=737.052 566.381 572.702 361.394 395.781 402.154 477.709 352.877 569.243 357.959 130.614 119.573 151.049 32.4542
threshold=7.3928571428571432 22.275000000000002 87.785714285714292 21.850000000000005 1.2500000000000002 6.1500000000000012 3.1285714285714286 25.525000000000002 15.935714285714287 12.602857142857145 9.9000000000000021 5.6500000000000012 1.3357142857142845 4.9214285714285717
decision_type=2 2 2 2 2 2 2 2 2 2 2 2 2 2
left_child=3 -2 -3 4 11 6 -6 9 -9 -4 -7 12 -1 -13
right_child=1 2 7 -5 5 10 -8 8 -10 -11 -12 13 -14 -15
leaf_value=-0.047681515893557097 -0.24260502197855227 0.68836433544754982 0.40454128636763653 -0.41961690566756515 -0.0094950966106021675 -0.021729690290905618 0.15251468645347135 0.13770370766684251 0.61225095093250281 0.0078743983960741174 -0.17781506541528203 -0.078096974118734189 0.011105973643469646 -0.15738170700343818
leaf_weight=1330 37 20 26 22 339 182 393 91 35 182 76 161 651 76
leaf_count=1330 37 20 26 22 339 182 393 91 35 182 76 161 651 76
internal_value=-2.30923e-10 0.129672 0.168583 -0.0156972 -0.0129272 0.0396472 0.0774856 0.137458 0.269522 0.0574578 -0.0677083 -0.0363936 -0.0283627 -0.103522
internal_weight=3621 391 354 3230 3208 990 732 334 126 208 258 2218 1981 237
internal_count=3621 391 354 3230 3208 990 732 334 126 208 258 2218 1981 237
is_linear=0
shrinkage=0.1


Tree=19
num_leaves=11
num_cat=0
split_feature=4 0 0 4 2 1 3 12 6 13
split_gain=618.611 506.59 406.354 407.188 912.92 329.601 94.6048 79.5591 95.3854 61.0558
threshold=14.214285714285717 0.8500000000000002 29.150000000000002 9.2000000000000011 6.0500000000000007 4.4500000000000011 22.850000000000005 25.985000000000003 20.925000000000004 24.067857142857147
decision_type=2 2 2 2 2 2 2 2 2 2
left_child=1 6 3 5 -5 -3 7 8 -1 -9
right_child=-2 2 -4 4 -6 -7 -8 9 -10 -11
leaf_value=-0.078443086317534994 0.54117291555518199 0.070348453654533516 -0.34899245317165672 0.54409574726954679 0.016708973037560335 -0.035549628215983668 0.12472308612353095 -0.14712127997217891 -0.019319992759798389 -0.045127416001632809
leaf_weight=331 21 814 26 52 89 460 37 107 1554 130
leaf_count=331 21 814 26 52 89 460 37 107 1554 130
internal_value=7.59384e-12 -0.00315684 0.0427599 0.0499582 0.211206 0.0321121 -0.0338035 -0.0365676 -0.0297018 -0.0911753
internal_weight=3621 3600 1441 1415 141 1274 2159 2122 1885 237
internal_count=3621 3600 1441 1415 141 1274 2159 2122 1885 237
is_linear=0
shrinkage=0.1


Tree=20
num_leaves=20
num_cat=0
split_feature=5 1 9 12 5 6 15 2 4 9 12 6 11 0 0 4 6 7 11
split_gain=533.479 467.055 642.133 1800.65 342.057 417.703 278.837 90.5051 131.451 234.186 221.744 103.898 86.0888 49.8482 38.853 33.5559 11.7315 5.86089 5.01749
threshold=28.449999999999999 23.850000000000005 81.785714285714292 17.485000000000003 69.65000000000002 27.525000000000002 22.500000000000004 8.0500000000000025 1.8999999999999997 78.357142857142875 17.335000000000004 26.525000000000002 17.692857142857147 4.2500000000000009 0.45000000000000007 0.79999999999999882 23.275000000000002 25.975000000000005 16.578571428571433
decision_type=2 2 2 2 2 2 2 2 2 2 2 2 2 2 2 2 2 2 2
left_child=7 2 3 -2 5 -4 -6 8 13 10 -10 -11 -3 15 16 -1 -9 -15 -16
right_child=1 12 4 -5 6 -7 -8 14 9 11 -12 -13 -14 17 18 -17 -18 -19 -20
leaf_value=-0.043301616851232773 0.99863481567482715 -0.13137694941833616 0.009219645847157126 -0.069429317753958081 0.51005687206052241 0.25691853105216417 0.13258177295748919 -0.017132196068763733 0.30739487366129958 -0.042972344883960657 0.028335014517818183 0.044799545601658199 -0.39194832969279519 -0.10520569209475071 -0.23266954075545077 -0.0090314359530237268 -0.10988523721694948 -0.17584742433189049 -0.16183529444038869
leaf_weight=1221 27 32 851 38 24 74 106 25 48 387 70 207 21 24 20 373 30 23 20
leaf_count=1221 27 32 851 38 24 74 106 25 48 387 70 207 21 24 20 373 30 23 20
internal_value=-2.86129e-10 0.0554499 0.0691766 0.374228 0.0503819 0.0290356 0.202269 -0.0265698 -0.0227063 0.0131764 0.141851 -0.0123852 -0.234622 -0.0382751 -0.122263 -0.0352823 -0.0677248 -0.139775 -0.197252
internal_weight=3621 1173 1120 65 1055 925 130 2448 2353 712 118 594 53 1641 95 1594 55 47 40
internal_count=3621 1173 1120 65 1055 925 130 2448 2353 712 118 594 53 1641 95 1594 55 47 40
is_linear=0
shrinkage=0.1


Tree=21
num_leaves=17
num_cat=0
split_feature=5 9 7 13 15 6 0 0 1 4 6 7 13 10 2 10
split_gain=461.954 416.403 335.99 575.581 428.416 401.211 271.476 241.281 272.957 345.067 229.229 106.246 282.828 88.6568 54.1847 46.6425
threshold=48.100000000000001 84.642857142857153 25.975000000000005 22.640714285714292 10.500000000000002 25.925000000000004 16.500000000000004 1.1500000000000001 8.3500000000000032 3.1285714285714286 23.675000000000004 26.303571428571434 17.289285714285715 26.850000000000005 6.1500000000000012 18.550000000000004
decision_type=2 2 2 2 2 2 2 2 2 2 2 2 2 2 2 2
left_child=6 -2 4 5 -3 -4 7 11 9 -9 -6 13 -13 -1 -10 -8
right_child=1 2 3 -5 10 -7 15 8 14 -11 -12 12 -14 -15 -16 -17
leaf_value=-0.045193045879780458 0.49797488848368332 0.47351633936166765 0.13672451905665858 -0.10979156568646431 -0.13132303484848568 0.62750972211360934 -0.15982131972335853 -0.013862920635738851 -0.05309296113095785 0.12081424899942934 0.051198408685753621 0.30248551464849904 -0.0079310119506165698 0.10379379339879607 -0.18836761608719826 -0.34467342978432064
leaf_weight=1546 24 20 31 33 98 36 39 358 114 406 231 31 552 41 40 21
leaf_count=1546 24 20 31 33 98 36 39 358 114 406 231 31 552 41 40 21
internal_value=7.64817e-11 0.092145 0.0704525 0.232057 0.0241476 0.40043 -0.0138452 -0.00975175 0.0332248 0.0577064 -0.00316968 -0.0279326 0.00857484 -0.041344 -0.0882292 -0.22452
internal_weight=3621 473 449 100 349 67 3148 3088 918 764 329 2170 583 1587 154 60
internal_count=3621 473 449 100 349 67 3148 3088 918 764 329 2170 583 1587 154 60
is_linear=0
shrinkage=0.1


Tree=22
num_leaves=13
num_cat=0
split_feature=4 0 0 9 4 11 2 4 4 10 1 4
split_gain=413.629 304.402 370.644 360.469 664.457 189.854 140.704 155.759 369.694 111.599 39.8196 43.5417
threshold=14.214285714285717 2.1500000000000008 29.150000000000002 94.500000000000014 6.7928571428571436 17.464285714285719 13.850000000000003 8.1642857142857164 9.3642857142857157 29.650000000000002 12.850000000000003 6.6071428571428585
decision_type=2 2 2 2 2 2 2 2 2 2 2 2
left_child=1 6 3 4 -3 -5 7 9 -9 -1 11 -8
right_child=-2 2 -4 5 -6 -7 10 8 -10 -11 -12 -13
leaf_value=-0.021787432075586834 0.44252010328429087 0.031503856797925382 -0.33115574379379931 -0.042428008335332078 0.24300033122931841 -0.36346302486601334 -0.10355392930905026 0.47689607943896029 -0.082539955498995621 0.21544663220644 0.0068608921766281127 -0.23863182625600268
leaf_weight=2322 21 694 26 150 189 21 75 21 27 20 20 35
leaf_count=2322 21 694 26 150 189 21 75 21 27 20 20 35
internal_value=2.04005e-10 -0.00258137 0.0418368 0.0510378 0.0767732 -0.0818534 -0.0216177 -0.0161068 0.162213 -0.0197615 -0.122934 -0.146533
internal_weight=3621 3600 1080 1054 883 171 2520 2390 48 2342 130 110
internal_count=3621 3600 1080 1054 883 171 2520 2390 48 2342 130 110
is_linear=0
shrinkage=0.1


Tree=23
num_leaves=13
num_cat=0
split_feature=4 2 5 3 9 5 0 5 0 15 4 11
split_gain=335.04 270.494 471.732 566.435 597.109 297.457 183.146 150.478 58.4556 79.4102 60.8984 16.141
threshold=14.214285714285717 16.650000000000002 34.450000000000003 0.15000000000000005 81.214285714285737 69.65000000000002 13.750000000000002 15.299999999999992 5.8500000000000005 299.50000000000006 7.5071428571428589 17.292857142857148
decision_type=2 2 2 2 2 2 2 2 2 2 2 2
left_child=1 2 6 4 -4 -5 7 -1 9 10 -3 -8
right_child=-2 8 3 5 -6 -7 11 -9 -10 -11 -12 -13
leaf_value=-0.02931101052838957 0.39826809551034659 -0.073736562296748173 0.72480012828653517 0.00038582097290770778 0.16355365586269946 0.21015367411459104 -0.14830215700246671 0.021092041184672068 -0.24232197423514568 0.062305588896075882 -0.24720403758042001 -0.25981243610382082
leaf_weight=1767 21 50 22 507 137 78 27 891 38 24 34 25
leaf_count=1767 21 50 22 507 137 78 27 891 38 24 34 25
internal_value=-2.30426e-10 -0.00232323 0.0033124 0.0738442 0.24121 0.0283549 -0.0160513 -0.0124152 -0.135648 -0.0981151 -0.14395 -0.201913
internal_weight=3621 3600 3454 744 159 585 2710 2658 146 108 84 52
internal_count=3621 3600 3454 744 159 585 2710 2658 146 108 84 52
is_linear=0
shrinkage=0.1


Tree=24
num_leaves=9
num_cat=0
split_feature=0 0 4 2 1 1 3 1
split_gain=309.655 393.039 264.19 494.597 548.319 143.821 116.661 103.564
threshold=29.150000000000002 23.300000000000001 3.714285714285714 5.6500000000000012 18.050000000000004 1.0500000000000003 23.100000000000005 3.7500000000000004
decision_type=2 2 2 2 2 2 2 2
left_child=1 2 6 4 -4 -5 7 -1
right_child=-2 -3 3 5 -6 -7 -8 -9
leaf_value=-0.016151497708968395 -0.33126415626278949 0.3630245468610277 0.11797296450555417 -0.13532667349076324 -0.20820028673458313 -0.0086444937443996388 0.16638421665764216 -0.089056107611503718
leaf_weight=2079 28 30 647 114 56 419 33 215
leaf_count=2079 28 30 647 114 56 419 33 215
internal_value=1.73395e-10 0.00258152 -0.000453365 0.0369094 0.0919905 -0.0357397 -0.0202988 -0.0229843
internal_weight=3621 3593 3563 1236 703 533 2327 2294
internal_count=3621 3593 3563 1236 703 533 2327 2294
is_linear=0
shrinkage=0.1


Tree=25
num_leaves=12
num_cat=0
split_feature=4 1 4 2 3 0 1 4 8 14 10
split_gain=268.596 220.164 300.534 496.905 606.176 213.339 173.802 166.725 116.833 86.6666 49.292
threshold=14.214285714285717 22.350000000000005 7.1214285714285719 10.250000000000002 2.2500000000000004 16.500000000000004 6.1500000000000012 2.3785714285714281 94.500000000000014 4.5000000000000009 15.15
decision_type=2 2 2 2 2 2 2 2 2 2 2
left_child=1 2 5 4 -4 7 -5 -1 -3 -7 -10
right_child=-2 8 3 6 -6 9 -8 -9 10 -11 -12
leaf_value=-0.02396957796444248 0.35659648137433186 0.012301390357315541 0.37895285935847317 -0.1851661115524269 0.041902281632719113 -0.028489993715828117 0.041121548354625705 0.023127752468085558 -0.17564640241590412 -0.27349771257667316 -0.389837414310092
leaf_weight=1850 21 20 91 62 129 22 75 1266 22 42 21
leaf_count=1850 21 20 91 62 129 22 75 1266 22 42 21
internal_value=1.94792e-10 -0.00208015 0.00122031 0.0882183 0.181319 -0.00854644 -0.061286 -0.0048344 -0.187377 -0.189276 -0.280251
internal_weight=3621 3600 3537 357 220 3180 137 3116 63 64 43
internal_count=3621 3600 3537 357 220 3180 137 3116 63 64 43
is_linear=0
shrinkage=0.1


Tree=26
num_leaves=10
num_cat=0
split_feature=0 4 0 2 5 6 2 10 9
split_gain=248.46 310.679 232.014 335.651 667.356 168.843 90.9978 97.6169 33.5506
threshold=29.150000000000002 13.621428571428574 2.1500000000000008 2.9500000000000006 48.100000000000001 22.325000000000006 13.850000000000003 23.650000000000002 91.500000000000014
decision_type=2 2 2 2 2 2 2 2 2
left_child=1 2 6 4 -4 -5 7 -1 -8
right_child=-2 -3 3 5 -6 -7 8 -9 -10
leaf_value=-0.018138712171204083 -0.29673168579382553 0.35360545766353613 0.047407315524773549 -0.26133596609378684 0.36205832546020483 -0.011513475716927507 -0.13645843087235487 0.056750713137505709 -0.029230076620976132
leaf_weight=2201 28 25 541 29 77 403 83 189 45
leaf_count=2201 28 25 541 29 77 403 83 189 45
internal_value=9.71767e-11 0.00231241 -0.000149005 0.0393402 0.0866114 -0.028284 -0.0166159 -0.0122165 -0.098761
internal_weight=3621 3593 3568 1050 618 432 2518 2390 128
internal_count=3621 3593 3568 1050 618 432 2518 2390 128
is_linear=0
shrinkage=0.1


Tree=27
num_leaves=10
num_cat=0
split_feature=1 5 6 10 12 0 2 5 0
split_gain=243.653 334.09 331.755 462.785 407.302 192.178 184.237 418.546 120.872
threshold=30.350000000000005 69.65000000000002 22.975000000000005 19.350000000000005 12.750000000000002 27.350000000000005 5.7500000000000009 29.149999999999995 12.950000000000001
decision_type=2 2 2 2 2 2 2 2 2
left_child=1 5 -3 4 -4 6 7 -1 -8
right_child=-2 2 3 -5 -6 -7 8 -9 -10
leaf_value=-0.010949496469815564 -0.32444308419590412 -0.16075146022651876 0.51370305987921627 0.66063881829380999 0.026511841439283812 -0.30582724185216997 -0.042242568619477359 0.085471129951263866 -0.22479714025289585
leaf_weight=2313 23 28 22 20 78 21 518 559 39
leaf_count=2313 23 28 22 20 78 21 518 559 39
internal_value=1.95267e-10 0.00207398 0.149197 0.221518 0.133694 -0.00423737 -0.00239037 0.00781761 -0.0550247
internal_weight=3621 3598 148 120 100 3450 3429 2872 557
internal_count=3621 3598 148 120 100 3450 3429 2872 557
is_linear=0
shrinkage=0.1


Tree=28
num_leaves=11
num_cat=0
split_feature=1 5 12 12 12 0 0 3 3 9
split_gain=197.61 308.223 301.234 504.085 292.706 157.226 156.889 161.161 65.8031 35.7294
threshold=22.350000000000005 69.65000000000002 19.655000000000005 17.045000000000005 13.635000000000003 27.350000000000005 20.400000000000002 2.5500000000000003 4.3500000000000005 89.928571428571445
decision_type=2 2 2 2 2 2 2 2 2 2
left_child=1 5 3 4 -3 6 7 -1 9 -2
right_child=8 2 -4 -5 -6 -7 -8 -9 -10 -11
leaf_value=0.010418265309422334 -0.32368243409563668 0.28470044825758251 -0.07615668408763715 0.60841049658400681 -0.15825472737734136 -0.27524451173487163 0.22689489185810091 -0.038929690386527181 -0.021696533440124424 -0.14926411253400149
leaf_weight=2470 23 35 39 28 26 21 30 904 21 24
leaf_count=2470 23 35 39 28 26 21 30 904 21 24
internal_value=3.67038e-10 0.00323182 0.155588 0.257139 0.0958999 -0.00246208 -0.000779224 -0.00280359 -0.168863 -0.234618
internal_weight=3621 3553 128 89 61 3425 3404 3374 68 47
internal_count=3621 3553 128 89 61 3425 3404 3374 68 47
is_linear=0
shrinkage=0.1


Tree=29
num_leaves=20
num_cat=0
split_feature=0 3 5 1 13 16 4 1 13 7 1 4 15 4 1 11 12 10 4
split_gain=171.895 258.356 409.227 575.919 877.708 161.606 500.327 308.403 199.808 395.802 159.892 202.064 88.7507 53.5396 234.714 71.7793 33.9439 30.5576 107.021
threshold=1.0000000180025095e-35 1.0000000180025095e-35 27.899999999999995 15.750000000000002 13.846428571428573 5.5000000000000009 9.2000000000000011 1.3500000000000003 12.915000000000001 21.76428571428572 5.8500000000000005 1.7285714285714284 154.50000000000003 5.0000000000000009 13.250000000000002 14.692857142857145 20.955000000000002 24.950000000000003 1.0928571428571421
decision_type=2 2 2 2 2 2 2 2 2 2 2 2 2 2 2 2 2 2 2
left_child=13 2 10 4 -4 8 7 -7 12 -10 11 -2 -3 17 15 -15 -17 -1 -19
right_child=1 5 3 -5 -6 6 -8 -9 9 -11 -12 -13 -14 14 -16 16 -18 18 -20
leaf_value=-0.023018149921965953 -0.019752879680396573 -0.075712075829505926 0.76985059524404598 -0.2052959731097023 0.16143152685119555 0.19703538669738918 0.49993500256538392 -0.090836497654720239 0.39387429282069208 -0.016398430348769883 -0.14396233696420238 0.13730299112880057 -0.33959676130459859 -0.31057286721467975 0.21277456909418105 -0.17800990871994968 -0.02307446564619358 -0.039150385584296857 0.19891163004296167
leaf_weight=1429 206 25 29 30 130 60 25 98 24 1162 53 136 26 25 20 31 26 58 28
leaf_count=1429 206 25 29 30 130 60 25 98 24 1162 53 136 26 25 20 31 26 58 28
internal_value=1.41259e-10 0.0195715 0.0755599 0.196576 0.272401 -0.00345478 0.0842542 0.0184819 -0.0164303 -0.00809612 0.017656 0.0427021 -0.210242 -0.0242555 -0.0943831 -0.1693 -0.107338 -0.0195341 0.0383582
internal_weight=3621 2004 584 189 159 1420 183 158 1237 1186 395 342 51 1617 102 82 57 1515 86
internal_count=3621 2004 584 189 159 1420 183 158 1237 1186 395 342 51 1617 102 82 57 1515 86
is_linear=0
shrinkage=0.1


Tree=30
num_leaves=10
num_cat=0
split_feature=0 0 1 5 9 8 15 0 15
split_gain=177.067 243.467 159.005 221.7 557.043 118.016 337.99 89.5615 72.7354
threshold=29.150000000000002 23.300000000000001 18.050000000000004 28.449999999999999 81.214285714285737 95.500000000000014 270.50000000000006 7.9500000000000011 178.50000000000003
decision_type=2 2 2 2 2 2 2 2 2
left_child=1 2 3 7 -5 6 -4 -1 -7
right_child=-2 -3 5 4 -6 8 -8 -9 -10
leaf_value=-0.008388180978891626 -0.25049773401447706 0.28563866248975195 -0.21110946657136084 0.38287838626167048 0.026658337528657573 -0.12145851729881196 0.31960555285215381 -0.095290224945545204 -0.33689325588941577
leaf_weight=2314 28 30 30 46 961 42 20 125 25
leaf_count=2314 28 30 30 46 961 42 20 125 25
internal_value=1.34806e-10 0.00195211 -0.000436493 0.00345605 0.0429306 -0.115083 0.00117654 -0.012842 -0.201845
internal_weight=3621 3593 3563 3446 1007 117 50 2439 67
internal_count=3621 3593 3563 3446 1007 117 50 2439 67
is_linear=0
shrinkage=0.1


Tree=31
num_leaves=16
num_cat=0
split_feature=6 13 6 3 0 9 5 9 2 10 9 0 9 0 9
split_gain=158.88 360.576 359.199 228.615 185.688 174.318 412.749 687.496 184.123 148.057 176.991 98.8335 48.3485 60.1771 57.6419
threshold=22.125000000000004 13.750000000000002 23.475000000000005 0.25000000000000006 16.650000000000002 94.500000000000014 61.550000000000004 91.071428571428584 17.050000000000004 19.050000000000004 96.642857142857153 12.250000000000002 81.500000000000014 3.1500000000000008 80.071428571428584
decision_type=2 2 2 2 2 2 2 2 2 2 2 2 2 2 2
left_child=4 2 -2 -4 11 6 8 -8 -3 10 -7 12 14 -14 -1
right_child=1 5 3 -5 -6 9 7 -9 -10 -11 -12 -13 13 -15 -16
leaf_value=-0.02590871769915409 0.45793675346033913 0.0060299513978043897 0.30552464425563813 -0.12812715926237647 -0.27366365360863071 -0.088009967315953147 0.63716250382087847 0.060315147046507755 -0.18057433210347815 -0.31195639088749888 0.21362813267518177 0.18524149984121324 -0.054694850199041849 -0.21148979302357743 0.12823618898789088
leaf_weight=239 35 2542 20 31 34 168 27 88 54 25 22 20 262 27 27
leaf_count=239 35 2542 20 31 34 168 27 88 54 25 22 20 262 27 27
internal_value=-2.20247e-10 0.00941893 0.211236 0.0419324 -0.0465843 0.00348718 0.0103608 0.195749 0.00214835 -0.083185 -0.0530835 -0.033157 -0.0410272 -0.0693435 -0.0102624
internal_weight=3621 3012 86 51 609 2926 2711 115 2596 215 190 575 555 289 266
internal_count=3621 3012 86 51 609 2926 2711 115 2596 215 190 575 555 289 266
is_linear=0
shrinkage=0.1


Tree=32
num_leaves=12
num_cat=0
split_feature=1 4 3 14 7 7 0 2 1 4 0
split_gain=152.491 171.556 287.219 460.366 383.106 543.45 197.396 160.748 158.768 245.337 108.72
threshold=30.350000000000005 7.3928571428571432 0.15000000000000005 4.5000000000000009 23.803571428571434 24.110714285714288 21.850000000000005 1.9500000000000002 6.0500000000000007 3.1285714285714286 9.3500000000000032
decision_type=2 2 2 2 2 2 2 2 2 2 2
left_child=1 6 3 -3 7 -6 8 -4 9 -1 -10
right_child=-2 2 4 -5 5 -7 -8 -9 10 -11 -12
leaf_value=-0.01295633457804048 -0.25666980451863747 -0.069251286357641217 -0.43483380760465357 0.48623895331009015 0.56383065297490076 0.0334198551012891 -0.30433625177564949 -0.076503144901606354 -0.03568458944345259 0.054354416619880011 -0.16307143508234906
leaf_weight=2049 23 25 21 37 21 241 22 31 331 736 84
leaf_count=2049 23 25 21 37 21 241 22 31 331 736 84
internal_value=-3.20381e-10 0.00164075 0.0655614 0.262251 0.0267246 0.0759337 -0.00581865 -0.221214 -0.00376634 0.00483207 -0.0614689
internal_weight=3621 3598 376 62 314 262 3222 52 3200 2785 415
internal_count=3621 3598 376 62 314 262 3222 52 3200 2785 415
is_linear=0
shrinkage=0.1


Tree=33
num_leaves=10
num_cat=0
split_feature=0 0 2 4 12 0 11 1 9
split_gain=134.563 195.39 148.434 257.859 670.403 158.61 156.792 141.719 78.8227
threshold=29.150000000000002 23.300000000000001 11.550000000000002 6.7928571428571436 10.365000000000002 12.850000000000003 15.321428571428573 7.6500000000000012 93.642857142857153
decision_type=2 2 2 2 2 2 2 2 2
left_child=1 2 3 7 -5 8 -7 -1 -4
right_child=-2 -3 5 4 -6 6 -8 -9 -10
leaf_value=0.0042916281280530122 -0.21837229167909494 0.25584007855504753 -0.0068927013917212806 0.64150932913734804 0.05369165508624385 -0.053768330514431001 -0.44973853528499608 -0.071569710391199012 -0.12729507016420769
leaf_weight=2697 28 30 205 21 255 20 20 271 74
leaf_count=2697 28 30 205 21 255 20 20 271 74
internal_value=-1.65586e-10 0.00170176 -0.000438052 0.00596245 0.0984169 -0.0655266 -0.251753 -0.00263506 -0.0388274
internal_weight=3621 3593 3563 3244 276 319 40 2968 279
internal_count=3621 3593 3563 3244 276 319 40 2968 279
is_linear=0
shrinkage=0.1


Tree=34
num_leaves=19
num_cat=0
split_feature=0 3 5 1 13 0 0 1 1 4 11 10 13 4 1 1 3 11
split_gain=132.906 207.378 278.191 412.756 596.26 143.972 298.731 137.775 120.415 208.118 51.313 70.8041 136.688 62.9044 249.48 39.1409 31.8744 13.9648
threshold=1.0000000180025095e-35 1.0000000180025095e-35 27.899999999999995 15.750000000000002 13.846428571428573 26.250000000000004 22.150000000000002 17.850000000000005 1.9500000000000002 1.3857142857142843 23.692857142857147 24.850000000000005 16.916428571428575 4.4928571428571447 1.7500000000000002 10.65 0.45000000000000007 21.321428571428577
decision_type=2 2 2 2 2 2 2 2 2 2 2 2 2 2 2 2 2 2
left_child=10 2 8 4 -4 6 7 -3 9 -2 11 13 -13 16 -15 -10 -1 -14
right_child=1 5 3 -5 -6 -7 -8 -9 15 -11 -12 12 17 14 -16 -17 -18 -19
leaf_value=-0.0088318193333163965 -0.022338085441498567 0.0026762710928227395 0.64134724808150334 -0.17306682797769707 0.13987657435811482 -0.24127551066875458 0.37515677976466361 -0.13760231558132816 -0.035902701238436356 0.1528841220145303 -0.1696273306141729 0.24580148168165109 -0.074345779631819042 -0.18548612897755223 0.1078564968566562 -0.18085702197707221 -0.043712536254605847 0.033530848402352563
leaf_weight=1033 151 1300 29 30 130 25 21 74 98 123 23 29 28 89 43 23 351 21
leaf_count=1033 151 1300 29 30 130 25 21 74 98 123 23 29 28 89 43 23 351 21
internal_value=6.00418e-11 0.0172093 0.0673708 0.167148 0.23134 -0.00342043 0.000842203 -0.00487876 0.0196292 0.0563201 -0.0213281 -0.0191883 0.073727 -0.0239689 -0.0899275 -0.063456 -0.017678 -0.0281129
internal_weight=3621 2004 584 189 159 1420 1395 1374 395 274 1617 1594 78 1516 132 121 1384 49
internal_count=3621 2004 584 189 159 1420 1395 1374 395 274 1617 1594 78 1516 132 121 1384 49
is_linear=0
shrinkage=0.1


Tree=35
num_leaves=16
num_cat=0
split_feature=6 13 6 9 2 5 12 0 0 1 7 0 4 2 7
split_gain=121.371 236.763 268.879 174.861 162.126 426.724 528.087 269.585 148.1 118.126 156.357 56.1645 46.4568 65.6012 30.4932
threshold=22.125000000000004 13.750000000000002 23.475000000000005 93.642857142857153 5.7500000000000009 52.550000000000011 21.685000000000006 13.750000000000002 22.850000000000005 20.750000000000004 24.296428571428578 14.550000000000002 3.5571428571428565 1.0000000180025095e-35 24.446428571428577
decision_type=2 2 2 2 2 2 2 2 2 2 2 2 2 2 2
left_child=8 2 -2 -4 5 7 -7 -3 11 10 -6 12 14 -14 -1
right_child=1 4 3 -5 9 6 -8 -9 -10 -11 -12 -13 13 -15 -16
leaf_value=-0.02796686220408752 0.38521214121154379 0.011170328712858476 0.19311099142900534 -0.17901426265421122 0.1066958014062553 0.33853252295936859 -0.09575148082914807 -0.17921926377510483 -0.28963182273766269 0.16648716759681703 -0.074568352234222438 0.11886547217921664 -0.20291261439891281 -0.043945868029633822 0.095531346010310325
leaf_weight=417 35 2179 28 23 53 84 42 77 23 25 466 24 37 87 21
leaf_count=417 35 2179 28 23 53 84 42 77 23 25 466 24 37 87 21
internal_value=2.09384e-10 0.00823235 0.17177 0.0252898 0.00342571 0.0146748 0.193771 0.0046721 -0.0407157 -0.0458305 -0.0560578 -0.0309459 -0.0373436 -0.0913795 -0.0220457
internal_weight=3621 3012 86 51 2926 2382 126 2256 609 544 519 586 562 124 438
internal_count=3621 3012 86 51 2926 2382 126 2256 609 544 519 586 562 124 438
is_linear=0
shrinkage=0.1


Tree=36
num_leaves=11
num_cat=0
split_feature=1 4 2 5 9 0 0 11 0 2
split_gain=122.751 178.811 133.817 268.428 569.505 137.197 135.846 64.7517 56.1717 63.3575
threshold=22.350000000000005 13.621428571428574 12.850000000000003 34.450000000000003 81.214285714285737 12.850000000000003 12.850000000000003 15.164285714285718 13.050000000000002 3.9500000000000006
decision_type=2 2 2 2 2 2 2 2 2 2
left_child=1 2 3 6 -5 7 -1 -4 9 -2
right_child=8 -3 5 4 -6 -7 -8 -9 -10 -11
leaf_value=-0.0041167355770504897 -0.18599611471096678 0.30071217983961107 -0.12194406385214565 0.55336973200673645 0.046378683242391777 -0.2930634617805481 -0.14833171429918773 -0.0059164045751755332 -0.26905862171025502 0.046266043034341675
leaf_weight=2600 24 20 73 23 604 25 67 141 21 23
leaf_count=2600 24 20 73 23 604 25 67 141 21 23
internal_value=-8.75542e-11 0.00254715 0.000859263 0.00610155 0.0649764 -0.0713921 -0.00773968 -0.0454959 -0.133089 -0.0723359
internal_weight=3621 3553 3533 3294 627 239 2667 214 68 47
internal_count=3621 3553 3533 3294 627 239 2667 214 68 47
is_linear=0
shrinkage=0.1


Tree=37
num_leaves=20
num_cat=0
split_feature=6 15 12 5 10 3 0 6 0 0 0 6 9 0 7 4 4 9 15
split_gain=114.314 236.213 195.218 394.476 718.581 397.406 179.592 155.135 143.873 169.834 133.62 582.068 135.391 223.159 173.334 107.549 105.582 332.814 69.7194
threshold=24.475000000000005 260.50000000000006 18.995000000000001 29.799999999999994 23.450000000000003 1.0000000180025095e-35 18.950000000000003 25.075000000000006 12.750000000000002 2.1500000000000008 21.050000000000004 22.275000000000002 93.642857142857153 2.3500000000000001 24.803571428571434 7.5928571428571443 1.014285714285714 77.357142857142875 327.50000000000006
decision_type=2 2 2 2 2 2 2 2 2 2 2 2 2 2 2 2 2 2 2
left_child=1 10 3 16 5 -5 -3 18 9 -9 12 -12 13 -1 -14 -10 -2 -18 -4
right_child=2 6 7 4 -6 -7 -8 8 15 -11 11 -13 14 -15 -16 -17 17 -19 -20
leaf_value=-0.018923565582532456 -0.026973103585105518 -0.089525807294157447 -0.14425953187953647 0.43828045293208096 0.72653578945568631 0.047282841228966761 -0.39238238713323059 -0.012377692249875123 -0.27811285555362703 0.068582652704874777 -0.1958388207569009 0.55795759454369553 -0.054798154851794248 0.1092167530671595 -0.35351124801065614 0.010988272049210289 0.28352107425721795 -0.011360974660592861 0.059150241278111942
leaf_weight=872 313 178 107 31 21 161 22 938 31 358 21 20 125 161 23 22 52 145 20
leaf_count=872 313 178 107 31 21 161 22 938 31 358 21 20 125 161 23 22 52 145 20
internal_value=-1.87538e-10 -0.0220953 0.0142881 0.0568598 0.171157 0.110413 -0.12284 -0.00656518 0.00338218 0.00998635 -0.00560675 0.171867 -0.011768 0.00104797 -0.10122 -0.158109 0.00912387 0.0664759 -0.112226
internal_weight=3621 1422 2199 723 213 192 200 1476 1349 1296 1222 41 1181 1033 148 53 510 197 127
internal_count=3621 1422 2199 723 213 192 200 1476 1349 1296 1222 41 1181 1033 148 53 510 197 127
is_linear=0
shrinkage=0.1


Tree=38
num_leaves=9
num_cat=0
split_feature=0 0 9 0 4 10 3 0
split_gain=97.7764 149.353 126.205 183.35 315.181 141.127 136.696 123.062
threshold=29.150000000000002 23.300000000000001 94.500000000000014 2.1500000000000008 9.7357142857142875 18.950000000000003 7.5500000000000007 1.8500000000000003
decision_type=2 2 2 2 2 2 2 2
left_child=1 2 3 7 -5 6 -4 -1
right_child=-2 -3 5 4 -6 -7 -8 -9
leaf_value=-0.0057101241043254151 -0.18614543357065746 0.22364108661810556 -0.092003798641406814 0.030046625806085966 0.29635005321036628 -0.25348403364419941 0.069958659070424548 -0.15837777147104068
leaf_weight=2375 28 30 157 817 47 35 78 54
leaf_count=2375 28 30 157 817 47 35 78 54
internal_value=-8.86329e-11 0.00145062 -0.000420197 0.0049689 0.044533 -0.0661473 -0.038246 -0.00910414
internal_weight=3621 3593 3563 3293 864 270 235 2429
internal_count=3621 3593 3563 3293 864 270 235 2429
is_linear=0
shrinkage=0.1


Tree=39
num_leaves=11
num_cat=0
split_feature=1 4 2 4 4 0 0 6 0 2
split_gain=99.7469 135.99 123.527 326.297 189.777 83.5578 107.445 94.4706 47.7396 49.7043
threshold=22.350000000000005 13.621428571428574 5.7500000000000009 10.435714285714287 3.1285714285714286 12.950000000000001 17.050000000000004 27.225000000000005 13.050000000000002 4.0500000000000007
decision_type=2 2 2 2 2 2 2 2 2 2
left_child=1 2 3 4 -1 7 -7 -4 9 -2
right_child=8 -3 5 -5 -6 6 -8 -9 -10 -11
leaf_value=-0.010132924590901045 -0.16043352872133254 0.26231955282390118 -0.012304407715192159 0.3621714091071716 0.04635879647417418 -0.27740936465561389 -0.022109925735960989 -0.14228961654598751 -0.24532165357044766 0.045660048723220825
leaf_weight=2042 25 20 497 26 839 32 34 63 21 22
leaf_count=2042 25 20 497 26 839 32 34 63 21 22
internal_value=1.18344e-10 0.00229611 0.000824138 0.00950122 0.0063185 -0.0394702 -0.145891 -0.0269277 -0.119972 -0.0639642
internal_weight=3621 3553 3533 2907 2881 626 66 560 68 47
internal_count=3621 3553 3533 2907 2881 626 66 560 68 47
is_linear=0
shrinkage=0.1


Tree=40
num_leaves=20
num_cat=0
split_feature=3 4 12 6 13 10 3 10 4 11 11 4 7 6 12 7 2 12 0
split_gain=97.587 199.547 258.001 646.434 359.225 265.816 148.758 147.539 121.827 179.013 112.932 351.354 126.604 305.466 232.575 83.7096 78.4543 118.16 46.4727
threshold=2.5500000000000003 1.8999999999999997 22.095000000000002 25.225000000000005 16.437857142857144 24.550000000000004 4.2500000000000009 11.850000000000003 5.5357142857142856 17.721428571428579 12.621428571428574 4.3928571428571441 21.76428571428572 23.325000000000006 17.585000000000004 26.686607142857145 0.15000000000000005 25.075000000000003 4.1500000000000012
decision_type=2 2 2 2 2 2 2 2 2 2 2 2 2 2 2 2 2 2 2
left_child=1 18 3 5 -5 -3 7 -2 15 -10 11 -8 13 -12 -14 -4 -9 -18 -1
right_child=6 2 8 4 -6 -7 10 16 9 -11 12 -13 14 -15 -16 -17 17 -19 -20
leaf_value=-0.01192668044949031 -0.30926014165083571 -0.015227534297266202 -0.050266422543242796 0.4881504419286336 0.14765040325690751 0.26624999841054281 -0.1099068736125316 -0.183601897400479 -0.053743605482489326 -0.38835159472766378 -0.014139156245316068 0.40586918735504152 -0.12697543287161558 0.42899853260744192 0.0038627907295622644 0.064190261510490371 0.018786508243794395 -0.24770013340748848 -0.12401806836408612
leaf_weight=1388 30 493 138 35 270 36 28 43 67 21 60 25 186 21 504 119 99 20 38
leaf_count=1388 30 493 138 35 270 36 28 43 67 21 60 25 186 21 504 119 99 20 38
internal_value=-1.57934e-10 0.0102524 0.0406907 0.0707778 0.186724 0.00392784 -0.0262869 -0.105556 -0.0320415 -0.133593 -0.00781629 0.133384 -0.0175227 0.100748 -0.0314066 0.00273103 -0.0678335 -0.0260012 -0.0149137
internal_weight=3621 2605 1179 834 305 529 1016 192 345 88 824 53 771 81 690 257 162 119 1426
internal_count=3621 2605 1179 834 305 529 1016 192 345 88 824 53 771 81 690 257 162 119 1426
is_linear=0
shrinkage=0.1


Tree=41
num_leaves=16
num_cat=0
split_feature=9 11 9 2 5 6 12 0 0 3 1 13 4 15 1
split_gain=93.7474 361.829 163.737 152.717 133.004 335.39 363.785 323.389 188.567 103.197 109.734 90.9476 87.5597 75.5018 62.7496
threshold=96.642857142857153 14.40714285714286 94.500000000000014 1.0500000000000003 31.949999999999999 27.625000000000004 21.685000000000006 0.45000000000000007 7.9500000000000011 1.6500000000000001 14.850000000000003 14.326428571428574 2.092857142857143 116.50000000000001 1.2500000000000002
decision_type=2 2 2 2 2 2 2 2 2 2 2 2 2 2 2
left_child=2 -2 4 11 8 6 -6 -7 12 13 -11 -4 -1 -5 -10
right_child=1 -3 3 9 5 7 -8 -9 14 10 -12 -13 -14 -15 -16
leaf_value=-0.012713625189134423 0.45637151390314107 -0.13132113779641011 -0.051899338070125811 -0.31976772281858656 0.072552106145597192 -0.020203309357166292 -0.082224308889810291 0.49892145166794455 -0.051424416599722661 -0.030959102818579005 -0.27040923341460854 0.24606402754783629 0.028262763334259339 -0.08782032069790624 -0.17993863324324291
leaf_weight=1686 20 22 21 36 476 20 223 30 77 114 23 20 755 23 75
leaf_count=1686 20 22 21 36 476 20 223 30 77 114 23 20 755 23 75
internal_value=-2.94157e-11 0.148533 -0.00174305 -0.0820627 0.00395287 0.0410712 0.0231742 0.291272 -0.00676894 -0.118777 -0.0711588 0.0934486 -3.965e-05 -0.229348 -0.114836
internal_weight=3621 42 3579 237 3342 749 699 50 2593 196 137 41 2441 59 152
internal_count=3621 42 3579 237 3342 749 699 50 2593 196 137 41 2441 59 152
is_linear=0
shrinkage=0.1


Tree=42
num_leaves=15
num_cat=0
split_feature=8 6 7 9 0 0 4 4 3 0 11 3 4 12
split_gain=88.846 213.255 229.498 184.781 110.224 162.739 197.26 143.819 305.703 116.493 99.7253 75.2348 83.5189 38.9717
threshold=98.500000000000014 25.175000000000004 21.43928571428572 96.500000000000014 12.850000000000003 2.1500000000000008 6.7928571428571436 9.4214285714285726 2.8500000000000001 1.8500000000000003 17.292857142857148 0.8500000000000002 5.7857142857142865 12.975000000000003
decision_type=2 2 2 2 2 2 2 2 2 2 2 2 2 2
left_child=3 2 -2 4 5 9 -7 10 -9 -1 -6 13 -13 -4
right_child=1 -3 11 -5 7 6 -8 8 -10 -11 -12 12 -14 -15
leaf_value=-0.0028368002339420949 0.16645079077764724 0.23333782999776306 0.0011641598410076566 0.27427390539646151 -0.054536448021419354 0.020164047374863672 0.14544369898736478 0.2903034788370133 -0.16501622725406598 -0.14390136486540236 -0.21677376602272519 -0.1184460314611594 -0.34297284685276652 -0.17397064600760739
leaf_weight=2408 24 20 27 25 100 586 160 30 29 60 61 30 37 24
leaf_count=2408 24 20 27 25 100 586 160 30 29 60 61 30 37 24
internal_value=-7.25562e-11 -0.0723806 -0.11544 0.0033899 0.00141783 0.00610517 0.0470337 -0.06706 0.0665023 -0.00626625 -0.116005 -0.172773 -0.242438 -0.0812522
internal_weight=3621 162 142 3459 3434 3214 746 220 59 2468 161 118 67 51
internal_count=3621 162 142 3459 3434 3214 746 220 59 2468 161 118 67 51
is_linear=0
shrinkage=0.1


Tree=43
num_leaves=10
num_cat=0
split_feature=1 4 2 4 3 0 0 14 15
split_gain=87.4553 95.646 125.927 156.64 372.88 156.444 115.072 97.9807 65.1633
threshold=30.500000000000004 13.621428571428574 12.850000000000003 7.5071428571428589 2.2500000000000004 21.850000000000005 8.8500000000000032 5.5000000000000009 36.500000000000007
decision_type=2 2 2 2 2 2 2 2 2
left_child=1 2 3 5 -5 -1 8 -8 -4
right_child=-2 -3 6 4 -6 -7 7 -9 -10
leaf_value=0.00096764727945470609 -0.19877344485033643 0.19613212543725966 -0.17436708222542491 0.23667941891049082 -0.019632576062535566 -0.26081460236531234 -0.077215536783138916 -0.34829766427477205 -0.0097289285269867194
leaf_weight=3063 22 25 28 95 141 23 30 24 170
leaf_count=3063 22 25 28 95 141 23 30 24 170
internal_value=1.34074e-10 0.00121506 -0.000148373 0.00502153 0.0835439 -0.000983419 -0.0683008 -0.197696 -0.0330111
internal_weight=3621 3599 3574 3322 236 3086 252 54 198
internal_count=3621 3599 3574 3322 236 3086 252 54 198
is_linear=0
shrinkage=0.1


Tree=44
num_leaves=19
num_cat=0
split_feature=3 11 3 4 9 12 11 10 11 10 2 4 3 2 12 4 0 2
split_gain=76.6602 173.315 123.94 118.233 210.804 434.285 273.555 117.042 84.706 306.626 108.85 151.969 132.136 61.4882 89.6393 40.3199 37.091 17.6582
threshold=2.5500000000000003 11.921428571428573 4.2500000000000009 1.8999999999999997 81.214285714285737 17.265000000000004 19.078571428571433 11.65 12.621428571428574 12.950000000000001 2.0500000000000003 4.3928571428571441 21.750000000000004 0.15000000000000005 25.075000000000003 3.4357142857142846 4.1500000000000012 1.0000000180025095e-35
decision_type=2 2 2 2 2 2 2 2 2 2 2 2 2 2 2 2 2 2
left_child=1 -1 7 16 5 -5 -6 -2 9 -4 11 -10 -12 15 -15 -9 17 -3
right_child=2 3 8 4 6 -7 -8 13 10 -11 12 -13 -14 14 -16 -17 -18 -19
leaf_value=0.22397421443381826 -0.28461105823516847 -0.0044810580883398862 -0.071402506171866803 0.30363484709523619 0.028874986890084799 0.010402395612692773 -0.13826701046043152 -0.071500638584521686 -0.019914172625206287 0.42481335949269128 -0.041372897899233894 0.11052675852625389 -0.30624823555350306 0.01255157998474897 -0.21471329430739083 -0.26521985942409154 -0.11092525233367556 -0.031252772788450657
leaf_weight=37 28 1049 33 80 831 137 111 22 301 20 323 127 20 100 21 21 38 322
leaf_count=37 28 1049 33 80 831 137 111 22 301 20 323 127 20 100 21 21 38 322
internal_value=-8.25991e-11 0.00908685 -0.0232985 0.00599074 0.0296492 0.118507 0.00917991 -0.095654 -0.00643895 0.115849 -0.0148452 0.0187914 -0.0568175 -0.063393 -0.0268911 -0.166108 -0.01347 -0.0107688
internal_weight=3621 2605 1016 2568 1159 217 942 192 824 53 771 428 343 164 121 43 1409 1371
internal_count=3621 2605 1016 2568 1159 217 942 192 824 53 771 428 343 164 121 43 1409 1371
is_linear=0
shrinkage=0.1


Tree=45
num_leaves=9
num_cat=0
split_feature=0 4 2 4 12 0 0 6
split_gain=81.0062 102.806 113.742 126.753 324.352 120.26 106.006 53.8053
threshold=29.150000000000002 13.621428571428574 12.850000000000003 6.9928571428571447 22.395000000000003 15.350000000000003 12.850000000000003 27.075000000000006
decision_type=2 2 2 2 2 2 2 2
left_child=1 2 3 5 -5 -1 7 -4
right_child=-2 -3 6 4 -6 -7 -8 -9
leaf_value=0.0019986833313199353 -0.16943165772910496 0.20340064236521724 -0.024640800354918883 0.12877372026913494 -0.12628898927082235 -0.12969705090451408 -0.24812507703900338 -0.18020101875066757
leaf_weight=2964 28 25 201 214 65 71 28 25
leaf_count=2964 28 25 201 214 65 71 28 25
internal_value=-6.61913e-11 0.00132037 -9.55521e-05 0.00484743 0.0693505 -0.00108217 -0.0645879 -0.0418488
internal_weight=3621 3593 3568 3314 279 3035 254 226
internal_count=3621 3593 3568 3314 279 3035 254 226
is_linear=0
shrinkage=0.1


Tree=46
num_leaves=20
num_cat=0
split_feature=9 12 8 5 7 0 8 16 9 8 0 7 6 4 12 4 5 4 9
split_gain=78.099 220.657 167.973 162.566 363.895 347.634 310.69 307.015 215.511 179.81 155.372 150.962 134.682 74.1195 309.376 51.2913 43.2991 45.5371 35.2644
threshold=93.214285714285737 7.3400000000000007 98.500000000000014 31.949999999999999 26.582142857142863 11.950000000000001 81.500000000000014 1.5000000000000002 81.785714285714292 71.500000000000014 7.9500000000000011 26.425000000000004 25.725000000000005 2.092857142857143 20.165000000000003 6.8857142857142861 28.149999999999999 2.6285714285714286 90.214285714285737
decision_type=2 2 2 2 2 2 2 2 2 2 2 2 2 2 2 2 2 2 2
left_child=3 -2 11 10 6 7 9 -6 -8 -5 13 12 -3 18 -15 -4 17 -12 -1
right_child=1 2 15 4 5 -7 8 -9 -10 -11 16 -13 -14 14 -16 -17 -18 -19 -20
leaf_value=-0.0067556448329849535 0.29036321982741359 -0.045285792956705109 -0.12515495717525482 0.058922088642915094 0.039993184230600796 -0.057066897721961142 0.3274781302190744 0.47238652110099794 0.029811610053855415 -0.29422527765450268 -0.16119451109497321 -0.221895401622798 0.083246505116993511 0.11442721729141923 -0.023303413537925938 -0.31909729707241064 -0.21496705412864686 -0.030503567333703175 -0.0717904057904062
leaf_weight=1587 20 307 30 21 24 32 26 52 377 46 42 37 111 262 432 25 29 73 88
leaf_count=1587 20 307 30 21 24 32 26 52 377 46 42 37 111 262 432 25 29 73 88
internal_value=-2.61481e-10 -0.0354666 -0.0482443 0.00608131 0.0539 0.219424 0.0158647 0.335841 0.0490159 -0.183537 -0.00491718 -0.0282912 -0.011154 0.00121321 0.0286929 -0.213311 -0.105771 -0.0782342 -0.0101724
internal_weight=3621 530 510 3091 578 108 470 76 403 67 2513 455 418 2369 694 55 144 115 1675
internal_count=3621 530 510 3091 578 108 470 76 403 67 2513 455 418 2369 694 55 144 115 1675
is_linear=0
shrinkage=0.1


Tree=47
num_leaves=11
num_cat=0
split_feature=1 9 9 5 3 5 2 2 8 15
split_gain=81.4405 75.4585 139.318 154.138 407.692 187.656 129.214 108.011 40.7748 18.1547
threshold=22.350000000000005 96.642857142857153 94.500000000000014 61.550000000000004 2.2500000000000004 56.350000000000001 1.0500000000000003 8.5500000000000025 94.500000000000014 160.50000000000003
decision_type=2 2 2 2 2 2 2 2 2 2
left_child=1 2 3 5 -5 -1 -4 -8 -2 -10
right_child=8 -3 6 4 -6 -7 7 -9 9 -11
leaf_value=0.0047098110114450753 0.0074409720975728262 0.14611745369103221 0.090982679774363848 0.31676378485831352 -0.057244859395488616 -0.19452828567785521 -0.17245617063195856 -0.019475823254147664 -0.10667519845344403 -0.23237834706902505
leaf_weight=3123 21 36 39 55 62 48 111 79 27 20
leaf_count=3123 21 36 39 55 62 48 111 79 27 20
internal_value=-1.59705e-11 0.00207474 0.000600315 0.00585286 0.118571 0.00169391 -0.0748162 -0.108849 -0.108405 -0.160166
internal_weight=3621 3553 3517 3288 117 3171 229 190 68 47
internal_count=3621 3553 3517 3288 117 3171 229 190 68 47
is_linear=0
shrinkage=0.1


Tree=48
num_leaves=18
num_cat=0
split_feature=6 4 13 7 3 13 9 5 9 5 15 12 0 0 12 0 10
split_gain=73.9801 114.316 109.13 188.488 131.111 134.814 115.007 116.909 279.016 116.221 103.123 182.597 126.562 27.0889 52.6314 12.5138 9.83159
threshold=20.675000000000004 7.5071428571428589 13.533571428571431 23.860714285714288 2.7500000000000004 12.214285714285717 94.642857142857153 61.550000000000004 91.071428571428584 56.350000000000001 108.50000000000001 18.820000000000004 2.3500000000000001 3.6500000000000008 6.8150000000000004 1.0500000000000003 23.350000000000005
decision_type=2 2 2 2 2 2 2 2 2 2 2 2 2 2 2 2 2
left_child=1 13 3 4 5 -2 7 9 -9 -4 11 -8 -12 15 -15 16 -1
right_child=2 -3 6 -5 -6 -7 10 8 -10 -11 12 -13 -14 14 -16 -17 -18
leaf_value=-0.017595388124195432 0.31157148584723471 -0.26211453804915602 0.005213561864688316 0.33362100378230769 -0.19378367975354194 -0.017456523983767538 0.099002610775642097 0.3559528656303883 0.01408307919912833 -0.14713837492699719 0.033745973184704785 -0.14382148745159309 -0.26059163672228658 -0.0033690979305122585 -0.20752619440140935 0.055748153613372292 -0.090118181556463242
leaf_weight=286 20 22 2750 27 20 33 64 32 94 51 21 60 48 28 23 22 20
leaf_count=286 20 22 2750 27 20 33 64 32 94 51 21 60 48 28 23 22 20
internal_value=-1.3939e-10 -0.0405041 0.00504414 0.107875 0.0243793 0.106705 0.0017483 0.00667835 0.100907 0.00243957 -0.07302 -0.0184929 -0.171011 -0.0276402 -0.0954399 -0.0170981 -0.0223354
internal_weight=3621 401 3220 100 73 53 3120 2927 126 2801 193 124 69 379 51 328 306
internal_count=3621 401 3220 100 73 53 3120 2927 126 2801 193 124 69 379 51 328 306
is_linear=0
shrinkage=0.1


Tree=49
num_leaves=8
num_cat=0
split_feature=0 0 0 2 11 0 9
split_gain=73.9906 88.7877 83.84 169.293 179.312 84.8209 85.8175
threshold=29.150000000000002 23.300000000000001 15.350000000000003 1.0000000180025095e-35 17.507142857142863 14.750000000000002 94.642857142857153
decision_type=2 2 2 2 2 2 2
left_child=1 2 5 -4 -5 6 -1
right_child=-2 -3 3 4 -6 -7 -8
leaf_value=0.0054531638115876196 -0.16192857463444985 0.17257672945658367 0.18097763097889366 -0.055500041407237688 -0.35261837519981243 0.17934934783864906 -0.060835495126845607
leaf_weight=3198 28 30 21 82 27 27 208
leaf_count=3198 28 30 21 82 27 27 208
internal_value=-5.70511e-11 0.0012619 -0.000180551 -0.079009 -0.129098 0.00280451 0.001405
internal_weight=3621 3593 3563 130 109 3433 3406
internal_count=3621 3593 3563 130 109 3433 3406
is_linear=0
shrinkage=0.1


Tree=50
num_leaves=19
num_cat=0
split_feature=15 10 0 0 1 4 9 5 7 10 9 4 10 14 5 16 15 13
split_gain=73.4343 219.412 225.323 203.558 196.39 398.135 323.199 188.27 372.229 167.31 162.194 354.393 127.475 114.568 105.455 81.2699 75.798 45.9114
threshold=168.50000000000003 21.350000000000005 20.400000000000002 18.850000000000005 4.8500000000000005 3.3214285714285698 91.357142857142875 61.550000000000004 25.525000000000002 16.250000000000004 88.071428571428584 3.6285714285714286 8.9500000000000011 2.5000000000000004 56.350000000000001 3.5000000000000004 348.50000000000006 15.80571428571429
decision_type=2 2 2 2 2 2 2 2 2 2 2 2 2 2 2 2 2 2
left_child=1 2 10 7 5 17 -7 14 9 -9 11 -1 -12 -4 16 -5 -2 -3
right_child=3 4 13 15 -6 6 -8 8 -10 -11 12 -13 -14 -15 -16 -17 -18 -19
leaf_value=0.010647480973061041 -0.016995607988710318 0.14969176951618421 0.38171281827532733 -0.1029480160413576 -0.088865016094808069 0.73512475587427617 0.1734273393948873 -0.17176528067256397 0.51648168563842778 0.17481831454982361 0.20880359018390832 0.24794784765821737 -0.034951782995334295 0.062512867203490294 -0.20365471007495095 -0.36318812377839571 0.064663420660329651 -0.039451380796504745
leaf_weight=554 1665 21 23 28 28 20 21 26 20 30 22 71 865 22 29 21 122 33
leaf_count=554 1665 21 23 28 28 20 21 26 20 30 22 71 865 22 29 21 122 33
internal_value=2.35525e-10 0.0153071 0.00514969 -0.0132488 0.143885 0.212485 0.447426 -0.00803724 0.146162 0.0139045 -0.0014131 0.0376048 -0.028906 0.22566 -0.0144905 -0.214479 -0.0114207 0.0341043
internal_weight=3621 1680 1557 1941 123 95 41 1892 76 56 1512 625 887 45 1816 49 1787 54
internal_count=3621 1680 1557 1941 123 95 41 1892 76 56 1512 625 887 45 1816 49 1787 54
is_linear=0
shrinkage=0.1


Tree=51
num_leaves=10
num_cat=0
split_feature=1 4 2 4 15 6 0 15 0
split_gain=71.3095 78.9994 88.3634 155.107 129.933 87.2168 63.3967 53.7154 41.5739
threshold=26.000000000000004 13.621428571428574 5.7500000000000009 10.435714285714287 6.5000000000000009 27.225000000000005 12.950000000000001 294.50000000000006 1.5500000000000003
decision_type=2 2 2 2 2 2 2 2 2
left_child=1 2 3 4 -1 6 -4 -7 -2
right_child=8 -3 5 -5 -6 7 -8 -9 -10
leaf_value=-0.17814936908942305 -0.022344149081479938 0.19048660844564438 -0.0087654408126479327 0.24634259100313538 0.007992002804583849 -0.070705913539784837 -0.11161687210449278 -0.25848069739341739 -0.21500840596854687
leaf_weight=38 21 22 505 27 2852 39 68 25 24
leaf_count=38 21 22 505 27 2852 39 68 25 24
internal_value=-1.47521e-10 0.00157422 0.000404818 0.00777332 0.00554447 -0.0333376 -0.0209712 -0.144055 -0.125098
internal_weight=3621 3576 3554 2917 2890 637 573 64 45
internal_count=3621 3576 3554 2917 2890 637 573 64 45
is_linear=0
shrinkage=0.1


Tree=52
num_leaves=20
num_cat=0
split_feature=6 13 4 9 12 10 2 4 15 16 4 1 4 4 15 4 4 6 16
split_gain=69.0228 124.692 224.969 416.841 644.273 246.184 90.5334 203.403 119.509 102.013 98.8596 86.5001 72.9183 74.2436 179.876 73.2038 31.8749 9.22623 3.79212
threshold=22.775000000000002 17.076428571428576 1.1714285714285702 80.928571428571445 16.405000000000005 23.450000000000003 6.0500000000000007 10.435714285714287 6.5000000000000009 4.5000000000000009 7.1928571428571431 17.450000000000003 9.0928571428571434 6.1928571428571439 221.50000000000003 5.5357142857142856 4.9357142857142868 27.175000000000004 1.5000000000000002
decision_type=2 2 2 2 2 2 2 2 2 2 2 2 2 2 2 2 2 2 2
left_child=12 2 17 4 -4 -5 7 8 -3 11 -11 -8 13 15 -15 16 -1 18 -2
right_child=1 6 3 5 -6 -7 9 -9 -10 10 -12 -13 -14 14 -16 -17 -18 -19 -20
leaf_value=-0.026922478409913887 -0.0028374485969026057 -0.16889973800629376 0.70417675000649915 0.018548993716278106 0.057968815664450328 0.35433102962560953 -0.032448816658132644 0.32269249930977822 0.0059117426508580725 -0.072120643600269596 -0.28728199025680284 0.16180383014678956 -0.16180453386745955 0.23766694549809803 -0.14239333510398863 -0.20401703825463421 0.088243755400180812 0.050381347397342326 -0.027593628954697365
leaf_weight=621 90 40 27 242 36 24 276 20 1753 81 29 25 38 33 20 23 25 20 198
leaf_count=621 90 40 27 242 36 24 276 20 1753 81 29 25 38 33 20 23 25 20 198
internal_value=-5.23379e-11 0.0071159 0.0461243 0.103624 0.334915 0.0488451 -0.00405692 0.00554945 0.00201188 -0.0464324 -0.128845 -0.0163149 -0.0267876 -0.0196815 0.094248 -0.0287073 -0.0224656 -0.0152964 -0.0198573
internal_weight=3621 2861 637 329 63 266 2224 1813 1793 411 110 301 760 722 53 669 646 308 288
internal_count=3621 2861 637 329 63 266 2224 1813 1793 411 110 301 760 722 53 669 646 308 288
is_linear=0
shrinkage=0.1


Tree=53
num_leaves=15
num_cat=0
split_feature=11 10 12 4 4 0 0 11 7 4 1 4 1 13
split_gain=66.1788 220.905 257.095 345.312 207.915 73.5597 140.099 71.8736 65.4718 105.237 83.809 241.934 45.155 3.63956
threshold=19.121428571428577 23.650000000000002 18.935000000000006 2.4857142857142862 7.9642857142857144 26.250000000000004 22.250000000000004 18.978571428571431 21.575000000000006 3.6785714285714284 1.9500000000000002 3.1285714285714286 2.6500000000000008 15.667857142857146
decision_type=2 2 2 2 2 2 2 2 2 2 2 2 2 2
left_child=1 5 3 -3 8 6 7 -1 9 13 11 -10 -12 -2
right_child=4 2 -4 -5 -6 -7 -8 -9 10 -11 12 -13 -14 -15
leaf_value=-3.1444885061890949e-05 -0.048460690267217749 -0.0085138793702104268 -0.049054043082629936 0.51667686009839664 -0.2512320116735422 -0.14869829677045346 0.26109921683867776 0.14419759261421858 -0.010608933810906052 -0.26471347254514693 -0.21127360974039353 0.19664364790687194 -0.048425243080904089 -0.0069832248024313762
leaf_weight=2695 56 21 34 31 39 32 21 35 422 25 21 65 90 34
leaf_count=2695 56 21 34 31 39 32 21 35 422 25 21 65 90 34
internal_value=-1.76346e-10 0.00692132 0.164772 0.304581 -0.0264059 0.00204345 0.00379689 0.00181765 -0.0141083 -0.0832093 -0.00081965 0.0170531 -0.0792344 -0.0327914
internal_weight=3621 2869 86 52 752 2783 2751 2730 713 115 598 487 111 90
internal_count=3621 2869 86 52 752 2783 2751 2730 713 115 598 487 111 90
is_linear=0
shrinkage=0.1


Tree=54
num_leaves=15
num_cat=0
split_feature=11 12 13 15 0 5 15 1 3 6 1 9 4 15
split_gain=62.4431 82.7786 85.7595 214.172 163.306 359.642 134.845 114.459 71.1293 62.8813 52.3128 49.5979 57.5107 20.4967
threshold=11.492857142857146 25.435000000000006 20.501428571428576 10.500000000000002 13.750000000000002 31.949999999999999 34.500000000000007 1.9500000000000002 0.45000000000000007 26.625000000000004 1.2500000000000002 92.785714285714292 6.5642857142857141 294.50000000000006
decision_type=2 2 2 2 2 2 2 2 2 2 2 2 2 2
left_child=-1 2 3 -2 5 -4 -5 -6 9 13 -11 12 -10 -3
right_child=1 8 4 6 7 -7 -8 -9 11 10 -12 -13 -14 -15
leaf_value=0.13292267450264522 0.29122743904590609 -0.0081399939063450579 0.0080195640551354308 -0.14573780946965728 0.067365902364253993 0.17341272998712734 -0.0048501373447076557 -0.2256254854053259 -0.076428506826428155 0.13029153992119244 -0.061069180555641658 0.066284164502507167 -0.24409878046616265 -0.14164348406737429
leaf_weight=35 24 23 618 70 20 167 2302 40 185 50 20 21 23 23
leaf_count=35 24 23 618 70 20 167 2302 40 185 50 20 21 23 23
internal_value=-1.18257e-10 -0.00129735 0.00365971 -0.0060005 0.0310513 0.0432051 -0.00900787 -0.127962 -0.0478649 0.0159325 0.075617 -0.0801816 -0.094969 -0.0748917
internal_weight=3621 3586 3241 2396 845 785 2372 60 345 116 70 229 208 46
internal_count=3621 3586 3241 2396 845 785 2372 60 345 116 70 229 208 46
is_linear=0
shrinkage=0.1


Tree=55
num_leaves=14
num_cat=0
split_feature=8 6 7 9 12 12 14 12 7 6 4 10 6
split_gain=63.2518 149.846 153.75 137.019 82.9827 134.905 225.558 80.3209 63.4778 61.0607 45.7982 35.0356 16.9318
threshold=98.500000000000014 25.175000000000004 21.43928571428572 96.500000000000014 8.3500000000000014 10.960000000000003 5.5000000000000009 12.115 24.646428571428576 23.425000000000004 6.1928571428571439 19.950000000000003 19.725000000000005
decision_type=2 2 2 2 2 2 2 2 2 2 2 2 2
left_child=3 2 -2 4 8 6 -6 -7 12 11 -11 -4 -1
right_child=1 -3 9 -5 5 7 -8 -9 -10 10 -12 -13 -14
leaf_value=-0.079394100488800759 0.1335611602757126 0.1951958927512169 -0.036341166957815106 0.23612274519726634 0.3806021670103073 -0.10555429844318756 0.021279996090793406 0.0027304022485022499 -0.23081532111763955 -0.13852639812976122 -0.33224513760727387 -0.19120469377154398 0.034279175270348787
leaf_weight=38 24 20 48 25 25 70 58 3198 25 26 23 21 20
leaf_count=38 24 20 48 25 25 70 58 3198 25 26 23 21 20
internal_value=-1.82503e-10 -0.0610717 -0.0971657 0.00286025 0.00116207 0.00360857 0.12951 0.000410963 -0.0976118 -0.144093 -0.229456 -0.0834735 -0.0401964
internal_weight=3621 162 142 3459 3434 3351 83 3268 83 118 49 69 58
internal_count=3621 162 142 3459 3434 3351 83 3268 83 118 49 69 58
is_linear=0
shrinkage=0.1


Tree=56
num_leaves=10
num_cat=0
split_feature=1 9 9 3 7 0 5 4 4
split_gain=55.3454 60.4799 59.961 126.603 254.244 104.245 152.281 76.8412 60.3395
threshold=30.500000000000004 97.214285714285737 94.500000000000014 7.5500000000000007 24.875000000000004 0.65000000000000002 17.400000000000006 5.9357142857142859 10.785714285714286
decision_type=2 2 2 2 2 2 2 2 2
left_child=1 2 5 8 -5 7 -7 -1 -4
right_child=-2 -3 3 4 -6 6 -8 -9 -10
leaf_value=-0.0062814923417943138 -0.15812708334573969 0.16626271043311469 -0.073840189527720215 0.23592015952337536 -0.11434745774712674 -0.029685053146003112 0.046679024221348453 -0.096626190826146291 -0.2548256798869088
leaf_weight=1919 22 22 150 40 43 361 944 99 21
leaf_count=1919 22 22 150 40 43 361 944 99 21
internal_value=-6.33798e-11 0.000966601 -5.00375e-05 -0.0468799 0.0544562 0.0035295 0.0255546 -0.0107137 -0.0960665
internal_weight=3621 3599 3577 254 83 3323 1305 2018 171
internal_count=3621 3599 3577 254 83 3323 1305 2018 171
is_linear=0
shrinkage=0.1


Tree=57
num_leaves=14
num_cat=0
split_feature=8 3 11 9 11 0 13 4 0 1 0 4 3
split_gain=55.5586 129.638 128.736 107.054 79.6188 71.3589 104.192 126.348 100.386 164.288 99.9742 64.5769 35.1402
threshold=98.500000000000014 0.8500000000000002 16.878571428571437 96.500000000000014 14.821428571428573 12.850000000000003 23.092857142857145 5.6357142857142852 2.1500000000000008 0.55000000000000016 1.8500000000000003 8.0500000000000007 5.9500000000000011
decision_type=2 2 2 2 2 2 2 2 2 2 2 2 2
left_child=3 2 4 5 -2 8 7 -7 10 -10 -1 12 -3
right_child=1 11 -4 -5 -6 6 -8 -9 9 -11 -12 -13 -14
leaf_value=-0.0015884102320049118 0.020308567732572558 -0.15799241887800622 -0.099267672757721623 0.20886494588851928 0.30247662028297784 -0.1451031364740864 -0.23412755695836887 0.02838410647442708 0.12061783698798474 0.010728958898061325 -0.1322694852265219 -0.28060857712601622 -0.0071087918854479126
leaf_weight=2408 20 33 36 25 20 62 28 130 179 567 60 24 29
leaf_count=2408 20 33 36 25 20 62 28 130 179 567 60 24 29
internal_value=-2.79458e-11 -0.0572373 0.0379219 0.00268067 0.161393 0.00117962 -0.0539183 -0.0276378 0.00495111 0.0370964 -0.00476542 -0.141332 -0.0874178
internal_weight=3621 162 76 3459 40 3434 220 192 3214 746 2468 86 62
internal_count=3621 162 76 3459 40 3434 220 192 3214 746 2468 86 62
is_linear=0
shrinkage=0.1


Tree=58
num_leaves=10
num_cat=0
split_feature=0 15 0 1 0 12 4 6 2
split_gain=50.5859 103.47 89.2122 65.6167 113.584 77.043 227.079 103.87 55.5548
threshold=26.250000000000004 230.50000000000003 22.650000000000002 18.050000000000004 1.0000000180025095e-35 18.995000000000001 4.8499999999999996 25.675000000000004 5.4500000000000011
decision_type=2 2 2 2 2 2 2 2 2
left_child=2 -2 3 5 -5 6 -1 -7 -6
right_child=1 -3 -4 4 8 7 -8 -9 -10
leaf_value=-0.00083376879367551672 0.036834740541551426 -0.27416615545749667 0.20680158833662668 0.14237588142510504 -0.20043089805377856 -0.047836424975477194 0.089101136271545492 0.0047333271926503599 -0.047275870323181153
leaf_weight=1387 23 20 21 20 45 560 352 1143 50
leaf_count=1387 23 20 21 20 45 560 352 1143 50
internal_value=1.72324e-10 -0.107817 0.00129573 8.24547e-05 -0.0742232 0.00256507 0.0173704 -0.0125533 -0.119823
internal_weight=3621 43 3578 3557 115 3442 1739 1703 95
internal_count=3621 43 3578 3557 115 3442 1739 1703 95
is_linear=0
shrinkage=0.1


Tree=59
num_leaves=20
num_cat=0
split_feature=9 0 4 0 8 4 15 10 4 13 6 8 0 0 3 9 15 10 1
split_gain=52.9393 199.783 326.503 338.453 345.031 164.525 133.963 152.984 106.044 102.453 206.191 319.232 128.421 134.07 120.618 107.265 103.187 102.664 96.2639
threshold=88.214285714285737 0.15000000000000005 4.5642857142857141 9.5500000000000025 88.500000000000014 5.3357142857142863 227.50000000000003 22.950000000000003 3.8142857142857136 22.776428571428578 27.275000000000002 87.500000000000014 10.15 3.0500000000000003 21.750000000000004 97.214285714285737 122.50000000000001 13.750000000000002 8.5500000000000025
decision_type=2 2 2 2 2 2 2 2 2 2 2 2 2 2 2 2 2 2 2
left_child=1 5 6 4 -4 -1 7 -3 -8 10 14 -12 13 -11 15 -2 -16 -13 -5
right_child=9 2 3 18 -6 -7 8 -9 -10 12 11 17 -14 -15 16 -17 -18 -19 -20
leaf_value=-0.0059140009936629904 -0.01445588801363845 0.054150349761039253 0.077273768186569225 0.13576518379203562 0.5667681237268779 -0.20446127389752589 0.0018444782792547952 0.34132227364927537 -0.16941558233484991 -0.11943159602582454 -0.062475727539923455 0.50819840468466282 -0.29222423519176016 0.12012231397922293 -0.34741183131933218 0.21362350753375461 -0.030032429249868511 0.1877855706959963 -0.12613912665325663
leaf_weight=1419 1139 256 24 36 36 43 306 20 41 80 36 20 27 33 20 21 21 20 23
leaf_count=1419 1139 256 24 36 36 43 306 20 41 80 36 20 27 33 20 21 21 20 23
internal_value=3.06919e-10 0.00969513 0.0519567 0.203736 0.37097 -0.0117536 0.0229652 0.0749599 -0.0183909 -0.0150798 -0.00617661 0.15356 -0.0962896 -0.0494734 -0.0162848 -0.0103269 -0.184852 0.347992 0.0336669
internal_weight=3621 2204 742 119 60 1462 623 276 347 1417 1277 76 140 113 1201 1160 41 40 59
internal_count=3621 2204 742 119 60 1462 623 276 347 1417 1277 76 140 113 1201 1160 41 40 59
is_linear=0
shrinkage=0.1


Tree=60
num_leaves=17
num_cat=0
split_feature=8 6 7 4 8 15 3 3 10 4 4 0 3 6 4 0
split_gain=49.5647 124.512 106.374 88.5019 245.385 348.184 180.154 333.9 324.087 143.509 128.404 119.643 113.463 44.2108 40.1064 31.6569
threshold=98.500000000000014 25.175000000000004 21.43928571428572 6.7928571428571436 97.500000000000014 150.50000000000003 0.15000000000000005 0.8500000000000002 18.050000000000004 6.4214285714285735 6.2571428571428571 9.9000000000000021 1.3500000000000003 23.425000000000004 6.1928571428571439 13.050000000000002
decision_type=2 2 2 2 2 2 2 2 2 2 2 2 2 2 2 2
left_child=3 2 -2 9 6 -6 8 -8 -5 10 11 -1 -11 15 -15 -4
right_child=1 -3 13 4 5 -7 7 -9 -10 12 -12 -13 -14 14 -16 -17
leaf_value=0.0025628424356592874 0.10495176640494418 0.17954082481563094 -0.11921738398571809 0.021705236755635429 0.53913203801797793 0.0096593609010731732 -0.25973115841600486 0.02923496821547733 0.50388511449098583 -0.28920132488973682 0.21280285673482077 -0.085088311946301759 -0.020764323370531204 -0.1135412275289687 -0.29482313038214397 0.02798956987403688
leaf_weight=2772 24 20 48 46 23 27 47 268 20 31 28 165 32 26 23 21
leaf_count=2772 24 20 48 46 23 27 47 268 20 31 28 165 32 26 23 21
internal_value=-8.92875e-11 -0.0540617 -0.0869635 0.00253195 0.0449294 0.253217 0.0175951 -0.0138806 0.16782 -0.00350284 -0.000329475 -0.00236138 -0.152852 -0.125997 -0.198633 -0.0744153
internal_weight=3621 162 142 3459 431 50 381 315 66 3028 2965 2937 63 118 49 69
internal_count=3621 162 142 3459 431 50 381 315 66 3028 2965 2937 63 118 49 69
is_linear=0
shrinkage=0.1


Tree=61
num_leaves=20
num_cat=0
split_feature=6 13 4 10 16 2 4 15 16 2 4 4 4 2 4 1 4 4 7
split_gain=50.5878 96.6711 171.596 406.034 247.034 71.3615 165.493 108.12 73.8935 76.1664 74.6051 67.4648 74.5477 96.8833 60.4736 38.4204 125.994 36.4978 28.4523
threshold=22.775000000000002 17.076428571428576 2.1928571428571426 22.850000000000005 1.5000000000000002 6.0500000000000007 10.435714285714287 6.5000000000000009 4.5000000000000009 7.0500000000000007 7.1928571428571431 8.7214285714285733 6.1928571428571439 5.8500000000000005 5.5357142857142856 1.0000000180025095e-35 1.014285714285714 10.750000000000002 25.503571428571433
decision_type=2 2 2 2 2 2 2 2 2 2 2 2 2 2 2 2 2 2 2
left_child=11 2 15 4 -4 6 7 -3 9 -7 -10 12 14 -14 18 16 -2 -13 -1
right_child=1 5 3 -5 -6 8 -8 -9 10 -11 -12 17 13 -15 -16 -17 -18 -19 -20
leaf_value=-0.021935280368567234 -0.009945946470148459 -0.16097156036645177 -0.10099694095484479 0.44860652585824329 0.12453578024330299 -0.1406526581162498 0.29084917098283769 0.0053015323506243987 -0.062231272019526385 0.0045219160979577703 -0.24914405756983263 -0.22899563746607821 0.26609347209423068 -0.030989095050355665 -0.18291502228897552 -0.063567415014954248 0.19484796541578631 -0.05271182102927318 0.091322221987597318
leaf_weight=623 258 40 69 30 164 42 20 1753 81 259 29 23 21 23 23 82 34 24 23
leaf_count=623 258 40 69 30 164 42 20 1753 81 259 29 23 21 23 23 82 34 24 23
internal_value=2.31773e-10 0.00609196 0.0404388 0.102332 0.0577471 -0.0037457 0.00478307 0.00159215 -0.0413678 -0.015735 -0.111508 -0.022933 -0.0152835 0.1108 -0.023576 -0.0030849 0.0138999 -0.138978 -0.0179029
internal_weight=3621 2861 637 263 233 2224 1813 1793 411 301 110 760 713 44 669 374 292 47 646
internal_count=3621 2861 637 263 233 2224 1813 1793 411 301 110 760 713 44 669 374 292 47 646
is_linear=0
shrinkage=0.1


Tree=62
num_leaves=13
num_cat=0
split_feature=11 4 10 12 4 0 0 9 9 4 6 1
split_gain=51.3416 172.866 150.918 208.828 328.058 62.2667 143.575 58.2376 57.882 68.4905 208.038 62.1888
threshold=19.121428571428577 7.9642857142857144 23.650000000000002 19.945000000000004 3.2857142857142856 24.200000000000006 21.250000000000004 94.642857142857153 90.785714285714292 4.5928571428571443 24.725000000000005 4.9500000000000011
decision_type=2 2 2 2 2 2 2 2 2 2 2 2
left_child=2 8 5 4 -4 6 7 -1 9 11 -11 -2
right_child=1 -3 3 -5 -6 -7 -8 -9 -10 10 -12 -13
leaf_value=0.0061763964775581083 -0.0071731341253226145 -0.22826052476198244 0.0021471340112901968 -0.093783604877966428 0.47382116968433063 -0.12506625871909291 0.25262361415054485 -0.046310730871151798 -0.15297161911481194 -0.13360619648643163 0.25580271596417709 -0.13045610051432796
leaf_weight=2491 584 39 29 27 30 38 23 231 28 23 34 44
leaf_count=2491 584 39 29 27 30 38 23 231 28 23 34 44
internal_value=1.24099e-12 -0.0232582 0.00609627 0.136567 0.241981 0.00206448 0.0038244 0.00172213 -0.0120449 -0.00628442 0.0986728 -0.0158108
internal_weight=3621 752 2869 86 59 2783 2745 2722 713 685 57 628
internal_count=3621 752 2869 86 59 2783 2745 2722 713 685 57 628
is_linear=0
shrinkage=0.1


Tree=63
num_leaves=15
num_cat=0
split_feature=0 11 13 15 3 16 0 9 15 5 6 3 12 6
split_gain=46.038 126.071 163.324 156.068 118.952 109.457 63.9917 53.8694 103.936 204.443 88.2804 134.153 65.2474 41.2674
threshold=15.350000000000003 17.507142857142863 20.60285714285715 60.500000000000007 1.5500000000000003 2.5000000000000004 14.750000000000002 94.642857142857153 348.50000000000006 38.050000000000004 25.975000000000005 7.5500000000000007 25.435000000000006 22.275000000000002
decision_type=2 2 2 2 2 2 2 2 2 2 2 2 2 2
left_child=6 2 3 -2 13 -5 7 8 12 -10 11 -9 -1 -3
right_child=1 4 -4 5 -6 -7 -8 10 9 -11 -12 -13 -14 -15
leaf_value=0.0056222543629036231 0.27225158260814075 -0.17330266527831556 -0.17075585656695896 0.18226260507944972 -0.36564826458692551 -0.1030888006454561 0.15598212281862897 -0.078567279481887825 0.0040458119035452263 0.27058665343495303 -0.20974498828551891 0.1100469892775571 -0.044302505995936464 0.025170438939874824
leaf_weight=2779 29 20 36 20 20 41 27 125 87 43 29 54 289 22
leaf_count=2779 29 20 36 20 20 41 27 125 87 43 29 54 289 22
internal_value=-2.4774e-11 -0.0481839 0.00925949 0.0812656 -0.164924 -0.00953096 0.00263868 0.00142309 0.0046304 0.0922093 -0.0478893 -0.0216669 0.000919433 -0.0693406
internal_weight=3621 188 126 90 62 61 3433 3406 3198 130 208 179 3068 42
internal_count=3621 188 126 90 62 61 3433 3406 3198 130 208 179 3068 42
is_linear=0
shrinkage=0.1


Tree=64
num_leaves=18
num_cat=0
split_feature=15 10 9 9 4 0 5 6 15 9 4 15 0 11 5 4 9
split_gain=44.9202 129.112 178.372 142.093 305.082 114.718 148.619 268.924 389.9 112.563 464.202 92.9397 89.0779 72.948 71.9842 67.8775 61.4732
threshold=168.50000000000003 19.450000000000003 96.785714285714292 92.214285714285737 4.9214285714285717 18.850000000000005 61.550000000000004 25.175000000000004 353.50000000000006 82.785714285714292 3.714285714285714 10.500000000000002 4.4500000000000011 18.392857142857149 56.350000000000001 1.1142857142857128 92.785714285714292
decision_type=2 2 2 2 2 2 2 2 2 2 2 2 2 2 2 2 2
left_child=1 2 9 4 15 6 14 -8 -9 10 -1 -11 -5 -7 16 -3 -2
right_child=5 3 -4 12 -6 13 7 8 -10 11 -12 -13 -14 -15 -16 -17 -18
leaf_value=0.016352479090959722 -0.00547663468637858 -0.017544637131504715 0.25968304084470639 0.090103345115979519 0.37023876834756292 -0.27156578948100413 -0.067731234472658899 0.62121776163578035 -0.0032022505998611454 -0.13118014907464387 0.51468154460191728 -0.012065628321451027 -0.14618531904923612 -0.02625791836868633 -0.1684707405238316 0.11649855929700768 -0.092133641440074812
leaf_weight=286 1701 68 26 27 39 27 36 20 20 70 20 1020 39 22 29 85 86
leaf_count=286 1701 68 26 27 39 27 36 20 20 70 20 1020 39 22 29 85 86
internal_value=-7.56651e-11 0.0119719 0.000163606 0.0770551 0.120566 -0.0103621 -0.00644974 0.130552 0.309008 -0.00466985 0.048923 -0.0197152 -0.0495218 -0.161428 -0.0121833 0.0569238 -0.00964703
internal_weight=3621 1680 1422 258 192 1941 1892 76 40 1396 306 1090 66 49 1816 153 1787
internal_count=3621 1680 1422 258 192 1941 1892 76 40 1396 306 1090 66 49 1816 153 1787
is_linear=0
shrinkage=0.1


Tree=65
num_leaves=9
num_cat=0
split_feature=1 1 1 2 4 7 8 2
split_gain=45.8976 52.0193 75.0102 58.7622 103.494 77.7509 26.9912 12.7396
threshold=22.850000000000005 20.750000000000004 18.850000000000005 18.850000000000005 7.1214285714285719 23.032142857142862 94.500000000000014 8.3500000000000032
decision_type=2 2 2 2 2 2 2 2
left_child=1 2 3 4 -1 -5 -2 -8
right_child=6 -3 -4 5 -6 -7 7 -9
leaf_value=-0.0014903348931853506 0.0068929159925097518 0.14821207597851754 -0.17569769670565924 0.086810371624729182 0.060858477939470738 -0.12870894175288933 -0.18963975175516681 -0.07812157880869651
leaf_weight=3128 21 24 24 22 291 70 20 21
leaf_count=3128 21 24 24 22 291 70 20 21
internal_value=-1.77163e-11 0.00148598 0.000489818 0.00169418 0.00381634 -0.0771717 -0.0853 -0.132521
internal_weight=3621 3559 3535 3511 3419 92 62 41
internal_count=3621 3559 3535 3511 3419 92 62 41
is_linear=0
shrinkage=0.1


Tree=66
num_leaves=16
num_cat=0
split_feature=7 4 13 16 16 3 12 10 12 0 13 6 4 9 6
split_gain=44.3244 79.8303 76.9951 141.356 169.462 126.285 97.9385 61.4989 56.1887 45.7678 33.4417 20.7324 19.3252 19.1364 0.580701
threshold=20.267857142857146 5.3357142857142863 13.750000000000002 5.5000000000000009 4.5000000000000009 1.0000000180025095e-35 8.3500000000000014 8.7500000000000018 18.995000000000001 18.150000000000002 15.753571428571432 23.475000000000005 0.37142857142856994 91.071428571428584 17.675000000000001
decision_type=2 2 2 2 2 2 2 2 2 2 2 2 2 2 2
left_child=1 11 3 4 5 -2 9 -8 -9 10 -4 12 14 -14 -1
right_child=2 -3 6 -5 -6 -7 7 8 -10 -11 -12 -13 13 -15 -16
leaf_value=0.020132060636850923 0.20119342988941311 -0.19514066379131945 0.015962328078846136 0.3203902010433376 -0.21830052681775258 -0.012837941969434422 0.14491643885771432 0.015763355748090523 -0.011313517792776312 -0.24305413024766104 -0.15912293035537006 0.075135896177518938 -0.071344233705154192 0.021252118523365685 0.0016272480519939959
leaf_weight=22 51 29 24 20 22 60 30 1410 1679 21 20 21 110 28 74
leaf_count=22 51 29 24 20 22 60 30 1410 1679 21 20 21 110 28 74
internal_value=-1.00567e-10 -0.037925 0.00322766 0.0725214 0.0352479 0.0855008 -0.000102095 0.00242976 0.00104595 -0.121592 -0.0636219 -0.0200456 -0.0285875 -0.0525566 0.00586793
internal_weight=3621 284 3337 153 133 111 3184 3119 3089 65 44 255 234 138 96
internal_count=3621 284 3337 153 133 111 3184 3119 3089 65 44 255 234 138 96
is_linear=0
shrinkage=0.1


Tree=67
num_leaves=20
num_cat=0
split_feature=8 6 2 4 0 4 3 9 4 2 11 11 0 2 0 4 4 6 15
split_gain=43.5037 112.514 140.389 266.247 304.342 103.463 100.715 84.7712 160.197 87.1572 73.7482 162.938 59.1785 56.4262 36.2449 113.228 48.4642 59.5965 27.0313
