tree
version=v4
num_class=1
num_tree_per_iteration=1
label_index=0
max_feature_idx=17
objective=tweedie
feature_names=lag_1 lag_2 lag_3 lag_7 rolling_mean_7 rolling_sum_7 rolling_mean_30 month day_of_year day_of_week tmean_lag_1 tmean_roll_7 rh_lag_1 rh_roll_7 wind_lag_1 wind_roll_7 rad_lag_1 rad_roll_7
feature_infos=[0:67.5] [0:67.5] [0:67.5] [0:67.5] [0:26.185714285714287] [0:183.30000000000001] [0:15.273333333333333] [1:12] [1:366] [0:6] [0:33.200000000000003] [0:32.621428571428574] [0:100] [0:98.857142857142861] [0:36.200000000000003] [0:27.314285714285717] [0:31.350000000000001] [0:29.465714285714288]
tree_sizes=3202 3380 3387 3369 3369 3374 3367 3386 3390 3384 3372 3388 3397 3389 3392 3401 3392 3396 3404 3413 3400 3386 3396 3406 3399 3383 3383 3400 3395 3379 3416 3400 3373 3384 3411 3412 3400 3412 3399 3423 3409 3414 3404 3375 3403 3410 3391 3398 3412 3400 3402 3403 3387 3411 3422 3384 3414 3403 3416 3414 3404 3417 3401 3437 3426 3406 3413 3421 3426 3398 3417 3413 3408 3426 3424 3413 3414 3411 3408 3405 3394 3420 3415 3414 3421 3405 3431 3414 3403 3413 3409 3413 3407 3418 3420 3415 3414 3407 3398 3407 3374 3417 3405 3418 3408 3383 3412 3397 3382 3400 3397 3419 3413 3415 3414 3403 3406 3388 3395 3392 3392 3401 3433 3420 3398 3407 3408 3400 3401 3398 3404 3394 3404 3399 3417 3408 3395 3392 3379 3408 3389 3403 3404 3384 3397 3406 3376 3427 3382 3389 3384 3413 3423 3395 3411 3411 3406 3401 3409 3400 3422 3410 3394 3392 3394 3384 3415 3374 3391 3375 3397 3377 3392 3391 3420 3391 3393 3411 3371 3419 3388 3437 3389 3425 3421 3379 3423 3394 3387 3398 3394 3405 3418 3386 3388 3399 3379 3374 3419 3387 3359 3376 3400 3402 3396 3395 3386 3404 3415 3379 3394 3412 3406 3390 3395 3402 3403 3401 3399 3411 3384 3411 3420 3406 3412 3397 3410 3415 3409 3407 3379 3381 3417 3385 3416 3400 3410 3402 3395 3376 3406 3395 3380 3423 3401 3392 3412 3414 3441 3404 3419 3390 3395 3381 3394 3400 3422 3388 3375 3378 3407 3397 3393 3413 3402 3404 3397 3393 3426 3402 3394 3402 3395 3392 3410 3380 3397 3396 3389 3424 3394 3419 3417 3394 3400 3395 3386 3428 3389 3404 3418 3399 3406 3404 3397 3424 3372 3397 3420 3390

Tree=0
num_leaves=31
num_cat=0
split_feature=4 0 4 10 4 16 10 1 4 2 2 2 16 14 10 4 17 4 1 13 11 0 2 13 3 6 8 4 0 10
split_gain=4527.45 790.356 374.939 360.933 274.473 209.097 105.711 100.308 98.0045 79.7589 78.7167 74.6812 63.9888 55.544 55.3475 54.2453 54.1424 48.0521 45.0853 46.6723 39.8979 36.673 36.3315 35.4359 33.5714 37.0233 30.1229 29.5815 36.1977 29.4873
threshold=1.3357142857142845 0.45000000000000007 4.1642857142857146 20.925000000000004 0.32857142857142713 17.975000000000005 24.825000000000006 6.5500000000000007 9.2000000000000011 1.7500000000000002 5.7500000000000009 1.0500000000000003 29.035000000000004 14.350000000000003 24.475000000000005 2.2285714285714282 12.915000000000001 8.3071428571428587 18.050000000000004 88.214285714285737 25.267857142857149 13.15 1.0000000180025095e-35 86.642857142857153 12.250000000000002 1.3766666666666671 347.50000000000006 7.1214285714285719 16.500000000000004 25.275000000000002
decision_type=2 2 2 2 2 2 2 2 2 2 2 2 2 2 2 2 2 2 2 2 2 2 2 2 2 2 2 2 2 2
left_child=4 3 7 -2 26 9 -7 11 10 13 18 15 17 -5 -6 -3 -11 20 19 -4 -8 23 -16 -17 25 -22 -1 28 -21 -12
right_child=1 2 8 5 14 6 12 -9 -10 16 29 -13 -14 -15 22 21 -18 -19 -20 27 24 -23 -24 -25 -26 -27 -28 -29 -30 -31
leaf_value=1.0410547539280257 1.0492202901565095 1.1383514399580017 1.1983257596195143 1.1143178602081312 1.0640922176812897 1.0808481952822682 1.094066395366907 1.1049141874752972 1.1959802645178972 1.174363798218752 1.1489909033240298 1.1340125825619238 1.0432623684691174 1.1901750263280089 1.1126573303685368 1.1892082638483443 1.0730829331813736 1.1785994905811421 1.1382144827739233 1.1746420518251208 1.0818753724206536 1.1284282571147293 1.0805608887481255 1.1600769127190806 1.0785756195850009 1.1425489352850327 1.124543733204826 1.1923682737250298 1.1211889157317145 1.1707507793410621
leaf_weight=883.42253994941711 144.39978319406509 172.65543478727341 382.48490411043167 27.224782288074493 171.03118515014648 145.36804974079132 75.071406424045563 127.80603462457657 768.54009509086609 22.352211236953735 301.0542556643486 368.36198562383652 20.90494704246521 212.38431549072266 202.1785346865654 226.39691507816315 32.21059638261795 50.909873843193054 56.879982948303223 617.40362310409546 27.223641037940979 45.307529151439667 156.35027325153351 193.70992434024811 25.547883033752441 328.96821874380112 10.937611758708952 242.22253268957138 33.384481191635132 322.44103050231934
leaf_count=983 154 97 85 19 168 129 61 96 181 8 151 216 23 57 143 62 30 17 32 220 24 28 139 85 23 177 7 62 22 122
internal_value=1.13757 1.16009 1.1708 1.12296 1.05897 1.13396 1.11861 1.14664 1.18085 1.16913 1.17491 1.15194 1.12899 1.18156 1.0875 1.16229 1.11457 1.13252 1.18177 1.18371 1.12739 1.17117 1.09866 1.17578 1.13394 1.13791 1.04208 1.17745 1.1719 1.16024
internal_weight=6395.13 4971.21 3858.65 1112.57 1423.92 968.166 673.994 1134.24 2724.41 294.172 1955.87 1006.43 528.626 239.609 529.56 638.07 54.5628 507.721 1332.38 1275.5 456.811 465.414 358.529 420.107 381.74 356.192 894.36 893.011 650.788 623.495
internal_count=3621 2181 1459 722 1440 568 454 584 875 114 694 488 325 76 450 272 38 302 421 389 285 175 282 147 224 201 990 304 242 273
is_linear=0
shrinkage=1


Tree=1
num_leaves=31
num_cat=0
split_feature=4 0 5 10 4 16 1 10 4 2 2 2 10 16 4 10 14 17 13 4 11 0 2 10 13 3 8 10 3 13
split_gain=4212.31 719.838 347.553 341.446 283.99 190.866 109.109 97.561 84.3335 77.5263 72.9277 65.4321 64.1368 60.8779 58.5019 53.8177 50.9946 49.8225 44.9461 43.6868 36.444 35.7518 34.2239 33.7193 31.6004 30.8741 30.2938 29.8852 29.6503 28.5784
threshold=1.3357142857142845 0.45000000000000007 30.75 20.925000000000004 0.32857142857142713 17.975000000000005 6.5500000000000007 24.825000000000006 9.2000000000000011 1.0500000000000003 1.7500000000000002 6.6500000000000012 17.675000000000001 29.035000000000004 2.2285714285714282 24.475000000000005 14.350000000000003 12.915000000000001 88.214285714285737 8.3071428571428587 25.267857142857149 14.250000000000002 1.0000000180025095e-35 25.275000000000002 82.500000000000014 12.250000000000002 347.50000000000006 22.275000000000002 0.35000000000000003 90.071428571428584
decision_type=2 2 2 2 2 2 2 2 2 2 2 2 2 2 2 2 2 2 2 2 2 2 2 2 2 2 2 2 2 2
left_child=4 3 6 -2 26 10 9 29 11 14 16 12 -4 19 -3 -6 -5 -12 -14 20 -9 24 28 -13 -16 -22 -1 -10 -17 -7
right_child=1 2 8 5 15 7 -8 13 27 -11 17 23 18 -15 21 22 -18 -19 -20 -21 25 -23 -24 -25 -26 -27 -28 -29 -30 -31
leaf_value=-0.096173840611070288 -0.087346498181334553 0.00073808975371695944 -0.097222006582366086 -0.022153774035201492 -0.071745969125899353 -0.075053295505894679 -0.02952241278653904 -0.04172793146768608 0.011202759883117057 -0.0013250940428067035 0.035188135144392424 0.0082326619166789485 0.058703747550514468 -0.093767124268790344 0.055061042600643477 -0.010207983079018238 0.050671937766222745 -0.062568830115765736 0.037718370574510197 0.03930473552218329 0.00031910328061393459 -0.012759874976807903 -0.055058315208749847 0.033752293352714874 0.028445867987313418 -0.057042293815185663 -0.012389763555676272 0.058633733061881736 -0.050911028016135264 -0.030152410461957727
leaf_weight=843.28543066978455 138.90261536836624 172.65492707490921 8.1502056717872602 27.152995645999908 166.52805441617966 78.455410242080688 150.90704274177551 74.378580570220947 34.813947200775146 414.79779946804047 22.204720973968506 247.75477939844131 351.84589803218842 19.998125195503235 173.20727252960205 134.52913159132004 209.51929640769958 31.557382762432098 928.43349432945251 50.492134988307953 355.74039006233215 37.474414706230164 153.8723372220993 271.05314379930496 313.17262750864029 25.114291608333588 10.92855781316757 720.94367170333862 67.037449657917023 64.631921350955963
leaf_count=983 154 97 9 19 168 80 112 61 17 238 8 128 80 23 43 85 57 30 322 17 201 24 139 100 125 23 7 164 58 49
internal_value=-1.3202e-05 0.0216032 0.0318469 -0.0140792 -0.0773469 -0.00346983 0.0103706 -0.0181673 0.0424235 0.0157878 0.0303753 0.0365584 0.0425955 -0.00820452 0.0259791 -0.0482902 0.0423168 -0.0221934 0.0434856 -0.00482108 -0.00971529 0.0342982 -0.0373008 0.0215655 0.0379239 -0.00346342 -0.0951019 0.0564488 -0.0237451 -0.0547718
internal_weight=6299.54 4923.36 3825.21 1098.15 1376.18 959.245 1262.21 668.811 2563 1111.31 290.434 1807.24 1288.43 525.724 696.509 521.967 236.672 53.7621 1280.28 505.725 455.233 523.854 355.439 518.808 486.38 380.855 854.214 755.758 201.567 143.087
internal_count=3621 2181 1459 722 1440 568 639 454 820 527 114 639 411 325 289 450 76 38 402 302 285 192 282 228 168 224 990 181 143 129
is_linear=0
shrinkage=0.05


Tree=2
num_leaves=31
num_cat=0
split_feature=4 0 10 4 4 16 10 4 1 2 2 2 16 10 14 17 4 1 13 4 0 13 11 2 2 4 8 12 13 4
split_gain=3917.23 655.238 322.634 320.096 292.269 174.085 90.3292 87.6315 82.4252 68.9388 66.6174 62.4721 57.8785 51.9661 46.7621 45.7952 44.3904 41.3199 42.7988 39.6817 38.8733 33.688 33.2711 32.016 30.6626 36.3799 30.4211 30.4115 28.9038 28.7524
threshold=1.3357142857142845 0.45000000000000007 20.925000000000004 4.1642857142857146 0.32857142857142713 17.975000000000005 24.825000000000006 9.2000000000000011 6.5500000000000007 5.7500000000000009 1.7500000000000002 1.2500000000000002 29.035000000000004 24.475000000000005 14.350000000000003 12.915000000000001 2.2285714285714282 18.050000000000004 88.214285714285737 8.3071428571428587 12.950000000000001 86.642857142857153 25.267857142857149 1.0000000180025095e-35 18.350000000000005 14.800000000000002 347.50000000000006 91.500000000000014 80.071428571428584 2.5214285714285727
decision_type=2 2 2 2 2 2 2 2 2 2 2 2 2 2 2 2 2 2 2 2 2 2 2 2 2 2 2 2 2 2
left_child=4 2 -2 8 26 10 -7 9 11 17 14 16 19 -6 -4 -12 27 18 -5 22 21 -18 28 -15 -9 -26 -1 -3 -8 -13
right_child=1 3 5 7 13 6 12 24 -10 -11 15 29 -14 23 -16 -17 20 -19 -20 -21 -22 -23 -24 -25 25 -27 -28 -29 -30 -31
leaf_value=-0.095795707594549806 -0.086270835738228802 0.014309406724195846 -0.021097903430347627 0.057013190268160867 -0.069960027688346721 -0.052966945739463013 -0.0020365950178459075 0.058434277388769378 -0.029855252279124025 0.020578144742413061 0.03363713621382395 -0.029396474768912009 -0.093175316011045381 -0.022666264875414153 0.048764802322567136 -0.060627766951546341 0.048684377676660041 -0.00095143226130324293 0.036727974597989703 0.037630384452169346 -0.010370057498659352 0.020332828574316692 -0.0032952003250747023 -0.053110897943044327 0.006167755889392881 0.071195147681754431 -0.011779324726536219 -0.030256462075893598 -0.065806600080364777 0.0040348320573231093
leaf_weight=805.24609470367432 133.73469942808151 129.91143423318863 27.088027954101562 369.25065940618515 162.34829717874527 140.64589560031891 29.855816006660461 647.56730914115906 126.56979340314865 619.46590614318848 22.070681035518646 85.778424978256226 19.140641152858734 200.6510859131813 206.89640307426453 30.955011785030365 220.14627385139465 56.596924781799316 879.03013336658478 50.111843645572662 52.689671635627747 199.93089526891708 380.45607662200928 151.5980978012085 63.580098628997803 32.504261016845703 10.920379579067228 54.272041797637939 43.891360104084015 257.02440983057022
leaf_count=983 154 63 19 85 168 129 18 144 96 273 8 63 23 143 57 30 61 32 304 17 33 88 224 139 32 5 7 40 43 140
internal_value=-2.60968e-05 0.0207132 -0.0135541 0.0305107 -0.0760655 -0.00332946 -0.0173921 0.0399465 0.00815931 0.0343134 0.0292095 0.012972 -0.00783358 -0.0465556 0.0406769 -0.0213922 0.0220006 0.0408339 0.0427285 -0.00459454 0.030113 0.0351908 -0.00925318 -0.0357688 0.0545234 0.0281658 -0.0946716 0.0011775 -0.0399899 -0.00433057
internal_weight=6209.93 4879.16 1084.85 3794.32 1330.76 951.112 664.102 2668 1126.32 1924.34 287.01 999.753 523.456 514.597 233.984 53.0257 656.95 1304.88 1248.28 504.315 472.767 420.077 454.203 352.249 743.652 96.0844 816.166 184.183 73.7472 342.803
internal_count=3621 2181 722 1459 1440 568 454 875 584 694 114 488 325 450 76 38 285 421 389 302 182 149 285 282 181 37 990 103 61 203
is_linear=0
shrinkage=0.05


Tree=3
num_leaves=31
num_cat=0
split_feature=4 0 10 4 5 16 11 1 4 14 2 14 1 2 10 4 13 6 10 10 13 13 1 1 16 8 1 10 0 2
split_gain=3639.5 596.16 304.513 300.311 295.835 159.417 104.627 91.1534 75.6467 67.8774 64.9387 59.7543 59.589 56.4151 50.0974 48.9199 48.3404 38.4373 37.2263 37.0423 33.0571 32.3106 32.2574 31.054 30.6163 30.5036 30.142 32.7605 30.0742 29.9715
threshold=1.3357142857142845 0.45000000000000007 20.925000000000004 0.32857142857142713 30.75 19.055000000000003 25.546428571428578 6.5500000000000007 9.2000000000000011 24.850000000000005 1.0500000000000003 14.350000000000003 5.3500000000000005 1.7500000000000002 24.475000000000005 2.2285714285714282 91.500000000000014 3.308333333333334 22.175000000000004 23.525000000000002 93.071428571428584 86.357142857142875 11.550000000000002 7.5500000000000007 16.575000000000003 347.50000000000006 24.200000000000006 24.375000000000004 14.250000000000002 1.0000000180025095e-35
decision_type=2 2 2 2 2 2 2 2 2 2 2 2 2 2 2 2 2 2 2 2 2 2 2 2 2 2 2 2 2 2
left_child=3 2 -2 25 7 11 9 10 12 16 15 -4 20 -13 24 -3 -7 -8 -14 -12 -6 -20 -19 -15 -5 -1 -10 -28 -17 -16
right_child=1 4 5 14 8 6 17 -9 26 -11 19 13 18 23 29 28 -18 22 21 -21 -22 -23 -24 -25 -26 -27 27 -29 -30 -31
leaf_value=-0.095382790297313849 -0.085125815411770792 0.00067463967964140358 -0.024588459590380439 -0.050392744507443722 0.0472356845165521 -0.073450657851921605 -0.022428021342185148 -0.027239855354377437 0.055356874801618973 0.029806654336143497 -0.06180038015347758 0.044247485201925667 -0.029360056397281193 -0.052249137075525746 -0.021588454782465571 0.034814864691208307 -0.021275808694452541 0.00022760240766171919 0.051904568935064038 0.0023869541690144194 0.028813461108742628 0.02030564891447334 0.044772844768777798 0.032827270908348923 -0.095360025831489822 -0.011198132072314569 -0.03559363332880934 0.047989410260470614 -0.011712555370935145 -0.051177608365350326
leaf_weight=769.20787996053696 128.88088500499725 172.30741596221924 51.039353728294373 95.963951766490936 709.57680457830429 129.39995127916336 151.24300241470337 149.73255372047424 683.12020099163055 26.414004325866699 23.850482821464539 230.6591899394989 33.353492498397827 26.140115797519684 200.14853012561798 478.99915373325348 67.579335689544678 191.7104743719101 94.199393570423126 390.33222126960754 370.74306470155716 572.93575286865234 51.574738919734955 18.189874887466431 62.509875237941742 10.91299271583557 19.46989518404007 29.465467572212219 37.446009874343872 149.51318627595901
leaf_count=983 154 97 38 91 200 137 107 112 159 11 22 69 24 24 143 168 49 110 24 216 143 248 16 7 77 7 14 8 24 139
internal_value=-3.76567e-05 0.0198477 -0.0130337 -0.0747218 0.0292158 -0.00319071 -0.0181161 0.0093664 0.0391108 -0.045458 0.014336 0.0250973 0.0335486 0.0343192 -0.0448098 0.0237443 -0.0555506 -0.00263428 0.0221902 -0.00130924 0.0409136 0.0247674 0.00967088 -0.0173398 -0.0681301 -0.0942051 0.0526414 0.0147343 0.0314413 -0.0342406
internal_weight=6126.62 4838.36 1072.83 1288.26 3765.53 943.95 617.922 1252.67 2512.86 223.393 1102.94 326.029 1780.81 274.989 508.136 688.753 196.979 394.528 700.489 414.183 1080.32 667.135 243.285 44.33 158.474 780.121 732.056 48.9354 516.445 349.662
internal_count=3621 2181 722 1440 1459 568 430 639 820 197 527 138 639 100 450 289 186 233 296 238 343 272 126 31 168 990 181 22 192 282
is_linear=0
shrinkage=0.05


Tree=4
num_leaves=31
num_cat=0
split_feature=4 0 5 4 10 16 10 2 11 14 2 5 2 10 10 1 2 10 3 5 13 4 16 13 4 8 14 13 0 10
split_gain=3379.98 544.943 321.102 306.915 257.293 132.448 90.4647 86.3075 73.1812 81.4582 71.7835 63.8876 73.3442 48.5143 44.1499 41.4953 44.5263 41.2445 38.2104 35.7873 34.8602 34.4202 31.5806 31.0522 52.2466 30.54 29.337 29.2776 29.082 38.177
threshold=1.3357142857142845 1.0000000180025095e-35 33.250000000000007 0.32857142857142713 23.125000000000004 18.995000000000001 20.725000000000005 0.25000000000000006 25.996428571428577 24.850000000000005 1.0000000180025095e-35 69.65000000000002 5.7500000000000009 24.475000000000005 24.475000000000005 13.950000000000001 7.7500000000000009 22.275000000000002 0.15000000000000005 19 91.357142857142875 2.4857142857142862 16.575000000000003 88.214285714285737 3.714285714285714 347.50000000000006 16.850000000000005 82.928571428571445 1.4500000000000002 21.375000000000004
decision_type=2 2 2 2 2 2 2 2 2 2 2 2 2 2 2 2 2 2 2 2 2 2 2 2 2 2 2 2 2 2
left_child=3 4 6 25 20 10 -3 23 9 -7 -6 12 18 22 -9 16 19 -13 -4 -10 -2 -16 -5 -8 -25 -1 -22 -23 -14 -30
right_child=1 2 11 13 5 8 7 14 15 -11 -12 17 28 -15 21 -17 -18 -19 -20 -21 26 27 -24 24 -26 -27 -28 -29 29 -31
leaf_value=-0.094932408809444702 -0.091243330836598663 -0.049324243844136889 0.054019013452391074 -0.048489185099396766 0.048715333384204251 -0.065143307703188214 0.031559486893605042 -0.024770159818279621 -0.032770315953324212 0.032562002750576392 -0.025278790968154705 -0.010849878863275958 -0.0052300937128292591 -0.032757787246992645 -0.013743945610257878 0.060689821030197072 -0.076284018050102612 0.054806099958327539 0.034416795433061788 0.02332200927355825 -0.088403805120031945 0.038695258095011197 -0.094907594915254231 -0.020505751067965292 0.034395732187906043 -0.010644904722849005 0.0077013309996616063 0.0074253465550816362 -0.070561505599832847 0.025776573801676118
leaf_weight=735.07874047756195 124.8939528465271 63.308119654655457 352.71957218647003 94.775819897651672 127.35034257173538 130.98705047369003 506.70592921972275 131.48710519075394 47.738166034221649 25.482363700866699 44.136881470680237 24.997232437133789 102.65440464019775 347.29771357774734 171.78748393058777 23.107744097709656 22.376427292823792 554.95626121759415 842.23680818080902 70.325609028339386 13.802133083343504 85.233622193336487 59.737690150737762 86.360128223896027 86.978675663471222 10.906321465969084 18.698645710945129 614.74951010942459 10.492470920085905 516.64508992433548
leaf_count=983 158 57 85 91 35 135 189 94 37 10 32 15 60 282 112 5 23 128 293 31 17 29 77 58 31 7 11 320 10 206
internal_value=-4.91915e-05 0.0190082 0.0256687 -0.0733619 -0.0236026 -0.00578592 0.00935208 0.0115589 -0.0247861 -0.0492312 0.0296709 0.03752 0.0329255 -0.0431275 0.00223758 -0.0013991 -0.0116151 0.0519762 0.0402029 0.000641515 -0.0792396 0.0063111 -0.0664354 0.0253104 0.00704295 -0.0937001 -0.0331117 0.0112329 0.0191176 0.023859
internal_weight=6048.01 4800.21 4151.31 1247.8 648.899 491.505 1746.61 1683.3 320.017 156.469 171.487 2404.7 1824.75 501.811 1003.26 163.548 140.44 579.953 1194.96 118.064 157.395 871.771 154.514 680.045 173.339 745.985 32.5008 699.983 629.792 527.138
internal_count=3621 2181 1687 1440 494 308 890 833 241 145 67 797 654 450 555 96 91 143 378 68 186 461 168 278 89 990 28 349 276 216
is_linear=0
shrinkage=0.05


Tree=5
num_leaves=31
num_cat=0
split_feature=4 0 4 10 4 16 10 4 1 1 2 14 2 2 10 16 13 8 4 17 13 16 13 4 0 13 4 10 4 16
split_gain=3136.18 499.882 313.664 272.554 253.885 135.504 91.5034 82.0345 67.9939 63.4132 55.391 52.3317 52.0611 49.0588 47.8035 45.5922 45.2873 44.5675 42.5463 41.6375 38.9673 45.4255 37.119 33.2167 32.3311 32.4674 30.4663 29.9775 28.1453 29.4423
threshold=1.3357142857142845 0.45000000000000007 0.27142857142857019 20.925000000000004 3.971428571428572 19.055000000000003 25.175000000000004 7.1214285714285719 6.5500000000000007 5.5500000000000007 18.850000000000005 14.350000000000003 1.5500000000000003 1.7500000000000002 24.075000000000006 29.035000000000004 91.619047619047635 347.50000000000006 14.800000000000002 21.063571428571432 80.642857142857153 21.205000000000002 88.357142857142875 2.2285714285714282 13.15 86.642857142857153 0.74285714285714166 22.175000000000004 7.3928571428571432 25.525000000000002
decision_type=2 2 2 2 2 2 2 2 2 2 2 2 2 2 2 2 2 2 2 2 2 2 2 2 2 2 2 2 2 2
left_child=2 3 17 -2 8 11 16 9 12 22 -9 -5 23 -13 -4 19 -7 -1 -12 20 -8 -22 -6 -3 25 -25 -16 -11 29 -21
right_child=1 4 14 5 7 6 15 10 -10 27 18 13 -14 -15 26 -17 -18 -19 -20 28 21 -23 -24 24 -26 -27 -28 -29 -30 -31
leaf_value=-0.095273065392119466 -0.083224604058465323 0.00036364513888100983 -0.068351613993074392 -0.023455365837121156 0.048079945628062198 -0.071522174913364003 -0.071688076912791929 0.047525804614861104 -0.031291352758546567 -0.040337213223313823 -0.0039060913672461549 0.041306105128087203 -0.0085854514929476263 -0.016623786743868812 -0.049715677614732737 -0.090710565124947184 -0.011919950432662703 0.029207903516181046 0.068586436968371398 0.015431473629180915 0.032405713653586354 -0.036284073738423815 0.027140976914807626 0.042783301354959426 -0.017957796330440607 0.014828957154130655 -0.021314412302422557 0.014578608040199987 0.046855514274102436 -0.017843808171029329
leaf_weight=684.83008503913879 119.95887303352356 193.25252258777618 133.03470605611801 50.639528930187225 313.89072149991989 96.411408364772797 35.03033185005188 1144.1633844971657 111.23083347082138 26.347797453403473 93.699240744113922 226.05979871749878 264.46519154310226 43.59490305185318 166.22854399681091 15.424801766872404 47.60861998796463 7.2666898965835562 25.817031383514404 155.4985494017601 38.416167914867401 64.446339786052704 649.82259082794189 214.0993669629097 39.787196040153503 201.74668329954147 218.59534639120102 437.38714849948883 38.559151411056519 116.11745971441269
leaf_count=962 154 109 152 38 83 108 36 307 88 21 51 69 164 31 157 20 33 3 4 76 15 51 250 63 27 93 166 199 11 80
internal_value=-6.03644e-05 0.0181988 -0.0719449 -0.0123033 0.0267999 -0.00313373 -0.0170081 0.0348643 0.00561814 0.0266506 0.0441425 0.0231823 0.0101131 0.0319406 -0.0425146 -0.00619129 -0.0518195 -0.0939661 0.0117532 -0.0032817 -0.0261415 -0.0106304 0.033961 0.017734 0.0251015 0.0292213 -0.0335826 0.0114585 0.00688096 0.00120609
internal_weight=5973.43 4763.48 1209.96 1047.77 3715.71 927.807 607.513 2691.13 1024.58 1427.45 1263.68 320.294 913.351 269.655 517.859 463.493 144.02 692.097 119.516 448.068 137.893 102.863 963.713 648.886 455.633 415.846 384.824 463.735 310.175 271.616
internal_count=3621 2181 1440 722 1459 568 430 915 544 553 362 138 456 100 475 289 141 965 55 269 102 66 333 292 183 156 323 220 167 156
is_linear=0
shrinkage=0.05


Tree=6
num_leaves=31
num_cat=0
split_feature=4 0 4 5 10 16 1 11 14 2 5 2 2 10 10 11 8 10 3 1 2 13 15 5 5 0 13 13 10 6
split_gain=2908.24 454.639 319.97 273.348 230.392 110.637 79.9073 64.371 75.3007 63.6789 58.495 67.6683 58.0997 63.5418 48.1918 44.3506 43.0877 38.1557 36.4698 36.0332 40.9577 35.8927 34.3874 32.2583 31.3288 30.657 30.4621 29.5307 28.0697 29.3951
threshold=1.3357142857142845 1.0000000180025095e-35 0.27142857142857019 33.250000000000007 23.125000000000004 18.995000000000001 6.5500000000000007 25.996428571428577 24.850000000000005 1.0000000180025095e-35 69.65000000000002 5.7500000000000009 0.25000000000000006 22.475000000000005 20.525000000000002 24.803571428571434 347.50000000000006 22.275000000000002 0.15000000000000005 13.950000000000001 7.7500000000000009 91.357142857142875 16.76428571428572 19 15.549999999999997 13.950000000000001 73.214285714285737 91.619047619047635 27.625000000000004 2.8433333333333342
decision_type=2 2 2 2 2 2 2 2 2 2 2 2 2 2 2 2 2 2 2 2 2 2 2 2 2 2 2 2 2 2
left_child=2 4 16 6 21 9 12 8 27 -6 11 18 24 -14 -4 -8 -1 -12 -5 20 23 -2 -23 -9 -3 -26 -16 -7 29 -20
right_child=1 3 14 10 5 7 15 19 -10 -11 17 -13 13 -15 26 -17 -18 -19 28 -21 -22 22 -24 -25 25 -27 -28 -29 -30 -31
leaf_value=-0.094812819364664735 -0.089756728644816375 0.0067369066010002383 -0.089957061617406617 0.050892480727597438 0.045472633872971215 -0.075268403666907277 -0.067528037229247537 -0.030871054311056984 0.032354227984306712 -0.024550165544586458 -0.011928878079618885 0.016839308151250947 -0.081348207337391579 0.006074530044385372 -0.020077397996728214 -0.0090739956277897469 0.027866468530541762 0.051363630448207555 -0.017913053612284929 0.057888273252791514 -0.074055807726962838 -0.067665678336798887 0.042033744138770535 0.022657605706648595 0.034103214480926028 -0.015471947612043367 -0.04626379976066039 -0.01728825211741054 0.062314331655045158 0.030856263763558513
leaf_weight=654.51461338996887 115.87385642528534 194.43431639671326 45.503516674041748 343.96206694841385 124.56932210922241 97.762710988521576 39.004178702831268 47.115659177303314 25.249128758907318 43.913929402828217 24.910382986068726 625.11378413438797 21.32912266254425 814.78722369670868 182.05356031656265 193.10051935911179 7.236467480659484 540.01887398958206 32.259081482887268 22.345493495464325 21.44747269153595 20.576570510864261 10.943077385425566 69.904151201248169 438.98085349798203 33.569395184516907 284.78367215394974 28.323733448982239 68.028167247772217 731.9594978094101
leaf_count=962 158 102 61 85 35 114 41 37 10 32 15 276 24 428 140 123 3 128 20 5 23 24 4 31 150 22 274 21 13 260
internal_value=-7.00312e-05 0.0174152 -0.0705042 0.0234814 -0.0222014 -0.00543079 0.00840791 -0.0230551 -0.046461 0.0272217 0.034535 0.0301325 0.0126243 0.0038444 -0.0408394 -0.0188969 -0.0934713 0.0485728 0.0371974 -0.00102863 -0.0105365 -0.0768881 -0.0295799 0.00110537 0.0236305 0.0305815 -0.0360518 -0.0622439 0.0315373 0.0287976
internal_weight=5903.57 4729.48 1174.09 4101.46 628.025 480.632 1735.21 312.148 151.336 168.483 2366.25 1801.32 1503.1 836.116 512.341 232.105 661.751 564.929 1176.21 160.813 138.467 147.394 31.5196 117.02 666.985 472.55 466.837 126.086 832.247 764.219
internal_count=3621 2181 1440 1687 494 308 890 241 145 67 797 654 726 452 475 164 965 143 378 96 91 186 28 68 274 172 414 135 293 280
is_linear=0
shrinkage=0.05


Tree=7
num_leaves=31
num_cat=0
split_feature=4 5 10 0 2 4 0 16 10 10 4 2 5 13 1 10 0 13 8 2 13 0 2 4 14 1 1 4 4 6
split_gain=2717.94 546.153 296.6 124.442 122.322 111.91 102.528 76.0585 70.2933 70.0397 69.0848 67.898 53.5448 56.1235 50.5198 48.7947 40.8479 39.9185 39.8453 36.9006 35.7239 35.6511 31.9425 34.6885 25.3408 48.7037 25.0698 25.0109 24.9498 24.754
threshold=0.74285714285714166 33.250000000000007 20.725000000000005 0.15000000000000005 1.0000000180025095e-35 0.18571428571428525 0.65000000000000002 17.975000000000005 25.325000000000006 20.925000000000004 2.2285714285714282 0.25000000000000006 69.65000000000002 90.928571428571445 3.5500000000000003 25.075000000000006 1.3500000000000003 90.214285714285737 344.50000000000006 13.250000000000002 91.500000000000014 4.1500000000000012 18.350000000000005 14.800000000000002 19.450000000000003 0.45000000000000007 5.8500000000000005 6.9357142857142859 3.0642857142857141 7.291666666666667
decision_type=2 2 2 2 2 2 2 2 2 2 2 2 2 2 2 2 2 2 2 2 2 2 2 2 2 2 2 2 2 2
left_child=5 2 16 4 7 18 9 -4 -9 -3 14 -12 13 -8 17 28 -2 21 -1 24 -21 -5 -14 29 25 -11 -15 -28 -13 -24
right_child=1 6 3 10 -6 -7 12 8 -10 19 11 15 22 26 -16 -17 -18 -19 -20 20 -22 -23 23 -25 -26 -27 27 -29 -30 -31
leaf_value=-0.096123313147800302 -0.08966204057412562 -0.063491003924690023 0.031246551875698136 0.012066203933000258 -0.044274788019440001 -0.055830046362805578 0.041811051241973332 -0.06941111345893354 -8.6788338435550848e-05 -0.030242601401912102 0.029314724792713066 -0.067656089930489854 0.053640909360017253 0.029174411618646125 -0.054178596884422753 0.01164953694697444 -0.032799029717099915 -0.04510813543535569 0.019608410791715315 -0.074108755659994627 0.0069111610559662463 -0.027446050836005209 -0.037964970564445054 0.063389838702375134 0.04923308670159985 0.026410849290499635 -0.0030500011711037684 0.022772173842115492 -0.010955465589744376 0.030241341426287233
leaf_weight=577.50035881996155 100.02481055259705 33.292089104652405 131.92637830972672 266.57271331548691 255.07483488321304 272.30145686864853 626.99139750003815 49.500180065631866 139.94744151830673 50.600526571273804 471.58464950323105 22.387708723545074 447.93870180845261 601.9322344660759 53.716394126415253 665.50037956237793 46.15667724609375 48.008733987808228 7.5342788696289054 21.704588651657104 36.461220562458038 72.646472692489624 26.932124853134155 29.405928134918213 60.004871726036072 151.56801599264145 150.76959365606308 248.05954205989838 145.44522964954376 26.286016583442688
leaf_count=896 142 41 50 140 235 297 183 58 87 40 173 22 98 216 50 327 38 43 4 24 20 55 19 5 16 62 81 98 92 9
internal_value=-7.97382e-05 0.0140752 -0.00262736 0.00172101 -0.0184217 -0.0823086 0.0304888 0.00209798 -0.0182003 0.00553321 0.00837171 0.0141534 0.0345777 0.0300815 -0.00873852 0.00557362 -0.0717076 -0.00243506 -0.0946329 0.0127067 -0.0233214 0.00360434 0.0483719 0.0198064 0.0206999 0.0122311 0.0227327 0.0130106 -0.0185189 -0.00427585
internal_weight=5837.78 4980.44 2468.49 2322.31 576.449 857.336 2511.95 321.374 189.448 353.631 1745.86 1304.92 2158.32 1627.75 440.944 833.333 146.181 387.228 585.035 320.339 58.1658 339.219 530.563 82.6241 262.173 202.169 1000.76 398.829 167.833 53.2181
internal_count=3621 2424 1512 1332 430 1197 912 195 145 203 902 614 709 578 288 441 180 238 900 162 44 195 131 33 118 102 395 179 114 28
is_linear=0
shrinkage=0.05


Tree=8
num_leaves=31
num_cat=0
split_feature=4 5 10 4 0 2 0 16 10 10 4 2 5 13 8 1 10 0 13 2 13 0 2 4 2 16 11 13 14 16
split_gain=2536.17 497.258 276.087 117.863 113.001 111.648 93.238 69.0449 65.4526 64.3277 62.5199 61.7092 50.5165 51.8944 47.4918 46.4092 44.1367 40.975 36.3971 33.5621 33.3516 32.2605 29.4547 32.0674 25.1332 24.5951 33.5757 29.2354 27.2638 23.615
threshold=0.74285714285714166 33.250000000000007 20.725000000000005 0.18571428571428525 0.15000000000000005 1.0000000180025095e-35 0.65000000000000002 17.975000000000005 25.325000000000006 20.925000000000004 2.2285714285714282 0.25000000000000006 69.65000000000002 90.928571428571445 347.50000000000006 3.5500000000000003 25.075000000000006 1.3500000000000003 90.214285714285737 13.250000000000002 91.500000000000014 4.1500000000000012 18.350000000000005 14.800000000000002 5.8500000000000005 15.855000000000002 26.092857142857145 93.928571428571445 20.850000000000005 27.415000000000003
decision_type=2 2 2 2 2 2 2 2 2 2 2 2 2 2 2 2 2 2 2 2 2 2 2 2 2 2 2 2 2 2
left_child=3 2 17 14 5 7 9 -4 -9 -3 15 -12 13 24 -1 18 -13 -2 21 25 -21 -6 -14 -24 -8 -11 27 28 -27 -7
right_child=1 6 4 -5 10 29 12 8 -10 19 11 16 22 -15 -16 -17 -18 -19 -20 20 -22 -23 23 -25 -26 26 -28 -29 -30 -31
leaf_value=-0.095750342815998743 -0.088746856839422253 -0.061557834849661291 0.029829962235269226 -0.053878750098221406 0.011471251702463513 -0.037170469750744124 0.046049888974894045 -0.067569001104232959 -8.2449384069941618e-05 0.04897698319597861 0.027969262486364367 -0.017659724451765755 0.051703168234256927 0.021666076846178856 0.042925149183316795 -0.052236800674169803 0.011074581304660013 -0.031327719196822174 -0.043293491759069089 -0.072392028873504197 0.0065671731809366493 -0.026172404750548762 -0.0040873212454513646 0.061455729048691843 0.023165658921970499 -0.035578066883810551 0.036981969151687527 0.02923844715204529 0.03902651795669914 -0.086509384696473846
leaf_weight=552.75412029027939 96.103360176086426 32.63773375749588 131.2984231710434 268.16319781541824 266.38350534439087 225.46182137727737 459.23188883066177 48.337319195270538 139.94743567705154 56.494000673294067 469.60894221067429 167.24816828966141 441.65467101335526 997.62970650196075 6.2436255216598502 52.947633981704712 665.06008619070053 45.914600729942322 47.532477200031281 21.123334646224976 36.452730476856232 72.379687249660492 52.911693274974823 28.829794406890869 162.41570943593979 67.069076895713806 79.933714210987091 42.244985520839691 14.981473684310911 27.175252497196198
leaf_count=898 142 41 50 297 140 199 119 58 87 15 173 114 98 395 2 50 327 38 43 24 20 55 28 5 64 55 27 16 5 36
internal_value=-8.8181e-05 0.0134567 -0.00251514 -0.0811289 0.00163899 -0.0176374 0.0291838 0.00199943 -0.0174079 0.00529382 0.00797403 0.0134773 0.0330966 0.0287318 -0.0942014 -0.00833766 0.00530057 -0.0701832 -0.00232062 0.0121486 -0.0224011 0.00342836 0.0466003 0.0190294 0.040071 0.0197784 0.0117014 -0.00455636 -0.0219561 -0.0424777
internal_weight=5776.17 4949.01 2455.4 827.161 2313.38 572.22 2493.61 319.583 188.285 350.937 1741.16 1301.92 2142.67 1619.28 558.998 439.243 832.308 142.018 386.296 318.299 57.5761 338.763 523.396 81.7415 621.648 260.723 204.229 124.296 82.0506 252.637
internal_count=3621 2424 1512 1197 1332 430 912 195 145 203 902 614 709 578 900 288 441 180 238 162 44 195 131 33 183 118 103 76 60 235
is_linear=0
shrinkage=0.05


Tree=9
num_leaves=31
num_cat=0
split_feature=4 4 10 0 4 10 17 2 4 16 0 4 16 1 2 8 10 17 0 1 4 14 13 11 13 4 10 13 2 13
split_gain=2365.24 457.527 179.489 152.807 123.679 95.6743 115.31 84.686 66.2574 64.5672 59.9736 56.5366 58.7581 50.8813 46.2794 45.5754 39.1453 38.5975 37.9902 34.8714 34.2934 33.6172 51.4576 52.5177 31.6649 32.3504 30.345 30.1439 27.4693 26.843
threshold=0.74285714285714166 4.0000000000000009 20.725000000000005 0.45000000000000007 0.18571428571428525 23.425000000000004 12.510714285714288 1.2500000000000002 6.7928571428571436 15.855000000000002 1.0000000180025095e-35 1.3357142857142845 25.985000000000003 5.5500000000000007 18.850000000000005 347.50000000000006 22.175000000000004 16.767857142857146 1.3500000000000003 9.2500000000000018 14.800000000000002 19.450000000000003 91.500000000000014 26.710714285714293 91.357142857142875 11.164285714285715 25.525000000000002 68.357142857142875 1.8500000000000003 87.928571428571445
decision_type=2 2 2 2 2 2 2 2 2 2 2 2 2 2 2 2 2 2 2 2 2 2 2 2 2 2 2 2 2 2
left_child=4 2 18 5 15 6 -3 11 13 -7 -9 27 19 26 24 -1 -15 -11 -2 29 -16 22 23 -19 -10 -26 -5 -4 -18 -13
right_child=1 3 7 8 -6 9 -8 10 14 17 -12 12 -14 16 20 -17 28 21 -20 -21 -22 -23 -24 -25 25 -27 -28 -29 -30 -31
leaf_value=-0.095333282815231624 -0.086023184875708841 0.044455658009753457 0.019616258524596277 0.015169122925381702 -0.051939157464616151 0.058199979810733993 -0.080389586496226795 -0.055654564396609034 0.052245074786165649 -0.064658504041075315 -0.011349229661727809 0.020945872329032257 -0.031444758004284583 -0.060642730555236529 -0.00533492310992386 0.041158352500786727 0.025285419252565708 -0.062921914788803809 -0.027881506825917099 -0.045258055510351863 0.061548671584711757 0.042085777233296262 0.01908745598279922 0.011956924337128012 0.028960910822557709 0.051197485151104644 0.034990040617221614 -0.027300925742037629 -0.0016761538386639453 0.0024324122762131905
leaf_weight=528.03940558433533 78.152345299720764 25.225762009620667 42.502318203449249 295.15331304073334 264.36775684356689 57.27007120847702 69.32080465555191 91.997444570064545 373.68255698680878 21.356952130794525 449.98166382312775 612.90280055999756 79.20445328950882 20.54486209154129 97.769303560256958 6.1875374317169181 168.84488254785538 54.285098850727081 43.864609003067017 24.640210688114166 23.837946891784668 50.055053353309631 114.50720155239105 41.180839419364929 625.79548895359039 221.43929839134216 558.4617931842804 176.01284199953079 214.46814626455307 287.69728618860245
leaf_count=898 119 9 21 126 297 12 95 98 85 21 296 267 65 19 53 2 63 58 36 22 4 17 53 21 216 48 179 150 114 157
internal_value=-9.57741e-05 0.012859 -0.00647216 0.024885 -0.0799105 -0.00260872 -0.0470799 -0.00241751 0.0294659 0.00980685 -0.0188698 0.00487364 0.0098879 0.0212185 0.0371907 -0.0937524 0.00659622 -4.25672e-05 -0.0651215 0.0134261 0.00777587 0.00526455 -0.00351319 -0.0306217 0.0401205 0.0347728 0.0281366 -0.0181753 0.0102001 0.0150317
internal_weight=5718.75 4920.16 1886.96 3033.2 798.595 433.202 94.5466 1764.94 2600 338.655 541.979 1222.96 1004.44 1257.47 1342.52 534.227 403.858 281.385 122.017 925.24 121.607 260.028 209.973 95.4659 1220.92 847.235 853.615 218.515 383.313 900.6
internal_count=3621 2424 1231 1193 1197 286 104 1076 907 182 394 682 511 501 406 900 196 170 155 446 57 149 132 79 349 264 305 171 177 424
is_linear=0
shrinkage=0.05


Tree=10
num_leaves=31
num_cat=0
split_feature=4 4 10 0 4 10 2 4 15 0 4 16 1 2 8 15 0 15 13 11 4 1 14 3 13 13 4 3 8 10
split_gain=2204.41 416.267 166.852 138.217 129.193 90.455 76.6823 61.4163 60.8372 55.5563 51.1637 53.21 48.0349 43.9921 43.7486 39.7403 37.5633 34.3487 33.2584 43.1811 32.1043 31.6744 31.388 28.6261 28.1048 27.0472 26.4629 26.0601 25.7951 24.6868
threshold=0.74285714285714166 4.0000000000000009 20.725000000000005 0.45000000000000007 0.18571428571428525 20.925000000000004 1.2500000000000002 7.1214285714285719 16.792857142857148 1.0000000180025095e-35 1.3357142857142845 25.985000000000003 5.5500000000000007 18.850000000000005 347.50000000000006 12.707142857142859 1.3500000000000003 19.37857142857143 92.071428571428584 27.067857142857147 14.800000000000002 9.2500000000000018 24.850000000000005 0.15000000000000005 73.214285714285737 91.357142857142875 11.164285714285715 10.450000000000001 362.50000000000006 22.175000000000004
decision_type=2 2 2 2 2 2 2 2 2 2 2 2 2 2 2 2 2 2 2 2 2 2 2 2 2 2 2 2 2 2
left_child=4 2 16 5 14 -3 10 12 15 -8 24 21 23 25 -1 -7 -2 -10 19 -17 27 -12 -19 -5 -4 -9 -27 -15 -13 -14
right_child=1 3 6 7 -6 8 9 13 17 -11 11 28 29 20 -16 18 -18 22 -20 -21 -22 -23 -24 -25 -26 26 -28 -29 -30 -31
leaf_value=-0.094878446111967482 -0.084862653919516765 -0.07048767158774441 0.0039724340286343869 0.040793735063345521 -0.050017283646005196 0.031337478463261785 -0.053704062629253341 0.051946043110691592 0.038177284248494897 -0.010788722499125013 0.014301867361005891 -0.043018779699449311 -0.039955829408579953 -0.024821782551369905 0.039434686873356682 -0.06768630305608539 -0.026590870798424284 -0.040244176067860099 0.0013456135612742847 0.0068377647760632272 0.059600761104308987 -0.043440354982446985 0.048864038647842889 0.021663219561300916 -0.032472725013071087 0.028772268651604951 0.049283940174693626 0.030965928073496275 0.032923546063557858 0.010521500219754905
leaf_weight=504.63506108522415 75.332121729850769 43.925317049026489 90.520281612873077 281.87913811206818 260.89061659574509 38.929609775543213 90.608104050159454 312.33379310369492 139.61043298244476 449.69910728931427 899.28088492155075 65.331953465938568 25.665474414825439 61.703534185886383 6.136435627937316 63.188580453395844 43.698368787765503 31.004952013492584 68.442561149597168 28.073075592517853 23.397644996643066 24.394146800041199 14.506245315074919 638.46150946617126 127.27557855844498 560.17470395565033 218.609375 31.681525468826294 13.490697026252745 430.71321523189545
leaf_count=898 119 63 56 80 297 15 98 69 49 296 424 60 21 40 2 72 36 28 40 15 4 22 4 247 115 190 48 11 5 197
internal_value=-0.000102162 0.0122871 -0.00617706 0.0238084 -0.0786433 -0.00252097 -0.00230361 0.0281651 0.00525861 -0.0179855 0.00463984 0.00941186 0.0209457 0.0363936 -0.0932648 -0.0139603 -0.06347 0.0258803 -0.0250021 -0.0447619 0.00722687 0.0127769 -0.0118418 0.0275225 -0.0173254 0.0395154 0.03453 -0.00589542 -0.0300211 0.00768279
internal_weight=5663.59 4891.93 1879.63 3012.3 771.662 427.681 1760.6 2584.62 383.755 540.307 1220.29 1002.5 1376.72 1207.9 510.771 198.634 119.03 185.122 159.704 91.2617 116.783 923.675 45.5112 920.341 217.796 1091.12 778.784 93.3851 78.8227 456.379
internal_count=3621 2424 1231 1193 1197 286 1076 907 223 394 682 511 545 362 900 142 155 81 127 87 55 446 32 327 171 307 238 51 65 218
is_linear=0
shrinkage=0.05


Tree=11
num_leaves=31
num_cat=0
split_feature=4 5 10 4 0 2 10 15 16 10 4 13 0 14 4 8 1 0 2 2 2 13 12 2 16 8 12 5 9 16
split_gain=2052.97 381.958 228.751 134.345 98.7132 91.4903 75.7013 81.9043 54.9702 60.8475 53.6221 55.396 53.5529 59.3321 42.3042 42.004 41.7532 40.6747 39.7239 38.1791 34.559 33.0207 32.3417 27.2912 26.2972 35.8519 26.0179 26.2177 24.8081 24.3509
threshold=0.74285714285714166 34.450000000000003 20.725000000000005 0.18571428571428525 0.15000000000000005 1.0000000180025095e-35 20.675000000000004 16.264285714285716 17.975000000000005 25.325000000000006 2.2285714285714282 80.928571428571445 2.1500000000000008 19.050000000000004 9.3642857142857157 347.50000000000006 3.5500000000000003 1.3500000000000003 14.450000000000001 1.0000000180025095e-35 5.7500000000000009 88.642857142857153 91.500000000000014 8.7500000000000018 21.265000000000004 42.500000000000007 96.500000000000014 29.149999999999995 2.5000000000000004 27.415000000000003
decision_type=2 2 2 2 2 2 2 2 2 2 2 2 2 2 2 2 2 2 2 2 2 2 2 2 2 2 2 2 2 2
left_child=3 2 17 15 5 8 7 28 -4 -10 16 -12 13 18 21 -1 22 -2 19 -8 26 -14 -6 -23 -21 -26 27 -13 -3 -7
right_child=1 6 4 -5 10 29 12 -9 9 -11 11 20 14 -15 -16 -17 -18 -19 -20 24 -22 23 -24 -25 25 -27 -28 -29 -30 -31
leaf_value=-0.094383037959800797 -0.085877035993278963 0.046219561572078273 0.026108929188728383 -0.048118714951161393 0.0067708879946630903 -0.033866008174948149 -0.043183062048008466 -0.072239663089435663 -0.06560270203391165 0.00034399810694603827 0.035033068975627669 0.008724656978725525 0.042717001223893353 0.039349309907952212 0.04368204160557837 0.037756750735100375 -0.0499151537468773 -0.027491128588143676 -0.028960734159412155 0.032079761855654788 -0.010915594142017615 0.026854341433936908 -0.025704052959096002 0.005220914771471033 0.02804634848261027 -0.018403355994787114 -0.010227714916532455 0.027803307691859527 -0.019451192750937304 -0.084496224132676503
leaf_weight=482.48106634616852 87.119769155979156 36.378922462463379 130.59874707460403 257.70847690105438 278.35903131961823 222.03420394659042 28.91984635591507 39.740045487880707 46.70200127363205 139.33575522899628 223.59543877840042 543.71827644109726 254.40349280834198 176.22193646430969 562.02012813091278 6.0899115800857535 51.99499499797821 45.361288547515869 72.257655799388885 149.33391565084457 202.55346781015396 682.3269516825676 105.80878925323486 185.39589107036591 77.665890157222748 89.313995838165283 116.44154697656631 269.23389530181885 23.782529413700104 26.592790544033051
leaf_count=898 144 12 52 297 154 200 23 45 58 87 74 271 67 53 140 2 50 38 55 52 126 241 84 88 29 59 71 96 17 38
internal_value=-0.000107705 0.0117324 -0.00195655 -0.0773285 0.0016368 -0.0165807 0.0260644 -0.0165362 0.00124416 -0.0162109 0.00738422 0.0122908 0.0279327 0.0150205 0.0324847 -0.0927359 -0.00786476 -0.0658858 0.00475143 0.0118074 0.00779844 0.0268764 -0.00217347 0.0222322 0.0168351 0.00320139 0.011877 0.0150431 0.0202591 -0.0392813
internal_weight=5613.49 4867.21 2489.45 746.279 2356.97 565.263 2377.76 99.9015 316.637 186.038 1791.71 1355.54 2277.86 593.713 1684.15 488.571 436.163 132.481 417.491 345.234 1131.95 1122.13 384.168 867.723 316.314 166.98 929.394 812.952 60.1615 248.627
internal_count=3621 2424 1543 1197 1361 435 881 74 197 145 926 638 807 271 536 900 288 182 218 163 564 396 238 329 140 88 438 367 29 238
is_linear=0
shrinkage=0.05


Tree=12
num_leaves=31
num_cat=0
split_feature=4 5 10 4 0 2 10 15 16 10 16 4 13 10 0 1 2 4 8 0 4 13 13 13 2 2 1 0 16 17
split_gain=1910.62 347.258 212.078 139.24 89.5782 83.4657 68.6478 75.8851 49.8375 56.4392 49.7903 49.1192 54.6848 44.949 55.4898 42.8948 41.5785 45.4389 40.5691 40.2108 38.7419 37.906 37.7387 36.8704 31.3061 28.1709 25.3855 24.9223 23.8155 23.0955
threshold=0.74285714285714166 34.450000000000003 20.725000000000005 0.17142857142857074 0.15000000000000005 1.0000000180025095e-35 20.675000000000004 16.264285714285716 17.975000000000005 25.325000000000006 21.685000000000006 2.3785714285714281 81.214285714285737 27.525000000000002 1.7500000000000002 3.5500000000000003 18.250000000000004 6.7928571428571436 347.50000000000006 1.3500000000000003 14.800000000000002 91.500000000000014 87.642857142857153 92.928571428571445 5.7500000000000009 1.6500000000000001 4.4500000000000011 7.3500000000000005 27.415000000000003 17.115000000000006
decision_type=2 2 2 2 2 2 2 2 2 2 2 2 2 2 2 2 2 2 2 2 2 2 2 2 2 2 2 2 2 2
left_child=3 2 19 18 5 8 7 -3 -4 -10 16 15 -13 14 21 25 17 23 -1 -2 -18 -12 -19 -8 26 27 -14 -6 29 -7
right_child=1 6 4 -5 11 28 10 -9 9 -11 13 12 24 -15 -16 -17 20 22 -20 -21 -22 -23 -24 -25 -26 -27 -28 -29 -30 -31
leaf_value=-0.094234261694407906 -0.08470743215467158 0.019389415538693607 0.024888380910773132 -0.046858593313645773 0.0077492827531595882 -0.063492459422612779 0.030603349663275266 -0.070467138882659389 -0.063693852131752937 0.00032679839743315117 -0.052609600628130852 0.035591016408461122 0.016808290639860664 0.039949909882204565 0.019880969982236377 -0.045485539539400197 -0.014412663836283797 0.063429214457122948 0.036126612205107315 -0.026215716216553438 0.054097460193399033 -0.00057698375466750935 0.035550047254871306 0.0035529543598362052 -0.010048631321600013 -0.033440814966924255 -0.0030179440400058175 -0.037902469634586877 -0.083243800191707906 -0.023959021877665167
leaf_weight=454.43935033679008 83.986621499061584 59.738693594932556 130.16473430395126 261.88025805354118 364.89042001962662 46.910271108150482 388.58170735836029 38.728815376758575 45.721986830234528 139.33567583560944 51.181525826454163 210.43968719244003 645.05749946832657 127.3727588057518 274.56042343378067 60.654361665248871 87.113355696201324 141.04597038030624 6.04758596420288 45.19415694475174 27.040673494338989 110.72621428966522 870.84081614017487 186.39792817831039 201.50178986787796 57.477897703647614 215.35384392738342 32.563994705677032 25.666933417320251 173.88244223594666
leaf_count=886 144 29 52 309 198 53 131 45 58 87 49 68 279 38 104 57 53 23 2 38 5 59 256 89 125 48 125 26 38 147
internal_value=-0.000112884 0.0112034 -0.00187089 -0.0759678 0.00155834 -0.0158599 0.0249166 -0.0159526 0.00118302 -0.0154907 0.0266934 0.00703028 0.0123058 0.0138169 0.0061906 -0.00598856 0.0309616 0.0330583 -0.0925222 -0.064244 0.00181593 -0.0170253 0.0394361 0.0218341 0.00769137 -0.000722579 0.0118459 0.00400897 -0.0376577 -0.0323584
internal_weight=5564.5 4842.13 2478.8 722.367 2349.62 561.682 2363.33 98.4675 315.222 185.058 2264.86 1787.94 1272.35 563.841 436.468 515.587 1701.02 1586.87 460.487 129.181 114.154 161.908 1011.89 574.98 1061.91 454.932 860.411 397.454 246.46 220.793
internal_count=3621 2424 1543 1197 1361 435 881 74 197 145 807 926 597 250 212 329 557 499 888 182 58 108 279 220 529 272 404 224 238 200
is_linear=0
shrinkage=0.05


Tree=13
num_leaves=31
num_cat=0
split_feature=4 4 4 10 10 16 1 4 2 3 0 4 16 14 8 0 2 0 12 8 0 1 0 13 1 14 0 11 11 4
split_gain=1776.82 318.599 143.711 131.245 109.533 113.806 70.5955 69.5389 62.2986 57.3855 44.0568 43.0898 45.6875 41.1601 38.9831 36.1585 32.9333 32.6851 37.8173 34.284 29.2443 27.0602 25.7034 25.1717 24.6976 23.8565 27.3477 33.9654 23.7833 23.0799
threshold=0.74285714285714166 4.0000000000000009 0.17142857142857074 20.725000000000005 22.125000000000004 16.705000000000002 15.750000000000002 7.3928571428571432 1.2500000000000002 1.0000000180025095e-35 1.0000000180025095e-35 1.3357142857142845 25.985000000000003 17.650000000000002 347.50000000000006 0.35000000000000003 18.850000000000005 0.45000000000000007 96.500000000000014 310.50000000000006 5.6500000000000012 9.2500000000000018 13.750000000000002 73.214285714285737 4.6500000000000012 22.650000000000002 1.9500000000000002 26.092857142857145 22.596428571428579 14.800000000000002
decision_type=2 2 2 2 2 2 2 2 2 2 2 2 2 2 2 2 2 2 2 2 2 2 2 2 2 2 2 2 2 2
left_child=2 3 14 15 5 6 13 9 11 -6 -10 23 21 -3 -1 -2 25 19 -19 -11 -20 -13 -22 -5 -15 26 27 -9 -4 -18
right_child=1 4 28 8 7 -7 -8 16 10 17 -12 12 -14 24 -16 -17 29 18 20 -21 22 -23 -24 -25 -26 -27 -28 -29 -30 -31
leaf_value=-0.093682505425937521 -0.084193505295377266 0.030636503186498878 -0.072376118306733225 0.0040281522545975949 0.033445693155967265 -0.097362475804718032 -0.076749246339907054 -0.0019069900148010082 -0.048914052793888094 0.0031628956218398975 -0.010066476898407924 0.013011023287825477 -0.028357433839234406 -0.084166640596181536 0.034545885510280837 -0.026866308522013899 -0.0017673851434248562 0.019453161001026422 -0.0378690554828683 -0.049340423499305938 0.017571632087843191 -0.040730240392682457 -0.035325962824162026 -0.030600831099415679 0.011683745816583954 0.057285876716138995 0.036954907534669436 0.048995192494201104 -0.036623820547300699 0.054345638260760179
leaf_weight=434.75910684466362 60.788810074329376 106.40495318174362 60.771021276712418 90.016521096229553 390.21485477685928 34.865693390369415 23.84543365240097 106.11980938911438 87.188049733638763 152.75340300798416 447.975426197052 893.09289306402206 77.584689438343048 14.119735419750215 6.0091062784194937 50.23811537027359 100.9946311712265 848.89210414886475 50.4137943983078 39.03894168138504 110.40128272771835 24.054625451564789 28.996009588241577 125.83778512477875 12.824873089790342 114.32438838481903 757.47147011756897 47.414740324020386 198.30576467514038 22.387216806411743
leaf_count=886 110 40 91 56 130 60 26 55 98 91 296 424 65 15 2 45 55 331 36 39 45 22 19 115 6 21 209 11 218 4
internal_value=-0.000117387 0.0106958 -0.0745634 -0.00554182 0.0208764 -0.0156379 0.00248856 0.0234086 -0.00218943 0.0167384 -0.0163955 0.00409063 0.0084849 0.0166578 -0.0919343 -0.0582538 0.0328197 0.0114402 0.0149418 -0.00752405 -0.00523417 0.0116015 0.00656841 -0.0161597 -0.0385446 0.0357565 0.0330547 0.0138127 -0.0450102 0.00841413
internal_weight=5518.11 4818.26 699.845 1856.78 2961.48 192.061 157.195 2769.42 1745.75 1620.71 535.163 1210.59 994.732 133.35 440.768 111.027 1148.71 1230.5 1038.7 191.792 189.811 917.148 139.397 215.854 26.9446 1025.33 911.006 153.535 259.077 123.382
internal_count=3621 2424 1197 1231 1193 147 87 1046 1076 691 394 682 511 61 888 155 355 561 431 130 100 446 64 171 21 296 275 66 309 59
is_linear=0
shrinkage=0.05


Tree=14
num_leaves=31
num_cat=0
split_feature=4 4 4 10 16 10 4 1 2 1 16 0 4 2 13 1 8 16 13 0 2 16 1 0 15 11 1 1 10 11
split_gain=1651.75 290.955 147.547 105.389 117.065 104.928 72.1027 64.6624 57.802 57.5547 56.9475 47.2514 42.3049 44.792 41.2454 38.9075 37.7064 36.2558 35.7561 33.4154 30.1592 28.6059 37.8742 28.9202 28.5118 29.4342 27.7857 25.6362 23.8625 23.3573
threshold=0.74285714285714166 3.714285714285714 0.15714285714285642 22.125000000000004 16.705000000000002 20.725000000000005 7.3928571428571432 15.750000000000002 5.3500000000000005 6.8500000000000005 28.425000000000004 0.8500000000000002 2.092857142857143 1.7500000000000002 87.928571428571445 0.45000000000000007 347.50000000000006 17.095000000000002 90.214285714285737 13.750000000000002 18.850000000000005 22.455000000000002 1.0000000180025095e-35 8.2500000000000018 17.335714285714293 24.082142857142863 3.5500000000000003 4.2500000000000009 27.725000000000005 22.596428571428579
decision_type=2 2 2 2 2 2 2 2 2 2 2 2 2 2 2 2 2 2 2 2 2 2 2 2 2 2 2 2 2 2
left_child=2 5 16 4 7 17 8 15 19 10 12 -10 13 18 21 -3 -1 -2 26 24 -8 23 28 -14 25 -5 -7 -26 -23 -4
right_child=1 3 29 6 -6 9 20 -9 11 -11 -12 -13 14 -15 -16 -17 -18 -19 -20 -21 -22 22 -24 -25 27 -27 -28 -29 -30 -31
leaf_value=-0.093511488575888091 -0.034603087676935866 -0.037424519702070495 -0.07086332838320801 -0.029189280056858415 -0.097340449150653402 0.0014884681703316921 0.034224447044084047 -0.075125185926097432 -0.028506833425451968 -0.042186005930235082 -0.078428988721764167 0.0089032717924511073 0.031287092236885243 -0.046686657145847396 -0.0061495453294424978 0.028750514165146176 0.033015751868516643 -0.097273441133953253 -0.049206959624075453 -0.0041995709297448528 0.0080180544049949197 -0.079221009869092487 0.01316947527903206 -0.0039913565467296309 0.04081076448764577 0.020031102257443294 -0.062507870068800084 0.010631632141183152 -0.0053807458781548719 -0.035606016079456175
leaf_weight=409.60752493143082 70.838671773672104 27.917683184146881 61.252913504838943 31.798194110393524 36.301824659109116 445.2207310795784 1017.9011178612709 23.160519540309906 104.23353797197342 90.143576860427856 23.388272047042847 443.74238073825836 283.23738974332809 73.673623919487 348.74912512302399 108.67883715033531 5.9741441011428824 34.228723287582397 41.856129109859467 116.60316228866577 123.05793696641922 21.107975721359253 123.303462266922 73.082082092761993 326.57311886548996 678.18985027074814 17.632728815078735 89.696379661560059 22.716271102428436 201.5183744430542
leaf_count=874 79 24 95 23 66 273 296 26 86 83 34 204 106 75 212 40 2 69 41 57 59 25 59 40 93 280 20 40 14 226
internal_value=-0.000121584 0.0102055 -0.0731501 0.0192009 -0.01629 -0.00665107 0.0215743 0.00212716 0.0153156 -0.00340196 -0.00103004 0.00178729 0.000217892 -0.0102677 0.00717126 0.0152256 -0.0916926 -0.0550198 -0.00495156 0.0212802 0.031398 0.0160463 -0.00102068 0.0240514 0.0239182 0.0178267 -0.000949517 0.0343079 -0.040946 -0.0438246
internal_weight=5475.39 4797.03 678.353 3127.85 196.059 1669.18 2931.8 159.757 1790.84 1564.11 1473.97 547.976 1450.58 578.383 872.196 136.597 415.582 105.067 504.71 1242.86 1140.96 523.447 167.128 356.319 1126.26 709.988 462.853 416.269 43.8242 262.771
internal_count=3621 2424 1197 1294 156 1130 1138 90 783 982 899 290 865 409 456 64 876 148 334 493 355 244 98 146 436 303 293 133 39 321
is_linear=0
shrinkage=0.05


Tree=15
num_leaves=31
num_cat=0
split_feature=4 5 10 4 0 2 0 10 17 16 16 10 10 4 16 2 10 0 2 10 4 4 8 12 10 12 12 12 2 12
split_gain=1534.32 264.883 163.538 150.768 68.1593 68.5673 57.2592 71.2698 75.5942 45.7092 44.9953 52.3926 44.2487 40.0736 39.1482 38.9998 40.1875 37.1031 35.3746 43.5183 30.0442 28.2828 25.9209 24.5742 23.2518 22.6703 25.8555 22.6664 22.1165 21.1709
threshold=0.74285714285714166 33.250000000000007 20.725000000000005 0.15714285714285642 0.15000000000000005 1.0000000180025095e-35 2.3500000000000001 23.425000000000004 12.510714285714288 21.265000000000004 17.975000000000005 25.325000000000006 27.525000000000002 9.3642857142857157 17.095000000000002 0.25000000000000006 23.525000000000002 2.1500000000000008 2.9500000000000006 21.075000000000006 2.714285714285714 2.2285714285714282 100.50000000000001 88.500000000000014 20.525000000000002 82.500000000000014 93.500000000000014 77.500000000000014 16.650000000000002 61.500000000000007
decision_type=2 2 2 2 2 2 2 2 2 2 2 2 2 2 2 2 2 2 2 2 2 2 2 2 2 2 2 2 2 2
left_child=3 2 14 17 5 10 7 8 -3 22 -4 -12 25 18 -2 21 -17 -1 -8 -20 -18 23 -9 -6 -5 -11 -27 -22 -21 -13
right_child=1 6 4 24 15 -7 13 9 -10 12 11 29 -14 -15 -16 16 20 -19 19 28 27 -23 -24 -25 -26 26 -28 -29 -30 -31
leaf_value=-0.092651442643978787 -0.037862156061071531 0.023150962017709147 0.023930137875355445 -0.08257342044690065 0.013461844059401255 -0.034477644899388975 0.02965469824793468 0.0045354996129268882 -0.069048599498210517 -0.050250894620662449 -0.062063808321139391 -0.026522549371532769 0.033795521070574763 0.037343950108027373 -0.09768536441586835 -0.043837403528786061 -0.011939137692867401 0.05360591173506403 -0.076125282533602748 0.017233899118615757 0.044599427550281817 0.022233881689142809 0.04005715876003943 -0.018730465163059744 -0.036565815786535991 0.0070254398268562975 -0.035789536234726881 0.0052797249394867293 -0.019919377870571287 0.01452925627664804
leaf_weight=393.69779807329178 77.262954294681549 37.365680813789368 127.57035428285599 31.207807958126068 158.33490002155304 239.28784662485123 588.41948902606964 69.429548144340515 54.88937908411026 28.775899529457092 44.340101599693298 47.960392892360687 83.375610828399658 557.98528403043747 42.329740166664124 50.738958418369293 279.91143983602524 4.3845496177673331 13.613162934780119 516.50344330072403 38.898169636726379 458.22736793756485 197.30706191062927 94.758846938610077 228.81812524795532 153.94974213838577 45.737485706806183 634.83055222034454 43.423023343086243 90.988308966159821
leaf_count=875 90 17 50 54 79 235 187 33 70 29 58 38 28 146 90 47 191 1 14 200 11 173 56 71 267 74 32 330 26 49
internal_value=-0.000125721 0.00973622 -0.00205179 -0.0716987 0.000955897 -0.0143585 0.0214979 0.00910785 -0.0317054 0.0156156 0.00112855 -0.0147415 0.00261786 0.0263304 -0.0590365 0.00586651 -0.000477508 -0.0910405 0.0210416 0.0122051 0.00182948 0.0148242 0.0308111 0.00140897 -0.0420876 -0.00876016 -0.00278114 0.00754987 0.0143526 0.000359561
internal_weight=5434.32 4776.21 2385.44 658.108 2265.85 550.147 2390.77 670.83 92.2551 578.575 310.859 183.289 311.839 1719.94 119.593 1715.7 1004.38 398.082 1161.96 573.54 953.64 711.321 266.737 253.094 260.026 228.463 199.687 673.729 559.926 138.949
internal_count=3621 2424 1512 1197 1332 430 912 339 87 252 195 145 163 573 180 902 579 876 427 240 532 323 89 150 321 135 106 341 226 87
is_linear=0
shrinkage=0.05


Tree=16
num_leaves=31
num_cat=0
split_feature=4 4 0 10 10 17 16 16 4 4 1 0 4 10 13 2 4 8 2 4 17 6 1 17 16 11 14 1 1 6
split_gain=1433.78 313.635 119.07 102.909 86.8685 88.3458 58.8369 58.2324 52.8087 49.4521 51.8108 40.9901 40.9679 60.5557 40.668 38.505 49.345 37.5674 36.8614 39.2348 30.1671 29.7259 28.5907 27.5727 26.3329 32.773 26.32 26.1759 25.4407 24.7868
threshold=0.37142857142857105 3.1285714285714286 0.65000000000000002 23.325000000000006 23.125000000000004 12.510714285714288 15.755000000000001 15.855000000000002 0.078571428571427557 6.7928571428571436 7.6500000000000012 16.150000000000002 3.5571428571428565 30.025000000000002 88.214285714285737 3.1500000000000008 1.3357142857142845 347.50000000000006 6.0500000000000007 13.621428571428574 16.613571428571429 5.325000000000002 16.150000000000002 17.017857142857146 18.185000000000006 25.546428571428578 22.150000000000002 1.9500000000000002 0.15000000000000005 1.6500000000000006
decision_type=2 2 2 2 2 2 2 2 2 2 2 2 2 2 2 2 2 2 2 2 2 2 2 2 2 2 2 2 2 2
left_child=8 3 4 6 5 -3 28 -6 17 10 11 14 13 -9 -4 16 27 -1 -11 22 -14 -7 -20 -18 -22 26 -26 -5 -2 -25
right_child=1 2 9 15 7 21 -8 12 -10 18 -12 -13 20 -15 -16 -17 23 -19 19 -21 24 -23 -24 29 25 -27 -28 -29 -30 -31
leaf_value=-0.096571025953406678 -0.00055364120780599844 0.037664179545583348 0.03562459818311315 -0.015031064210847054 0.048205689602233537 -0.085542852086637033 -0.076687545787464909 -0.085016626679472518 -0.059532969666116181 0.036647744050819012 -0.0028951173845564206 -0.014936479957826427 -0.043190762670104618 0.059939330302431627 0.015448731019398913 -0.030797267855640444 0.022640437265682867 0.031209394560784465 0.018970936222408547 0.047676284731986159 0.049454718882707124 -0.0036054418213160178 -0.013067130828654853 -0.026711929029451867 -0.031315082766321709 0.01299360459843648 0.033313592216167719 -0.070395996029882918 -0.04362844426221401 0.0032078785816807981
leaf_weight=310.62701025605202 65.619665235280991 24.292846828699112 364.64924383163452 310.90361094474792 67.220777451992035 64.689914971590042 81.455024719238281 30.062460124492645 168.18199864029884 622.93986451625824 330.17210227251053 81.237961828708649 32.654333770275116 9.4758005142211896 792.74926286935806 137.58304703235626 160.1107605099678 5.8605645895004264 437.48478084802628 102.78915357589722 33.165782749652863 13.354056298732756 82.818159580230713 79.458255112171173 89.746425151824951 245.33962607383728 19.107430994510651 22.922759830951691 71.769839763641357 537.32671111822128
leaf_count=739 49 10 109 263 16 114 137 39 285 167 181 46 27 2 329 118 64 2 161 21 8 11 44 60 79 123 7 29 79 302
internal_value=-0.000128655 0.00796825 0.0162154 -0.0113908 -0.00345018 -0.0456037 -0.0430174 0.00473903 -0.0821736 0.0206105 0.0147043 0.0193956 -0.00161903 -0.0502763 0.0218053 -0.00584624 -0.0027556 -0.0942048 0.0280468 0.019448 0.00296135 -0.0715226 0.0138713 0.00415265 0.00685196 0.00286275 -0.0199706 -0.0188328 -0.0230552 -0.000646586
internal_weight=5395.77 4911.1 3443.95 1467.15 629.109 102.337 218.845 526.773 484.67 2814.84 1568.81 1238.64 459.552 39.5383 1157.4 1248.31 1110.72 316.488 1246.03 623.092 420.014 78.044 520.303 776.896 387.359 354.193 108.854 333.826 137.39 616.785
internal_count=3621 2595 1494 1101 436 135 265 301 1026 1058 665 484 285 41 438 836 718 741 393 226 244 125 205 426 217 209 86 292 128 362
is_linear=0
shrinkage=0.05


Tree=17
num_leaves=31
num_cat=0
split_feature=4 4 0 10 10 14 4 4 1 4 2 0 0 13 4 8 8 2 4 3 2 11 16 10 15 10 15 1 3 1
split_gain=1344.78 299.495 107.586 100.549 82.1558 52.9509 47.7513 45.1992 46.956 43.557 40.4115 39.7363 37.1082 37.2952 36.9942 36.7857 34.8511 33.8146 36.1706 29.331 29.2163 28.5308 28.2593 26.8292 43.0528 35.0662 26.2173 25.851 25.3194 27.6836
threshold=0.32857142857142713 3.1285714285714286 0.65000000000000002 21.875000000000004 20.925000000000004 24.850000000000005 3.5571428571428565 6.7928571428571436 7.6500000000000012 1.3357142857142845 3.1500000000000008 0.35000000000000003 16.150000000000002 88.214285714285737 0.057142857142856392 347.50000000000006 237.50000000000003 6.0500000000000007 13.621428571428574 1.0000000180025095e-35 0.35000000000000003 25.610714285714288 16.705000000000002 27.525000000000002 16.492857142857147 23.725000000000005 18.007142857142863 16.150000000000002 0.8500000000000002 1.4500000000000002
decision_type=2 2 2 2 2 2 2 2 2 2 2 2 2 2 2 2 2 2 2 2 2 2 2 2 2 2 2 2 2 2
left_child=14 3 4 11 22 6 26 8 12 20 19 -2 13 -4 15 -1 23 -9 27 -11 28 -18 -3 24 25 -8 -6 -19 29 -5
right_child=1 2 7 9 5 -7 16 17 -10 10 -12 -13 -14 -15 -16 -17 21 18 -20 -21 -22 -23 -24 -25 -26 -27 -28 -29 -30 -31
leaf_value=-0.097052918214871123 -0.075146837592478977 -0.017938056453493129 0.034059661457260366 0.0025183237965739728 -0.080990760787055915 0.054155541141846258 -0.07800138054536028 0.035050912503823715 -0.0027504766037505044 0.015480052659499526 -0.026501831968955187 -0.02350084753101081 -0.014205515522500024 0.014693843823337311 -0.063720521371140135 0.029794144839182576 -0.045265300009723751 0.018054906183176508 0.045813500028005674 -0.004238514291583147 -0.043300097897482175 -0.0016558530628340189 -0.098800146326578867 0.043912426867897564 0.026030455095431251 -0.0043447022323644642 0.0093575640688379046 -0.012424390392337854 -0.035200664853475651 -0.06500692917647892
leaf_weight=284.47401344776154 77.425438493490219 17.510100126266479 362.39306724071503 185.86814266443253 28.380662947893143 44.550874590873718 18.434521555900574 618.86099588871002 330.1586098074913 298.2841380238533 135.32344496250153 71.764557600021362 81.149607002735138 791.82690107822418 147.02066197991371 5.8327350616455069 58.36185023188591 436.71720570325851 101.65003621578217 512.81142401695251 106.80525958538055 104.94919770956039 28.214475274085999 52.136712551116943 128.60010379552841 130.8821941614151 11.197494268417357 82.749220371246338 87.38113135099411 16.528308749198914
leaf_count=712 141 20 109 132 39 10 26 167 181 140 113 66 46 329 276 2 60 161 21 312 122 63 63 15 52 81 7 44 90 21
internal_value=-0.000131223 0.00733611 0.0154735 -0.0113619 -0.00331817 0.00179006 -0.00258739 0.019648 0.0139998 -0.00703599 -0.0012071 -0.0503037 0.0184764 0.0207742 -0.0841555 -0.0945044 0.00165164 0.026779 0.0185371 0.00301308 -0.0209463 -0.0172404 -0.0678342 0.0109994 0.00482503 -0.0134383 -0.0554293 0.0131997 -0.0127072 -0.00299599
internal_weight=5358.24 4920.92 3428.72 1492.19 623.218 577.494 532.943 2805.51 1565.53 1343 946.419 149.19 1235.37 1154.22 437.327 290.307 493.365 1239.98 621.116 811.096 396.583 163.311 45.7246 330.054 277.917 149.317 39.5782 519.466 289.778 202.396
internal_count=3621 2631 1494 1137 436 353 343 1058 665 930 565 207 484 438 990 714 297 393 226 452 365 123 83 174 159 107 46 205 243 153
is_linear=0
shrinkage=0.05


Tree=18
num_leaves=31
num_cat=0
split_feature=4 4 10 10 16 5 2 0 4 4 0 13 2 8 13 10 2 3 10 0 11 16 1 3 1 17 10 10 16 13
split_gain=1258.9 271.438 99.1891 92.8344 73.1334 70.4154 76.9178 41.1217 39.6801 39.5781 38.2902 36.6527 36.5965 35.6435 27.3218 29.9517 26.8032 26.5017 25.9929 37.9568 38.9184 24.5409 23.3314 23.0423 25.5407 22.8217 22.8666 21.6352 42.97 38.8964
threshold=0.32857142857142713 3.1285714285714286 20.675000000000004 21.875000000000004 6.8150000000000004 48.100000000000001 5.3500000000000005 0.65000000000000002 0.057142857142856392 1.3357142857142845 0.35000000000000003 87.500000000000014 3.1500000000000008 347.50000000000006 80.928571428571445 25.175000000000004 0.35000000000000003 1.0000000180025095e-35 26.875000000000004 1.9500000000000002 22.87857142857143 18.885000000000002 5.5500000000000007 0.8500000000000002 1.4500000000000002 13.689285714285718 19.625000000000004 25.475000000000005 19.525000000000002 90.500000000000014
decision_type=2 2 2 2 2 2 2 2 2 2 2 2 2 2 2 2 2 2 2 2 2 2 2 2 2 2 2 2 2 2
left_child=8 3 4 10 -3 6 14 -8 13 16 25 -7 17 -1 -4 21 23 22 19 20 -13 -16 -11 24 -5 26 -2 28 29 -19
right_child=1 2 5 9 -6 11 7 -9 -10 12 -12 18 -14 -15 15 -17 -18 27 -20 -21 -22 -23 -24 -25 -26 -27 -28 -29 -30 -31
leaf_value=-0.096757425262078381 -0.096153554312111034 0.011021764681850793 0.033308653684875247 0.0023924836033475836 -0.067918154972735498 0.049509896278548675 -0.034195152000397466 0.00085328543178042116 -0.061789571175224045 0.018859241935015744 -0.022387679515152192 0.051349904954083148 -0.02526553886117279 0.028430724344641646 0.0097261257019021132 0.018847832502537527 -0.041524642760253923 0.020433965260839182 0.043172073207459298 0.024075445529562912 -0.011258661124620185 -0.017616697572292995 -0.032616013187739989 -0.033649263482505236 -0.063090324180035864 -0.0923863048024684 0.0042987224447091875 0.0013594295190322285 -0.073140031307232747 -0.054220414376007289
leaf_weight=271.40608152747154 9.071229040622713 55.973750799894333 199.29474014043808 185.86239659786224 61.661992758512497 139.17835181951523 106.58035516738892 389.67157477140427 144.1100389957428 273.99944525957108 71.571333408355713 29.668616354465485 134.86009109020233 5.8074929714202872 313.00496008992195 842.59288626909256 105.82896846532822 53.304160118103027 133.75281125307083 880.73597139120102 151.92901408672333 111.22201246023178 23.936229288578033 86.853273928165436 16.187743991613388 51.133481383323669 15.088746845722197 402.15401989221573 31.370578348636627 25.937752366065979
leaf_count=712 20 27 67 132 98 31 102 197 276 119 66 7 113 2 142 338 122 23 32 283 87 83 21 90 21 108 13 227 39 23
internal_value=-0.000133265 0.00699459 0.0147582 -0.0108347 -0.0303568 0.0163676 0.0103407 -0.00667409 -0.0830714 -0.00669939 -0.0485734 0.0252251 -0.00114797 -0.0941348 0.0160999 0.0133926 -0.0199975 0.00286398 0.0223993 0.0197839 -0.00102995 0.0025575 0.0147237 -0.0121119 -0.00285383 -0.0734646 -0.0334176 -0.00402695 -0.0236102 -0.00400218
internal_weight=5323.75 4902.43 3415.27 1487.16 117.636 3297.63 1962.37 496.252 421.324 1340.29 146.865 1335.26 945.562 277.214 1466.11 1266.82 394.732 810.702 1196.09 1062.33 181.598 424.227 297.936 288.903 202.05 75.2935 24.16 512.767 110.612 79.2419
internal_count=3621 2631 1494 1137 125 1369 929 299 990 930 207 440 565 714 630 563 365 452 409 377 94 225 140 243 153 141 33 312 85 46
is_linear=0
shrinkage=0.05


Tree=19
num_leaves=31
num_cat=0
split_feature=4 4 10 10 0 16 14 11 16 13 5 2 4 16 0 17 10 2 4 13 12 0 1 1 3 3 1 13 10 0
split_gain=1177.69 245.955 91.7244 86.4932 74.534 57.1579 48.4245 44.6419 55.9792 68.8749 42.3752 51.6997 42.3574 34.7917 34.6752 33.1943 31.0973 30.8511 36.5665 27.0233 24.4107 24.9163 24.2787 23.8581 23.3928 29.7998 24.8891 23.0987 23.397 22.6606
threshold=0.32857142857142713 3.1285714285714286 17.675000000000001 23.325000000000006 0.65000000000000002 15.755000000000001 24.850000000000005 26.092857142857145 15.535000000000002 90.642857142857153 69.65000000000002 5.7500000000000009 0.057142857142856392 28.425000000000004 2.1500000000000008 12.214285714285717 27.525000000000002 1.0000000180025095e-35 1.4642857142857135 88.071428571428584 72.500000000000014 7.3500000000000005 3.7500000000000004 0.15000000000000005 0.65000000000000002 23.100000000000005 1.7500000000000002 80.214285714285737 27.975000000000005 9.5500000000000025
decision_type=2 2 2 2 2 2 2 2 2 2 2 2 2 2 2 2 2 2 2 2 2 2 2 2 2 2 2 2 2 2
left_child=12 3 15 5 6 23 7 8 -4 -10 11 16 14 17 -1 -3 19 24 -19 29 -20 22 27 -2 26 -26 -5 -22 -29 -6
right_child=1 2 4 13 10 -7 -8 -9 9 -11 -12 -13 -14 -15 -16 -17 -18 18 20 -21 21 -23 -24 -25 25 -27 -28 28 -30 -31
leaf_value=-0.096039459799881793 0.00021813907248552364 0.00018013393663436541 0.028437266993414308 0.015633420636229307 0.039630865061133683 -0.073736821666601338 0.049056703763237341 0.01396575446014809 -0.055301933064875013 -0.0055742246740414225 0.032069830318935094 0.0042439440302868454 -0.059843102397224561 -0.071008324817919216 0.048315277735793555 -0.091031540996511742 0.038885000815903431 -0.032373221619933328 -0.054392108575482406 0.013712544211130781 0.030657653547146231 -0.050419681673787735 -0.026047375588073164 -0.040763084764015661 -0.015549321673798702 0.050276466411634912 -0.032839105198405091 0.0049564928149600385 -0.033374960749781704 0.014617349807323094
leaf_weight=260.57135957479477 70.521606087684631 15.576067656278608 59.685417801141739 338.28784930706024 221.64999157190323 77.793022096157074 44.623473674058914 197.25543156266212 113.03127956390381 181.34796169400215 473.55629450082779 693.8724610209465 141.42735654115677 19.828021675348282 4.2275257110595694 27.737848728895187 202.77438420057297 159.92379814386368 23.835875809192657 1020.3579547405243 72.067172646522522 25.772465288639069 74.509028553962708 71.54373499751091 182.75434255599976 18.978872299194336 28.731705009937286 269.16921293735504 46.719531178474426 153.07688570022583
leaf_count=713 55 10 26 170 59 142 12 95 141 122 127 325 276 29 1 52 54 169 25 411 28 22 62 82 134 5 25 152 37 60
internal_value=-0.000135002 0.00666738 0.0140657 -0.0103464 0.0149973 -0.0392852 -0.00104126 -0.00509615 -0.0157159 -0.0246679 0.0184538 0.0156402 -0.0819355 -0.0052992 -0.0937348 -0.058231 0.020589 -0.00424912 -0.0115025 0.0179297 -0.00498445 -0.00257236 9.41012e-05 -0.0204199 0.00432096 -0.00935649 0.0118388 0.00511471 -0.000712679 0.0294128
internal_weight=5291.21 4884.98 3404.55 1480.44 3361.23 219.858 595.944 551.32 354.065 294.379 2765.29 2291.73 406.226 1260.58 264.799 43.3139 1597.86 1240.75 671.997 1395.08 512.073 488.237 462.465 142.065 568.753 201.733 367.02 387.956 315.889 374.727
internal_count=3621 2631 1494 1137 1432 279 396 384 289 263 1036 909 990 858 714 62 584 829 495 530 326 301 279 137 334 139 195 217 189 119
is_linear=0
shrinkage=0.05


Tree=20
num_leaves=31
num_cat=0
split_feature=4 4 11 10 16 1 4 2 3 1 5 16 10 4 14 8 1 10 0 7 2 6 16 7 0 7 13 0 13 4
split_gain=1100.94 225.835 103.489 66.1911 85.9695 54.8483 52.3623 61.9433 48.7308 48.6355 47.8533 46.8711 53.627 44.9975 35.6787 33.8347 30.6503 28.3697 32.5976 34.284 27.1471 27.0376 26.8421 25.3239 24.3092 34.3632 23.8834 23.6856 28.4129 23.5418
threshold=0.32857142857142713 4.0000000000000009 20.267857142857146 22.125000000000004 16.705000000000002 15.750000000000002 1.3357142857142845 8.0500000000000025 1.0000000180025095e-35 6.8500000000000005 48.649999999999999 24.555000000000003 25.525000000000002 0.057142857142856392 17.650000000000002 347.50000000000006 1.9500000000000002 27.575000000000006 1.9500000000000002 1.5000000000000002 5.3500000000000005 2.9050000000000007 13.270000000000001 3.5000000000000004 0.25000000000000006 1.5000000000000002 80.214285714285737 12.450000000000001 87.928571428571445 1.9999999999999989
decision_type=2 2 2 2 2 2 2 2 2 2 2 2 2 2 2 2 2 2 2 2 2 2 2 2 2 2 2 2 2 2
left_child=13 2 21 4 5 14 16 9 23 11 20 27 -13 15 -3 -1 26 18 19 -12 22 -2 -10 -5 25 -22 -4 28 29 -8
right_child=1 3 6 8 -6 -7 7 -9 10 -11 17 12 -14 -15 -16 -17 -18 -19 -20 -21 24 -23 -24 -25 -26 -27 -28 -29 -30 -31
leaf_value=-0.096081444913132225 -0.086103052292836019 0.026225656723647434 -0.0056015151668734097 0.012426402949275495 -0.095795114667791975 -0.07266720350578898 0.0032201857174105858 -0.042500879434694355 -0.029544964525333985 -0.026891274747130031 -0.06654994157620002 -0.083946005584062122 -0.0067589085023708074 -0.057888073544162436 -0.039489417758785339 0.026969212930320646 -0.065498048623958832 0.054072191224012238 0.023390051905040756 0.0070511320184539665 0.028072103759568104 -0.018644616087991957 0.01392650152764011 0.037196410025656747 -0.00093867784438892452 -0.081928924367169642 -0.030922939263963552 -0.023893524874449627 0.00063729300409965306 0.024220332371092466
leaf_weight=247.31411799788475 49.680799901485443 102.78519961237907 226.42702075839043 139.48087811470032 27.344315856695175 21.847189098596573 191.61593636870384 81.252517998218536 37.367205083370209 128.93782329559326 17.63471645116806 25.42026561498642 196.06050175428391 138.95789778232574 25.849102288484573 5.715527892112731 34.066760540008545 62.466630935668945 845.32753932476044 153.92865973711014 10.478641271591185 21.188898295164108 714.3719407916069 396.53615057468414 301.09212017059326 22.017337501049042 158.17854884266853 50.139878809452057 386.82714033126831 439.67961356043816
leaf_count=712 98 40 184 58 60 26 111 85 23 115 15 40 126 276 21 2 50 11 266 72 5 24 299 114 153 30 171 36 221 177
internal_value=-0.000136111 0.00635501 -0.00659906 0.0153081 -0.0142397 0.000579933 -0.00440734 -4.33096e-05 0.0172537 0.00238837 0.0139115 0.00531551 -0.015618 -0.0807479 0.0130202 -0.0933019 -0.0200419 0.0213662 0.0193571 -0.000514201 0.00649791 -0.0659341 0.0117656 0.0307508 -0.00537288 -0.046458 -0.0160156 0.00965561 0.0113078 0.0178462
internal_weight=5259.99 4868 1989.48 2878.53 177.826 150.481 1918.61 1499.93 2700.7 1418.68 2164.68 1289.74 221.481 391.988 128.634 253.03 418.672 1079.36 1016.89 171.563 1085.33 70.8697 751.739 536.017 333.588 32.496 384.606 1068.26 1018.12 631.296
internal_count=3621 2631 1438 1193 147 87 1316 911 1046 826 874 711 166 990 61 714 405 364 353 87 510 122 322 172 188 35 355 545 509 288
is_linear=0
shrinkage=0.05


Tree=21
num_leaves=31
num_cat=0
split_feature=4 4 11 10 16 1 4 16 1 4 5 2 2 8 15 1 16 1 6 13 4 0 13 13 1 10 3 3 9 10
split_gain=1028.45 206.21 91.0078 63.7917 88.737 50.1577 47.5779 46.7576 47.9263 52.8885 43.0736 55.4542 42.0982 32.789 32.5906 33.5612 31.3102 27.6043 27.217 26.4734 25.1512 33.4703 24.333 20.9646 20.4942 20.3956 21.6003 21.4607 20.5686 20.1463
threshold=0.32857142857142713 3.714285714285714 20.267857142857146 22.125000000000004 16.705000000000002 15.750000000000002 0.057142857142856392 28.425000000000004 6.8500000000000005 1.3357142857142845 69.65000000000002 5.7500000000000009 7.4500000000000011 347.50000000000006 16.264285714285716 14.450000000000001 25.985000000000003 18.050000000000004 2.9050000000000007 81.071428571428584 6.9928571428571447 13.750000000000002 56.928571428571438 93.642857142857153 1.9500000000000002 23.125000000000004 21.850000000000005 2.4500000000000006 2.5000000000000004 27.125000000000004
decision_type=2 2 2 2 2 2 2 2 2 2 2 2 2 2 2 2 2 2 2 2 2 2 2 2 2 2 2 2 2 2
left_child=6 2 18 4 5 14 13 8 9 22 11 17 19 -1 -3 -16 -13 20 -2 -11 21 23 -4 -5 -24 -21 27 28 -27 -22
right_child=1 3 7 10 -6 -7 -8 -9 -10 12 -12 16 -14 -15 15 -17 -18 -19 -20 25 29 -23 24 -25 -26 26 -28 -29 -30 -31
leaf_value=-0.09569477006361779 -0.084830554265985569 0.034492068429649268 0.036172196804719128 0.021864837845682945 -0.095765707287369967 -0.070906741103023724 -0.055931354195426657 -0.073867272944280235 -0.03771435346534794 0.015851878963261803 0.029286999201095166 0.0044042218513379956 -0.037515881132030054 0.025714343290344468 -0.039506279608492602 0.042434168781976762 -0.040323790506333342 -0.013147431840459864 -0.016211372475094545 -0.037467018323898066 0.025543983095326475 -0.011478218334532275 -0.01714926290960582 0.0031665359174062758 -0.060233301585055382 0.018466716858625526 0.03820949145003142 -0.011397864582152945 -0.0038880198744455845 0.055824692462896036
leaf_weight=236.17957827448845 47.515504002571106 72.00384259223938 19.917002022266388 873.2611078619957 28.486688584089279 21.28466135263443 136.68752413988113 24.381003081798553 100.04051530361176 393.04449206590652 491.36006593704224 729.84187233448029 60.34418123960495 5.6952612400054923 42.425887793302536 17.713791489601135 41.342415750026703 66.770024359226227 20.766256809234619 34.924617618322372 313.84768068790436 100.97937196493149 353.95835357904434 180.97331857681274 29.936359107494354 196.58774009346962 38.271139740943909 268.45603734254837 215.90840226411819 66.582488298416138
leaf_count=712 97 23 9 331 66 26 276 40 102 185 137 349 63 2 36 5 39 37 23 36 98 52 333 84 44 90 12 174 129 11
internal_value=-0.000137523 0.00605671 -0.00734054 0.0139892 -0.0147219 0.000325341 -0.0795109 -0.00511317 -0.00413368 -0.00204883 0.0158123 0.0130229 0.00318953 -0.092836 0.0117989 -0.0153712 0.0020064 0.0183247 -0.0639617 0.0053307 0.0196931 0.016021 -0.0177133 0.018655 -0.020509 -0.000152692 0.00165925 -0.000394964 0.00676582 0.0308437
internal_weight=5229.49 4850.92 1804.05 3046.87 181.915 153.428 378.562 1735.77 1711.39 1611.35 2864.96 2373.6 1207.54 241.875 132.144 60.1397 771.184 1602.41 68.2818 1147.19 1535.64 1155.21 403.812 1054.23 383.895 754.148 719.223 680.952 412.496 380.43
internal_count=3621 2631 1337 1294 156 90 990 1217 1177 1075 1138 1001 689 714 64 41 388 613 120 626 576 467 386 415 377 441 405 393 219 109
is_linear=0
shrinkage=0.05


Tree=22
num_leaves=31
num_cat=0
split_feature=4 4 10 10 0 14 4 4 15 16 13 5 8 10 17 2 17 16 2 13 16 12 10 11 13 13 4 15 17 6
split_gain=961.515 195.391 74.2314 73.2695 61.3284 42.8071 40.1036 38.6093 39.5252 37.3208 36.1515 36.1887 33.6984 32.8426 57.8019 32.8343 31.4471 30.8351 30.0216 35.7539 28.5267 27.3895 27.1311 26.9382 31.3822 29.8338 26.4441 26.1701 24.1981 34.0341
threshold=0.27142857142857019 3.1285714285714286 17.675000000000001 21.875000000000004 0.65000000000000002 24.850000000000005 0.028571428571426531 3.5571428571428565 19.56428571428572 15.755000000000001 80.500000000000014 69.65000000000002 347.50000000000006 23.425000000000004 12.510714285714288 5.7500000000000009 12.214285714285717 28.425000000000004 0.35000000000000003 89.642857142857153 15.670000000000002 73.500000000000014 27.125000000000004 26.092857142857145 90.642857142857153 83.642857142857153 1.0928571428571421 18.007142857142863 17.017857142857146 1.6500000000000006
decision_type=2 2 2 2 2 2 2 2 2 2 2 2 2 2 2 2 2 2 2 2 2 2 2 2 2 2 2 2 2 2
left_child=6 3 16 9 5 7 12 27 13 -2 -6 15 -1 14 -9 22 -3 18 19 26 -15 -20 -12 24 25 -22 -5 -4 -28 -30
right_child=1 2 4 17 10 -7 -8 8 -10 -11 11 -13 -14 20 -16 -17 -18 -19 21 -21 23 -23 -24 -25 -26 -27 28 -29 29 -31
leaf_value=-0.099138955439295406 -0.025211258568362278 0.0016946429347683848 -0.079005726340888593 -0.010989456291882076 0.037805506076359789 0.046120160391132196 -0.061406601357148184 0.038304899158208283 -0.050442778114519804 -0.079478357270806529 0.012842546224994589 0.02756428727289641 0.024509723157756961 0.047241191214541678 -0.066552188426803077 0.0028814895291581727 -0.089383970339261321 -0.068265288623008166 -0.051594008120328584 -0.032783261321928832 0.013295800959130405 -0.010760363542639808 0.030149775219940302 0.017915949379946099 0.0027735929713025983 -0.066612757811007714 0.026005368142021881 0.011066629867672916 -0.028967317077348981 0.010494953796529059
leaf_weight=187.69337737560272 92.102843075990677 15.195858925580977 28.022487044334412 199.90961846709251 181.37298756837845 43.582962393760681 155.56458947062492 19.525921016931534 38.370458275079727 48.295451551675797 1152.5432314872742 450.90382081270218 5.6769024133682242 40.517463564872742 40.20327764749527 676.7239106297493 25.184308618307114 19.539391845464706 44.8852818608284 70.682417124509811 16.968993306159973 482.69112375378609 281.80602133274078 166.11684948205948 145.89150428771973 37.479065597057343 168.27245151996613 11.322600603103636 67.492622971534729 286.85962596535683
leaf_count=604 102 10 43 179 48 12 359 7 43 109 461 124 2 9 63 319 52 31 54 61 9 360 84 73 83 47 64 7 54 148
internal_value=-0.000137936 0.0056268 0.0122757 -0.00951334 0.0130925 -0.00156098 -0.0803052 -0.00537806 -0.0016617 -0.0438785 0.0162333 0.0147061 -0.0955089 0.00234889 -0.0322736 0.0119598 -0.0551093 -0.00591362 -0.00499121 0.00115654 0.00743023 -0.0142344 0.0162429 0.00302851 -0.0093158 -0.0417089 0.00447672 -0.053085 0.0103927 0.00297867
internal_weight=5201.4 4852.46 3371.73 1480.73 3331.35 588.002 348.935 544.419 505.074 140.398 2743.35 2561.98 193.37 466.703 59.7292 2111.07 40.3802 1340.33 1320.79 793.217 406.974 527.576 1434.35 366.456 200.34 54.4481 722.534 39.3451 522.625 354.352
internal_count=3621 2656 1494 1162 1432 396 965 384 334 211 1036 988 606 291 70 864 62 951 920 506 221 414 545 212 139 56 445 50 266 202
is_linear=0
shrinkage=0.05


Tree=23
num_leaves=31
num_cat=0
split_feature=4 0 10 5 2 4 1 13 17 1 4 14 8 10 1 16 6 9 11 16 17 13 16 0 11 5 1 10 5 14
split_gain=898.221 177.262 120.331 98.0254 46.2869 42.8986 40.5163 38.5711 37.8973 37.2628 42.1647 33.7421 32.8811 29.2271 35.9345 36.4981 28.7494 28.1826 27.5742 40.3601 35.7353 25.9701 26.2729 25.7075 24.7914 24.2214 26.6352 22.8943 22.6191 21.6365
threshold=0.27142857142857019 1.0000000180025095e-35 22.125000000000004 29.149999999999995 0.75000000000000011 0.028571428571426531 0.25000000000000006 81.785714285714292 13.689285714285718 3.7500000000000004 1.3357142857142845 24.850000000000005 347.50000000000006 25.675000000000004 28.650000000000002 19.335000000000004 4.8850000000000016 3.5000000000000004 25.975000000000005 19.215000000000003 15.232142857142859 91.928571428571445 26.380000000000006 7.9500000000000011 25.696428571428577 68.750000000000014 13.850000000000003 27.625000000000004 19.199999999999992 13.450000000000001
decision_type=2 2 2 2 2 2 2 2 2 2 2 2 2 2 2 2 2 2 2 2 2 2 2 2 2 2 2 2 2 2
left_child=5 2 8 9 11 12 -6 -5 17 10 -3 18 -1 14 15 25 -17 -2 19 20 -4 22 23 24 -12 26 -9 -21 -11 -8
right_child=1 3 4 7 6 -7 29 13 -10 28 21 -13 -14 -15 -16 16 -18 -19 -20 27 -22 -23 -24 -25 -26 -27 -28 -29 -30 -31
leaf_value=-0.09904964398740973 0.011308272597055549 -0.01617250711792205 -0.047853555633557622 0.039778987526274324 -0.062882669139831593 -0.059457894039448879 0.0090319292143593993 0.014164041084434789 -0.088439421538721252 -0.039316906051185117 0.02924728589821329 0.029466326685332295 0.023354443613319731 0.020195584207947054 -0.052103822585255033 -0.027675059833256362 0.0053227171487084347 -0.091402011084678006 0.0081940954333729644 -0.056891953154783362 0.015381733199046468 -0.012097148732569287 -0.028094690634238074 -0.0071288360516246181 0.0095630267945304367 0.027533677475405999 -0.011483629350341638 0.0080123630851102728 -0.0081481325572614425 -0.032192923452714954
leaf_weight=178.6964920759201 20.793729990720752 226.44222521781921 29.571356505155563 153.18571230769157 62.347466260194778 152.70446544885635 57.520982086658478 637.88388559222221 69.471236377954483 78.847140699625015 253.770706564188 77.923034131526947 5.660276770591735 1043.7000424265862 23.588536381721497 95.85345733165741 212.00061649084091 9.8388483822345716 171.88909566402435 71.452804148197174 91.385566145181656 141.99465635418892 40.968222498893738 133.64929205179214 432.69220149517059 269.99070972204208 120.32208561897278 16.777095019817352 222.35549163818359 71.255626320838928
leaf_count=604 20 216 28 38 86 359 38 251 172 82 97 33 2 358 19 63 94 23 105 96 51 93 31 79 212 75 66 11 143 76
internal_value=-0.00013833 0.00536051 -0.0169797 0.00946113 -0.0091221 -0.0790572 -0.0297973 0.0154528 -0.0680108 -0.000545808 0.00331539 -0.000513096 -0.0952915 0.0139023 0.00907133 0.0101514 -0.00495147 -0.0216811 -0.00664334 -0.0188353 -7.79299e-05 0.00771474 0.0109818 0.0129338 0.0168399 0.0146734 0.0100939 -0.0445503 -0.0163073 -0.0137789
internal_weight=5174.53 4837.47 750.227 4087.24 650.123 337.061 191.124 2556.53 100.104 1530.72 1229.52 458.999 184.357 2403.34 1359.64 1336.05 307.854 30.6326 381.076 209.187 120.957 1003.08 861.08 820.112 686.463 1028.2 758.206 88.2299 301.203 128.777
internal_count=3621 2656 739 1917 524 965 200 964 215 953 728 324 606 926 568 549 157 43 291 186 79 512 419 388 309 392 317 107 225 114
is_linear=0
shrinkage=0.05


Tree=24
num_leaves=31
num_cat=0
split_feature=4 5 0 10 17 10 4 16 5 0 2 2 12 10 8 13 6 10 14 13 4 13 1 1 4 11 16 17 10 2
split_gain=838.465 164.4 82.9656 70.2443 74.1668 62.5873 45.678 42.4884 40.6289 39.9668 52.754 36.1911 35.4298 34.2984 32.1042 31.8763 31.3661 29.107 32.5902 64.7539 36.6151 26.9719 25.3402 23.7664 21.8959 20.4229 19.4457 38.7812 26.8971 19.3726
threshold=0.27142857142857019 15.299999999999992 0.45000000000000007 23.125000000000004 12.510714285714288 21.275000000000002 0.028571428571426531 15.805000000000001 46.750000000000007 15.350000000000003 1.2500000000000002 1.7500000000000002 55.500000000000007 22.675000000000004 347.50000000000006 91.357142857142875 5.325000000000002 26.875000000000004 21.650000000000002 91.500000000000014 2.6285714285714286 90.214285714285737 2.2500000000000004 16.150000000000002 0.65714285714285703 26.339285714285719 19.055000000000003 19.98714285714286 25.475000000000005 0.95000000000000007
decision_type=2 2 2 2 2 2 2 2 2 2 2 2 2 2 2 2 2 2 2 2 2 2 2 2 2 2 2 2 2 2
left_child=6 5 3 4 -3 -2 14 -5 9 10 -4 21 -9 -12 -1 23 -6 18 19 20 -14 22 24 -10 -7 -21 -26 -28 -29 -25
right_child=1 2 8 7 16 11 -8 12 15 -11 13 -13 17 -15 -16 -17 -18 -19 -20 25 -22 -23 -24 29 26 -27 27 28 -30 -31
leaf_value=-0.098951210730033504 -0.060730314000162204 0.027721167438803054 0.019193293248124306 0.038865525836316472 -0.077968212614332608 -0.019813265209157695 -0.057501992822995646 -0.081240509289346965 0.038068836115195875 -0.019259479440269275 -0.057661498015706594 -0.039344042410815919 0.0086177461097537798 0.0036448029596006745 0.022247444578132769 0.014906972139451273 0.0060769849269910452 0.01256648929077657 0.03061422476723526 -0.0028972539960557186 -0.058573058550024565 -0.040879398574831999 -0.034688991968408099 0.034443562510791136 0.014338454781483762 0.04963244676585335 -0.052450932584821967 -0.058525028120210515 0.0068961517341491838 -0.023888476876558189
leaf_weight=170.14627665281296 66.707731425762177 28.676593720912933 862.79968255758286 65.51285982131958 72.780675709247589 124.09341409802437 150.07232072949409 14.387689530849455 302.01003593206406 122.67482370138168 23.384988218545914 95.686061650514603 25.638464331626892 934.53120368719101 5.645225763320922 920.3545486330986 13.099367439746855 209.42526888847351 39.128176152706146 108.32071337103844 96.939585387706757 53.458398669958115 61.303590327501297 26.359430074691772 230.14561304450035 22.315033435821533 37.733671307563782 16.935238987207413 217.37102308869362 30.941166400909424
leaf_count=604 126 15 325 18 157 134 359 18 73 74 25 107 15 458 2 322 11 108 15 71 117 57 63 6 121 5 40 23 133 19
internal_value=-0.000138599 0.00510635 0.00953855 -0.00611364 -0.0419009 -0.0141214 -0.0777627 0.00093449 0.0129196 0.00836429 0.0102255 -0.0104056 -0.0038799 0.00214817 -0.0950591 0.0198377 -0.0651487 -0.00166166 -0.0118543 -0.0184168 -0.0445194 -0.00666893 -0.00400912 0.0324676 -0.00100601 0.0060758 0.00364139 -0.00540832 0.00216763 0.00294544
internal_weight=5148.58 4822.72 3919.28 696.224 114.557 903.435 325.864 581.668 3223.06 1943.39 1820.72 836.727 516.155 957.916 175.792 1279.67 85.88 501.767 292.342 253.214 122.578 741.041 687.583 359.311 626.279 130.636 502.186 272.04 234.306 57.3006
internal_count=3621 2656 1852 550 183 804 965 367 1302 882 808 678 349 483 606 420 168 331 223 208 132 571 514 98 451 76 317 196 156 25
is_linear=0
shrinkage=0.05


Tree=25
num_leaves=31
num_cat=0
split_feature=4 5 10 0 10 4 1 14 11 13 16 8 13 4 0 2 16 1 2 4 17 12 4 13 0 16 17 3 0 5
split_gain=782.092 150.825 70.5524 64.4899 61.3939 48.4166 34.182 32.2529 37.5494 44.9398 57.246 31.3643 31.0652 31.6577 39.2855 29.25 28.8416 28.0523 27.0079 30.8863 26.7708 26.7494 24.0984 22.9826 22.683 23.4141 44.4342 32.7688 32.0952 22.1464
threshold=0.27142857142857019 19 21.525000000000002 0.65000000000000002 20.925000000000004 0.028571428571426531 3.5500000000000003 24.850000000000005 26.303571428571434 90.642857142857153 15.595000000000001 347.50000000000006 81.785714285714292 6.9928571428571447 18.650000000000002 6.0500000000000007 16.705000000000002 7.6500000000000012 3.6500000000000008 1.3357142857142845 13.689285714285718 96.500000000000014 3.5571428571428565 73.214285714285737 7.3500000000000005 19.055000000000003 21.566428571428577 27.350000000000005 0.65000000000000002 100.85000000000001
decision_type=2 2 2 2 2 2 2 2 2 2 2 2 2 2 2 2 2 2 2 2 2 2 2 2 2 2 2 2 2 2
left_child=5 2 20 4 16 11 18 8 9 10 -6 -1 -5 14 17 -15 -3 -14 19 23 -2 22 -11 -4 25 -21 27 28 -27 -17
right_child=1 3 6 12 7 -7 -8 -9 -10 21 -12 -13 13 15 -16 29 -18 -19 -20 24 -22 -23 -24 -25 -26 26 -28 -29 -30 -31
leaf_value=-0.098842754797838606 -0.017140974194770821 -0.014641604286016453 0.001273706325652736 0.029726594464385282 0.048204881902479901 -0.05554573630620923 -0.036385592766251758 0.04220703368531533 0.01340986077480062 -0.052475462869752632 -0.047399881983424874 0.021187550513246656 0.011895326975587149 0.026455201123969152 -0.046291158562832384 0.0064305995438282337 -0.098248312213978964 -0.0047029553482425346 -0.036866198978742042 0.020701629464343098 -0.072156991004248314 -0.050966837510109178 0.011098565994074942 -0.023425519450264071 -0.027612019063819312 -0.074915695527660128 0.0095498609323815126 0.044258123590160785 -0.0066199128659384342 0.037240025853421697
leaf_weight=162.02136757969856 35.260323345661163 18.115670561790466 159.97523301839828 263.59273916482925 17.97868275642395 147.6529535651207 89.483929693698883 42.473422825336456 221.8957724571228 16.12988543510437 121.28241586685181 5.6316043138504019 1163.8674676418304 542.15227806568146 33.745190858840942 487.4792532324791 23.955788254737854 325.81577610969543 59.726464509963989 212.61248052120209 59.296627759933472 22.575473010540009 196.49894461035728 229.00698128342628 49.721025109291077 39.976969867944717 266.70062997937202 11.883075952529905 30.196318030357361 66.255454421043396
leaf_count=604 45 24 123 83 4 359 90 11 108 18 141 2 482 152 25 194 73 180 64 86 124 22 103 243 36 50 141 3 17 14
internal_value=-0.000138594 0.00486449 -0.010126 0.0100965 -0.00374335 -0.0764236 -0.00671032 0.000109558 -0.00288867 -0.0125466 -0.0350573 -0.0948108 0.0133652 0.0117187 0.00705657 0.0181998 -0.0622479 0.00826504 -0.00420469 -0.00225408 -0.0516415 0.000781588 0.00627588 -0.0132676 0.00475642 0.00762332 -0.000349593 -0.0325249 -0.0455273 0.010117
internal_weight=5122.96 4807.65 1243.84 3563.81 680.906 315.306 1149.28 638.835 596.361 374.465 139.261 167.653 2882.91 2619.32 1523.43 1095.89 42.0715 1489.68 1059.8 1000.07 94.557 235.204 212.629 388.982 611.09 561.369 348.757 82.0564 70.1733 553.735
internal_count=3621 2656 1022 1634 504 965 853 407 396 288 145 606 1130 1047 687 360 97 662 763 699 169 143 121 366 333 297 211 70 67 208
is_linear=0
shrinkage=0.05


Tree=26
num_leaves=31
num_cat=0
split_feature=4 5 10 4 16 4 2 2 16 8 13 4 10 6 1 0 8 0 1 1 3 4 14 2 10 6 13 10 16 13
split_gain=728.934 139.227 92.9581 51.0887 44.4674 37.4635 36.466 34.7639 34.0741 30.6582 29.3283 28.9733 29.7173 28.8778 26.2302 24.2875 24.2337 23.745 22.9992 22.2522 22.039 24.7982 22.0072 20.0782 18.7511 29.1756 18.2879 18.1536 31.2128 25.9403
threshold=0.27142857142857019 33.250000000000007 20.425000000000004 0.028571428571426531 29.035000000000004 1.3357142857142845 18.850000000000005 5.7500000000000009 17.095000000000002 347.50000000000006 81.785714285714292 7.3928571428571432 23.425000000000004 4.9150000000000009 6.0500000000000007 13.750000000000002 256.50000000000006 2.7500000000000004 10.550000000000002 1.9500000000000002 1.0000000180025095e-35 3.1285714285714286 12.65 0.95000000000000007 25.325000000000006 5.4216666666666677 79.642857142857153 25.225000000000005 20.425000000000004 90.500000000000014
decision_type=2 2 2 2 2 2 2 2 2 2 2 2 2 2 2 2 2 2 2 2 2 2 2 2 2 2 2 2 2 2
left_child=3 2 8 9 5 19 10 15 22 -1 -3 12 16 -8 -14 18 17 -12 20 23 -7 27 -2 26 25 -9 -4 28 29 -22
right_child=1 6 4 -5 -6 7 13 24 -10 -11 11 -13 14 -15 -16 -17 -18 -19 -20 -21 21 -23 -24 -25 -26 -27 -28 -29 -30 -31
leaf_value=-0.098723292901969253 0.01079439141800843 0.037796799805050206 0.0027134161877147849 -0.053595753100608046 -0.070967876284442941 0.015835512290427154 -0.049042523836283075 -0.051384031699355931 -0.093726233775254755 0.020173490841293749 -0.048473938212308276 0.019873161930465753 0.016753863314089134 0.0019372960468683918 -0.0013914654932463801 -0.029716348836290526 -0.064517609551636407 0.0082023734698149203 -0.020452006478004728 -0.057577382291158941 0.011816398744829652 0.01056648638388776 -0.048415486832346408 -0.039297225076889951 -0.0055128859400420567 0.015607572205359053 -0.021398549197694156 -0.00031844034028534522 -0.086348665836551042 -0.046965615212375439
leaf_weight=154.30139577388763 22.077129274606705 134.43544134497643 200.89719790220261 145.43182018399239 22.828755110502243 488.20907351374626 36.074081927537918 63.645839214324951 30.620245516300201 5.6192797422409049 24.213130205869675 973.98561123013496 624.58370035886765 120.79602128267288 292.40501010417938 49.91356897354126 20.718399703502655 78.052633345127106 80.046716094017029 27.9744553565979 47.940152943134308 540.80157291889191 54.272831708192825 55.2267846763134 168.06310769915581 21.825813472270966 129.22185924649239 437.53765553236008 16.754470467567444 30.843374490737915
leaf_count=604 19 36 152 359 42 224 40 71 96 2 33 313 237 56 140 35 21 36 62 42 24 252 88 72 107 11 136 256 26 29
internal_value=-0.000138183 0.00463284 -0.00356801 -0.0750422 -0.00152009 -0.000848 0.0134863 0.00205627 -0.0491656 -0.0945455 0.0151855 0.0136762 0.00787244 -0.0097861 0.0109678 0.00464343 -0.0152068 -0.00521669 0.00568781 -0.014519 0.00702731 0.0030229 -0.0312945 -0.0113931 -0.0152099 -0.0342772 -0.00672498 -0.00463003 -0.0243759 -0.0111965
internal_weight=5099.32 4793.96 2488.7 305.352 2381.73 2358.9 2305.26 1945.58 106.97 159.921 2148.39 2013.96 1039.97 156.87 916.989 1692.05 122.984 102.266 1642.13 413.32 1562.09 1073.88 76.35 385.346 253.535 85.4717 330.119 533.076 95.538 78.7835
internal_count=3621 2656 1744 965 1541 1499 912 1097 203 606 816 780 467 96 377 908 90 69 873 402 811 587 107 360 189 82 288 335 79 53
is_linear=0
shrinkage=0.05


Tree=27
num_leaves=31
num_cat=0
split_feature=4 5 0 10 10 4 5 0 2 8 10 2 1 13 16 6 10 13 13 3 4 1 3 13 4 10 16 13 14 14
split_gain=681.972 141.007 64.2689 58.6809 54.5505 34.7123 30.4675 33.7554 45.6714 29.9829 29.9431 29.4915 29.2056 36.9472 28.7845 45.2684 36.1545 25.0856 23.3298 22.5588 20.7331 25.2039 20.5128 22.1197 26.5113 26.5159 19.6255 19.0957 24.5185 39.4989
threshold=0.18571428571428525 15.299999999999992 0.45000000000000007 19.625000000000004 21.125000000000004 0.028571428571426531 46.750000000000007 15.350000000000003 1.2500000000000002 347.50000000000006 22.675000000000004 1.7500000000000002 21.750000000000004 91.500000000000014 15.805000000000001 0.89666666666666683 23.975000000000005 90.214285714285737 85.357142857142875 0.25000000000000006 0.65714285714285703 3.5500000000000003 0.45000000000000007 86.357142857142875 3.8142857142857136 24.575000000000006 11.585000000000003 91.928571428571445 19.450000000000003 13.050000000000002
decision_type=2 2 2 2 2 2 2 2 2 2 2 2 2 2 2 2 2 2 2 2 2 2 2 2 2 2 2 2 2 2
left_child=5 4 3 -3 26 9 7 8 -4 -1 -10 17 13 -8 -5 -16 18 20 -17 -20 -6 -22 23 24 -18 -26 -2 28 29 -24
right_child=1 2 6 14 11 -7 12 -9 10 -11 -12 -13 -14 -15 15 16 22 -19 19 -21 21 -23 27 -25 25 -27 -28 -29 -30 -31
leaf_value=-0.098591753493323039 -0.024324633856403578 -0.074843901173083385 0.017403478705344443 0.023415461672668229 -0.02053428787030279 -0.057230455246761285 0.033804206238659762 -0.01816208769115139 -0.055121213660132243 0.0192039262644823 0.0028954430028545987 -0.036233456554216219 -0.008134104593173817 0.013994651809746576 -0.10000000000000001 -0.089495262953935159 0.043969701352383622 -0.039023994017398492 0.0096007990133107207 -0.050778559247968806 0.0031012263393395516 -0.041542558468296971 0.0024727379317493288 -0.010668770583037954 0.041306680324673717 -0.054781639798896824 -0.07719189963707393 0.010254277785504633 0.014724846347779664 -0.048354652085209254
leaf_weight=146.96703881025314 30.12782809138298 29.296819478273392 858.3115114569664 91.987766444683075 150.30623120069504 108.12993797659874 327.05840367078781 121.76903802156448 22.783202856779099 5.6081308126449576 932.54338264465332 94.369008839130402 103.75876408815384 839.72118210792542 12.721629887819288 16.204647600650787 76.515591144561768 55.318592965602875 29.44560644030571 32.592484146356583 521.98191690444946 33.652666002511978 69.116060793399811 54.62100225687027 12.914653062820436 16.168068468570709 42.063476532697678 107.03558611869812 49.727884590625763 85.516943722963333
leaf_count=604 38 81 325 40 180 294 82 74 25 2 458 108 48 290 19 36 24 63 26 46 334 39 45 40 5 16 107 56 25 91
internal_value=-0.00013755 0.00412482 0.00830256 -0.00561296 -0.01339 -0.0789028 0.0112709 0.00732162 0.00903261 -0.094262 0.00151183 -0.00986846 0.0172868 0.0195474 -0.00251435 -0.00675415 -0.0045968 -0.00660014 -0.0360741 -0.0221202 -0.00405936 0.000397323 0.000625401 0.0151628 0.0285243 -0.0121121 -0.0551286 -0.00685437 -0.0158152 -0.0256364
internal_weight=5078.34 4817.63 3889.81 683.865 927.82 260.705 3205.95 1935.41 1813.64 152.575 955.327 855.628 1270.54 1166.78 654.568 562.58 549.859 761.259 78.2427 62.0381 705.941 555.635 471.616 160.219 105.598 29.0827 72.1913 311.396 204.361 154.633
internal_count=3621 2721 1852 550 869 900 1302 882 808 606 483 724 420 372 469 429 410 616 108 72 553 373 302 85 45 21 145 217 161 136
is_linear=0
shrinkage=0.05


Tree=28
num_leaves=31
num_cat=0
split_feature=4 5 0 10 10 4 8 13 4 0 2 16 11 14 11 13 14 1 1 13 2 4 2 1 4 16 14 15 11 4
split_gain=636.996 127.648 58.093 54.6488 50.6363 36.7992 29.3354 29.0371 32.2257 32.028 26.872 26.2643 40.4422 25.9627 31.4517 27.1412 24.8753 23.648 23.1005 22.8639 22.5038 21.5358 20.7943 19.1115 21 19.0165 18.3731 19.8405 24.0185 18.1979
threshold=0.18571428571428525 15.299999999999992 0.45000000000000007 19.625000000000004 21.125000000000004 0.028571428571426531 347.50000000000006 81.785714285714292 6.9928571428571447 18.650000000000002 1.7500000000000002 18.585000000000004 26.339285714285719 24.850000000000005 23.725000000000005 91.928571428571445 13.450000000000001 7.6500000000000012 21.750000000000004 90.214285714285737 6.0500000000000007 14.800000000000002 0.25000000000000006 2.2500000000000004 0.65714285714285703 11.585000000000003 14.350000000000003 19.421428571428574 24.017857142857146 4.1071428571428568
decision_type=2 2 2 2 2 2 2 2 2 2 2 2 2 2 2 2 2 2 2 2 2 2 2 2 2 2 2 2 2 2
left_child=5 4 3 -3 25 6 -1 -4 9 17 19 26 13 14 -13 22 -14 29 20 23 -10 -22 -16 24 -6 -2 -5 -28 -29 -9
right_child=1 2 7 11 10 -7 -8 8 18 -11 -12 12 16 -15 15 -17 -18 -19 -20 -21 21 -23 -24 -25 -26 -27 27 28 -30 -31
leaf_value=-0.098446970080307977 -0.023177026453304099 -0.073151321221457941 0.024489574648246932 -0.018959317395812473 -0.01801650151408064 -0.055274678538208423 0.018277461043727756 0.0014318531384994377 0.025358720270885 -0.043866249697891629 -0.034649406477107368 -0.077603010912693282 0.024191255333566735 0.036609993853726222 -0.0099373047113935544 0.0012981903164811198 -0.010671272367778822 -0.006070059766151473 -0.0069147301730086959 -0.03735745877002139 0.0074893456328100853 0.045531460407034152 -0.052658483113419099 -0.030860681524092472 0.0035299885818595488 -0.075585002099413157 0.028847478781930197 -0.0647453460646676 0.023225429591501132 0.013285015692218191
leaf_weight=139.99990583956242 30.040922880172729 28.496597021818161 342.10456699132919 36.959480077028275 146.21078169345856 106.40316584706306 5.5980482101440421 528.81842237710953 511.40188407897949 33.153795063495636 93.764994382858276 27.126018077135086 106.24237143993378 17.224742293357849 47.225482910871506 84.923414498567581 98.702985465526581 338.76280143857002 102.81688565015793 54.907881826162338 468.69589960575104 40.410081148147583 71.773608416318893 59.96666744351387 499.14677307009697 40.841304361820221 128.78757077455521 13.838638782501222 17.661503255367279 835.28508865833282
leaf_count=604 38 81 117 33 173 294 2 277 141 25 108 52 46 7 42 53 66 193 47 63 178 7 97 63 317 107 51 15 7 317
internal_value=-0.000136609 0.00392708 0.0079056 -0.00537885 -0.0127651 -0.0776252 -0.0939591 0.010723 0.00907586 0.00480601 -0.0093946 -0.00240977 -0.00903791 -0.0226082 -0.0270229 -0.0202947 0.00740124 0.00575363 0.0156746 -0.00627973 0.0179505 0.0105089 -0.0357043 -0.0038604 -0.00135154 -0.0533737 0.0128198 0.0201476 -0.0154219 0.00868993
