tree
version=v4
num_class=1
num_tree_per_iteration=1
label_index=0
max_feature_idx=16
objective=regression
feature_names=lag_1 lag_2 lag_3 lag_7 rolling_mean_7 rolling_sum_7 tmean_lag_1 tmean_roll_7 rh_lag_1 rh_roll_7 wind_lag_1 wind_roll_7 rad_lag_1 rad_roll_7 month day_of_year day_of_week
feature_infos=[0:87] [0:87] [0:87] [0:87] [0:22.814285714285713] [0:159.69999999999999] [0:31.5] [0:30.642857142857142] [0:100] [0:98.857142857142861] [0:28.899999999999999] [0:21.25714285714286] [0:30.82] [0:27.48714285714286] [1:12] [1:366] [0:6]
tree_sizes=2592 2697 2690 2639 2677 2671 2684 2697 2694 2694 2691 2702 2690 2690 2711 2680 2678 2698 2697 2694 2710 2687 2697 2693 2712 2676 2712 2703 2730 2713 2724 2711 2718 2719 2726 2696 2719 2726 2713 2710 2729 2725 2717 2706 2730 2740 2712 2715 2749 2749 2748 2741 2752 2756 2759 2741 2748 2741 2755 2757 2747 2732 2726 2762 2766 2741 2750 2772 2738 2750 2742 2751 2757 2768 2772 2740 2745 2754 2762 2766 2739 2747 2754 2778 2770 2775 2782 2775 2768 2773 2771 2782 2757 2737 2770 2782 2782 2766 2781 2778 2760 2788 2779 2779 2763 2746 2728 2738 2735 2730 2774 2748 2753 2772 2782 2777 2770 2779 2788 2793 2747 2784 2787 2780 2787 2771 2740 2763 2758 2768 2781 2774 2809 2793 2799 2793 2793 2763 2802 2787 2749 2751 2787 2759 2721 2768 2784 2803 2795 2788 2780 2785 2785 2757 2806 2774 2787 2765 2793 2787 2804 2789 2796 2765 2765 2766 2743 2786 2784 2796 2771 2806 2793 2767 2766 2751 2778 2768 2764 2773 2749 2755 2812 2781 2768 2769 2755 2781 2771 2759 2784 2776 2785 2796 2791 2791 2791 2786 2803 2769 2753 2763 2790 2787 2753 2790 2756 2777 2781 2810 2743 2779 2786 2759 2774 2787 2790 2806 2797 2790 2799 2777 2793 2789 2792 2802 2773 2786 2763 2776 2778 2790 2786 2782 2776 2789 2788 2789 2775 2801 2803 2814 2783 2806 2773 2771 2775 2789 2804 2785 2753 2754 2759 2749 2789 2786 2795 2801 2789 2800 2804 2793 2805 2802 2788 2776 2731 2774 2779 2754 2796 2802 2783 2783 2798 2740 2752 2794 2774 2776 2762 2774 2780 2774 2800 2815 2823 2773 2811 2801 2782 2782 2789 2780 2767 2775 2780 2779 2803 2790 2790 2802 2776 2808 2805 2770 2773 2801 2819 2787 2768 2789 2770 2785 2777 2794 2822 2780 2772 2798 2795 2793 2803 2790 2788 2784 2795 2796 2795 2804 2785 2785 2786 2780 2779 2784 2779 2792 2813 2782 2776 2796 2781 2806 2807 2781 2786 2760 2801 2781 2798 2791 2760 2791 2790 2809 2782 2792 2791 2772 2783 2785 2793 2803 2773 2806 2773 2798 2773 2799 2759 2769 2741 2775 2778 2803 2792 2802 2792 2795 2811 2799 2801 2774 2786 2796 2762 2800 2815 2813 2812 2812 2786 2802 2783 2795 2802 2802 2784 2788 2798 2808 2797 2788 2806 2806 2812 2807 2817 2815 2800 2800 2796 2807 2784 2819 2816 2797 2809 2806 2779 2787 2828 2805 2792 2814 2807 2808 2796 2791 2803 2799 2792 2768 2793 2805 2798 2791 2813 2796 2791 2786 2791 2786 2751 2816 2800 2805 2809 2792 2778 2770 2801 2823 2810 2825 2832 2815 2780 2804 2802 2807 2809 2799 2794 2807 2784 2765 2777 2777 2799 2773 2784 2775 2809 2766 2794 2794 2802 2786 2793 2793 2803 2792 2792 2792 2801 2755 2784 2754 2815 2788 2815 2812 2830 2775 2803 2798 2776 2801

Tree=0
num_leaves=31
num_cat=0
split_feature=4 4 5 12 0 3 1 0 9 2 16 1 2 12 11 2 0 3 0 9 12 11 3 1 4 8 2 8 5 2
split_gain=20620.6 4061.77 1998.49 1606.64 1320.31 965.116 796.622 1256.44 528.52 466.867 698.597 326.724 336.813 297.848 254.541 260.348 248.179 244.19 241.135 301.937 210.844 178.819 161.725 148.359 140.152 138.225 136.606 113.141 123.746 119.849
threshold=3.4214285714285722 7.1357142857142888 8.0999999999999996 9.8850000000000016 1.3500000000000003 1.8500000000000003 9.7500000000000018 8.8500000000000032 86.214285714285737 6.4500000000000011 3.5000000000000004 8.9500000000000011 10.050000000000002 19.815000000000001 11.721428571428573 0.35000000000000003 6.2500000000000009 1.0500000000000003 1.0000000180025095e-35 81.071428571428584 19.905000000000005 13.192857142857145 0.25000000000000006 0.55000000000000016 0.28571428571428603 96.500000000000014 14.600000000000001 96.500000000000014 12.950000000000006 1.4500000000000002
decision_type=2 2 2 2 2 2 2 2 2 2 2 2 2 2 2 2 2 2 2 2 2 2 2 2 2 2 2 2 2 2
left_child=2 4 24 -3 20 6 7 -5 -6 10 13 12 14 -7 -10 -16 -11 25 -4 23 -2 -19 -22 -20 -1 -17 -18 28 -21 -30
right_child=1 3 18 5 8 9 -8 -9 11 16 -12 -13 -14 -15 15 17 26 21 19 27 22 -23 -24 -25 -26 -27 -28 -29 29 -31
leaf_value=2.452662690221076 2.717148439538327 3.3201441233220992 2.5101989520871988 2.9278903358226138 3.0000548448455202 2.93618579778704 2.8227046161593998 3.3878061435153053 2.7262135753562018 2.6942437039541902 3.1089949262422971 2.6453405578653455 2.6400873110014045 2.6941024545582319 3.0012691182755726 2.8141024658231943 2.9136024599138199 2.8336262752334713 2.8180191324018735 2.5442150714159601 2.6998167472800056 2.6779486136040846 2.550877821971782 2.6298600378677364 2.4918545355139914 2.9977691332363383 2.751638698845047 2.538413754211033 2.6584533408357522 2.5715044210218685
leaf_weight=1212 29 24 114 33 21 24 31 27 90 59 31 70 44 27 20 21 30 35 20 74 21 39 138 22 281 20 23 121 95 68
leaf_count=1212 29 24 114 33 21 24 31 27 90 59 31 70 44 27 20 21 30 35 20 74 21 39 138 22 281 20 23 121 95 68
internal_value=2.57698 2.7823 2.48931 2.92726 2.70056 2.89417 3.02852 3.13485 2.75664 2.83116 2.92181 2.74157 2.76661 2.80802 2.79135 2.83477 2.76479 2.80581 2.57435 2.59263 2.59316 2.75158 2.57055 2.71946 2.46004 2.9037 2.84332 2.57775 2.59784 2.62218
internal_weight=2864 857 2007 309 548 285 91 60 360 194 82 339 269 51 225 135 112 115 514 400 188 74 159 42 1493 41 53 358 237 163
internal_count=2864 857 2007 309 548 285 91 60 360 194 82 339 269 51 225 135 112 115 514 400 188 74 159 42 1493 41 53 358 237 163
is_linear=0
shrinkage=1


Tree=1
num_leaves=31
num_cat=0
split_feature=4 4 4 12 0 6 12 0 3 1 9 1 2 11 11 7 0 9 7 12 11 11 3 12 1 3 4 4 1 6
split_gain=18610.1 3665.75 1803 1449.99 1191.58 1040.5 789.847 753.866 611.623 664.873 476.989 294.869 303.974 229.723 244.934 264.606 215.677 277.023 209.528 242.505 200.531 247.007 200.221 189.139 133.894 130.293 116.351 105.635 144.909 107.515
threshold=3.4214285714285722 7.1357142857142888 1.1285714285714292 9.8850000000000016 1.3500000000000003 24.525000000000002 21.515000000000004 1.6500000000000001 2.0500000000000003 9.7500000000000018 86.214285714285737 8.9500000000000011 10.050000000000002 11.721428571428573 12.121428571428575 23.860714285714288 1.0000000180025095e-35 81.071428571428584 24.275000000000002 22.485000000000003 15.235714285714289 12.492857142857146 0.55000000000000016 21.245000000000001 0.55000000000000016 7.5500000000000007 0.28571428571428603 1.6071428571428574 2.4500000000000006 24.225000000000005
decision_type=2 2 2 2 2 2 2 2 2 2 2 2 2 2 2 2 2 2 2 2 2 2 2 2 2 2 2 2 2 2
left_child=2 4 26 -3 18 7 -7 -5 9 -9 -6 12 13 -12 -15 -16 -4 24 -2 -20 21 25 -17 -24 -18 -10 -1 -19 29 -29
right_child=1 3 16 5 10 6 -8 8 20 -11 11 -13 -14 14 15 22 17 27 19 -21 -22 -23 23 -25 -26 -27 -28 28 -30 -31
leaf_value=-0.12073957100264704 -0.044138492429736019 0.70336779467761523 -0.065172422379643352 0.052534586060792213 0.39928296804428104 0.66511179238557816 0.30228779996434851 0.57895159423351295 0.35186571369950592 0.24204575309046994 0.13913376741835642 0.06230440156800407 0.057313818078149448 0.40375737011432644 0.3265278816223145 0.27996387967467307 0.22634904867038133 -0.055774436781803771 0.16148406620088376 0.0015543576743867662 0.34254298473397893 0.11751704031974078 0.031227031571324917 0.22167250879786235 0.047597910882905131 0.18211659526452423 -0.084444576254528433 -0.021546925216292343 -0.030233108664188931 0.067318604338882315
leaf_weight=1212 87 24 120 40 21 30 30 32 26 27 90 70 44 20 36 25 20 75 38 63 30 50 32 22 22 20 270 48 123 117
leaf_count=1212 87 24 120 40 21 30 30 32 26 27 90 70 44 20 36 25 20 75 38 63 30 50 32 22 22 20 270 48 123 117
internal_value=-0.00263413 0.192414 -0.0859206 0.330126 0.114762 0.298695 0.4837 0.24936 0.291917 0.424774 0.168043 0.153718 0.177506 0.20101 0.242262 0.214175 -0.00629769 0.0111467 0.0127355 0.0617259 0.229706 0.194445 0.162977 0.108816 0.132718 0.278062 -0.114127 -0.00291937 0.010845 0.0414668
internal_weight=2864 857 2007 309 548 285 60 225 185 59 360 339 269 225 135 115 525 405 188 101 126 96 79 54 42 46 1482 363 288 165
internal_count=2864 857 2007 309 548 285 60 225 185 59 360 339 269 225 135 115 525 405 188 101 126 96 79 54 42 46 1482 363 288 165
is_linear=0
shrinkage=0.05


Tree=2
num_leaves=31
num_cat=0
split_feature=4 4 5 12 0 6 12 0 1 9 5 16 1 2 11 11 2 0 9 7 13 7 13 11 1 13 4 9 1 15
split_gain=16795.6 3308.34 1628.28 1308.62 1075.4 939.047 712.837 680.364 498.997 430.483 412.937 307.272 266.119 274.336 227.533 207.325 233.734 196.793 245.81 189.099 221.589 163.037 324.219 125.564 120.839 117.481 114.019 97.3967 95.304 107.363
threshold=3.4214285714285722 7.1357142857142888 8.0999999999999996 9.8850000000000016 1.3500000000000003 24.525000000000002 21.515000000000004 1.6500000000000001 8.8500000000000032 86.214285714285737 73.40000000000002 2.5000000000000004 8.9500000000000011 10.050000000000002 15.192857142857145 11.721428571428573 0.35000000000000003 1.0000000180025095e-35 81.071428571428584 24.275000000000002 19.487857142857145 23.860714285714288 21.497142857142862 12.350000000000003 0.55000000000000016 18.070714285714288 0.28571428571428603 94.928571428571445 4.6500000000000012 84.500000000000014
decision_type=2 2 2 2 2 2 2 2 2 2 2 2 2 2 2 2 2 2 2 2 2 2 2 2 2 2 2 2 2 2
left_child=2 4 26 -3 19 7 -7 -5 10 -6 11 -9 13 15 25 28 -17 -4 24 -2 -21 -18 -23 -22 -19 -10 -1 -20 29 -11
right_child=1 3 17 5 9 6 -8 8 14 12 -12 -13 -14 -15 -16 16 21 18 27 20 23 22 -24 -25 -26 -27 -28 -29 -30 -31
leaf_value=-0.1147025865001647 -0.041931567735027993 0.6681993973751863 -0.062821503655102695 0.04990785635076464 0.37931883093856633 0.63185620342691751 0.28717341413100561 0.20633239365722003 0.087840336506419328 0.23006597055178701 0.54998130066828288 0.42039135480920475 0.059189179795128957 0.054448127272454176 0.34265128765255215 0.38790897924453022 0.28745764760594622 0.21503158979117873 0.017323823161263321 0.20768225699663165 0.08486537359654904 0.089749520830810073 0.30885990804433822 -0.039650172649360285 0.045218012972988865 0.21425565369427205 -0.079353072095224866 -0.03738416441679001 0.066144399542142365 0.089341328390266594
leaf_weight=1212 87 24 114 40 21 30 30 38 34 33 22 30 70 44 21 20 38 20 233 20 40 52 25 41 22 40 281 125 34 23
leaf_count=1212 87 24 114 40 21 30 30 38 34 33 22 30 70 44 21 20 38 20 233 20 40 52 25 41 22 40 281 125 34 23
internal_value=-0.00250242 0.182793 -0.0816246 0.313619 0.109024 0.28376 0.459515 0.236892 0.277321 0.159641 0.361688 0.30077 0.146032 0.168631 0.197394 0.19096 0.230148 -0.00486925 0.0116471 0.0120987 0.0586396 0.202712 0.160889 0.021839 0.126082 0.156173 -0.108049 -0.00177813 0.132177 0.172268
internal_weight=2864 857 2007 309 548 285 60 225 185 360 90 68 339 269 95 225 135 514 400 188 101 115 77 81 42 74 1493 358 90 56
internal_count=2864 857 2007 309 548 285 60 225 185 360 90 68 339 269 95 225 135 514 400 188 101 115 77 81 42 74 1493 358 90 56
is_linear=0
shrinkage=0.05


Tree=3
num_leaves=31
num_cat=0
split_feature=4 4 5 0 0 2 6 2 3 9 5 1 2 3 0 0 0 9 7 4 11 10 1 2 10 4 11 15 1 7
split_gain=15158 2985.78 1469.52 1066.81 970.55 658 611.12 515.514 474.39 389.622 296.347 235.793 245.014 253.195 227.244 375.514 177.605 221.844 170.662 201.848 158.501 145.1 148.432 143.461 124.389 121.259 107.568 103.61 171.379 170.122
threshold=3.4214285714285722 7.1357142857142888 8.0999999999999996 20.400000000000002 1.3500000000000003 9.6500000000000004 24.525000000000002 3.1500000000000008 1.2500000000000002 86.785714285714292 59.95000000000001 8.9500000000000011 0.25000000000000006 0.95000000000000007 3.3500000000000001 11.15 1.0000000180025095e-35 81.071428571428584 24.275000000000002 5.3428571428571461 14.250000000000002 10.050000000000002 1.8500000000000003 10.15 11.450000000000001 1.8428571428571432 11.550000000000002 84.500000000000014 3.3500000000000001 23.860714285714288
decision_type=2 2 2 2 2 2 2 2 2 2 2 2 2 2 2 2 2 2 2 2 2 2 2 2 2 2 2 2 2 2
left_child=2 4 -1 5 18 6 7 -3 -7 -6 -8 12 -11 21 -9 -16 -4 25 -2 26 24 -14 -23 27 -10 -18 -20 28 -15 -29
right_child=1 3 16 -5 9 8 10 14 20 11 -12 -13 13 23 15 -17 17 -19 19 -21 -22 22 -24 -25 -26 -27 -28 29 -30 -31
leaf_value=-0.10264693084113646 -0.039834989393236993 0.12678465000234354 -0.059680425630588285 0.55377581376685858 0.35076802606168006 0.33556667298955078 0.36512646913528446 0.21313376968970435 0.16851848423480989 0.28912229705601933 0.6373154097795487 0.055643800635268727 0.1010347323322838 0.26669436130258772 0.53730459345711601 0.26837873062491419 0.038773735273968095 -0.0016892218197482592 0.099585827887058262 0.15068642786807485 0.21075106237469049 0.35859707366852533 0.19513109500815229 -0.0037463064950246081 0.014466200844923916 0.20888173054903747 -0.039776779413223273 0.20283453650772573 0.0868412660005001 0.03648725031948119
leaf_weight=1493 87 39 114 36 23 34 20 21 20 32 20 69 22 27 27 25 22 358 20 36 29 21 41 26 38 20 45 22 26 51
leaf_count=1493 87 39 114 36 23 34 20 21 20 32 20 69 22 27 27 25 22 358 20 36 29 21 41 26 38 20 45 22 26 51
internal_value=-0.0023773 0.173653 -0.0775434 0.297939 0.103573 0.264202 0.33346 0.273546 0.177199 0.151659 0.501221 0.13807 0.159291 0.141687 0.351952 0.408013 -0.00462578 0.0110648 0.0114938 0.0557077 0.115309 0.211353 0.250499 0.103187 0.0675877 0.119778 0.00310402 0.125253 0.178465 0.0866193
internal_weight=2864 857 2007 309 548 273 152 112 121 360 40 337 268 236 73 52 514 400 188 101 87 84 62 152 58 42 65 126 53 73
internal_count=2864 857 2007 309 548 273 152 112 121 360 40 337 268 236 73 52 514 400 188 101 87 84 62 152 58 42 65 126 53 73
is_linear=0
shrinkage=0.05


Tree=4
num_leaves=31
num_cat=0
split_feature=4 4 5 12 0 6 12 0 1 9 5 12 7 2 6 0 6 1 12 0 2 4 6 13 6 10 12 1 1 16
split_gain=13680.1 2694.66 1332.54 1139.9 883.521 781.105 617.587 587.099 431.628 394.873 362.345 360.673 349.474 284.723 440.825 195.86 192.384 164.253 185.794 143.069 141.505 140.807 137.595 135.479 120.974 115.032 170.366 105.449 166.458 102.54
threshold=3.4214285714285722 7.1357142857142888 9.2000000000000011 9.8850000000000016 0.65000000000000002 24.525000000000002 21.515000000000004 1.6500000000000001 8.8500000000000032 93.357142857142875 73.40000000000002 20.595000000000002 25.403571428571432 12.15 23.825000000000006 9.2500000000000018 27.525000000000002 8.9500000000000011 21.815000000000001 1.0000000180025095e-35 1.4500000000000002 0.28571428571428603 24.275000000000002 20.716428571428576 24.875000000000004 12.250000000000002 23.055000000000003 11.450000000000001 14.850000000000003 1.5000000000000002
decision_type=2 2 2 2 2 2 2 2 2 2 2 2 2 2 2 2 2 2 2 2 2 2 2 2 2 2 2 2 2 2
left_child=2 4 21 -3 25 7 -7 -5 10 11 13 15 -13 14 -9 -6 19 18 23 -4 22 -1 -21 29 -20 26 -2 -10 -29 -11
right_child=1 3 16 5 9 6 -8 8 27 17 -12 12 -14 -15 -16 -17 -18 -19 24 20 -22 -23 -24 -25 -26 -27 -28 28 -30 -31
leaf_value=-0.10383512101354381 0.12530658796981528 0.61397589854896073 -0.060084561068409439 0.038732098340988161 0.20115971408115751 0.5758821556965511 0.255053220136712 0.49692405063820921 0.076762431611617415 0.19762614058434136 0.5048312502489849 0.18780971967404891 0.43637910485267639 0.12344234321605077 0.18735722637046939 0.025973042624968069 0.14879279328244074 0.031538492499385028 0.0012622934743939411 -0.025270487752849943 -0.027738000657534442 -0.067169257085268469 0.065317754903391229 0.23693687166716601 0.12813197514590097 -0.070371651202440266 -0.031689951677496241 0.31900202510031789 0.15493349520346295 0.09639860006821592
leaf_weight=1212 27 24 96 40 39 30 30 23 21 36 22 31 26 22 23 27 21 64 42 61 149 334 134 37 34 55 48 22 52 82
leaf_count=1212 27 24 96 40 39 30 30 23 21 36 22 31 26 22 23 27 21 64 42 61 149 334 134 37 34 55 48 22 52 82
internal_value=-0.00225844 0.164971 -0.0736662 0.283042 0.0983942 0.255173 0.415468 0.212428 0.249984 0.1338 0.32845 0.209061 0.301192 0.271385 0.342141 0.129492 0.000942838 0.10242 0.122058 -0.00611364 0.00894802 -0.0959138 0.0369799 0.153457 0.0580198 -0.0154483 0.0248288 0.175648 0.203711 0.127282
internal_weight=2864 857 2007 309 548 285 60 225 185 418 90 123 57 68 46 66 461 295 231 440 344 1546 195 155 76 130 75 95 74 118
internal_count=2864 857 2007 309 548 285 60 225 185 418 90 123 57 68 46 66 461 295 231 440 344 1546 195 155 76 130 75 95 74 118
is_linear=0
shrinkage=0.05


Tree=5
num_leaves=31
num_cat=0
split_feature=4 5 2 7 5 0 11 1 15 4 7 3 2 13 6 0 0 2 11 1 9 0 15 4 7 4 15 16 3 4
split_gain=12458.7 2079.16 1297.7 1258.65 1193.62 884.862 694.393 663.512 416.074 351.724 429.332 276.351 269.321 244.633 218.074 217.326 560.025 193.462 192.179 188.876 340.021 424.76 184.089 131.474 124.361 124.356 121.601 187.992 117.847 109.11
threshold=3.4214285714285722 59.95000000000001 14.350000000000003 24.01071428571429 9.2000000000000011 0.55000000000000016 14.692857142857145 2.0500000000000003 333.50000000000006 4.0928571428571443 25.360714285714288 0.45000000000000007 5.8500000000000005 16.61571428571429 26.125000000000004 9.0500000000000025 6.3500000000000005 8.9500000000000011 14.307142857142859 12.050000000000002 93.214285714285737 5.3500000000000005 269.50000000000006 0.55714285714285749 24.660714285714288 5.5928571428571452 100.50000000000001 4.5000000000000009 1.1500000000000001 7.5714285714285738
decision_type=2 2 2 2 2 2 2 2 2 2 2 2 2 2 2 2 2 2 2 2 2 2 2 2 2 2 2 2 2 2
left_child=4 5 3 6 23 11 13 9 17 -7 15 -2 -10 -3 -6 16 -11 19 -4 20 21 -9 -16 -1 -13 -21 27 28 -22 -19
right_child=1 2 18 -5 14 7 -8 8 12 10 -12 24 -14 -15 22 -17 -18 29 -20 25 26 -23 -24 -25 -26 -27 -28 -29 -30 -31
leaf_value=-0.097510518223971582 0.15859024931084029 0.31357833325862883 0.01219023771584034 0.62865123343773377 -0.01603318167935041 0.070660046256821735 0.45600831186449203 0.41984399516135462 0.31405738289985391 0.19228436974498134 0.47031753410895666 -0.07071776527663072 0.11927535123058729 0.093199239934191991 0.18662692576646805 0.11616488221016796 0.4977962610125542 -0.02243128085678274 0.20940420201846532 -0.076926730461418624 0.18685506187379361 0.11814875027963095 0.026627245137933644 -0.055864432573790472 0.049734559680024784 0.082989344769908546 0.024228208360480185 0.2436952670046594 0.045124712275891488 0.11154169738292695
leaf_weight=1330 22 20 30 39 352 29 37 20 36 60 21 75 35 34 25 33 20 55 21 20 20 28 64 221 30 31 47 24 55 21
leaf_count=1330 22 20 30 39 352 29 37 20 36 60 21 75 35 34 25 33 20 55 21 20 20 28 64 221 30 31 47 24 55 21
internal_value=-0.0021896 0.156498 0.307145 0.391 -0.0709382 0.116517 0.28915 0.143761 0.108507 0.228541 0.26271 -0.00254181 0.218038 0.174821 0.00164657 0.224128 0.268662 0.084281 0.093396 0.1059 0.128409 0.243855 0.071571 -0.0915764 -0.0363028 0.0202772 0.0904546 0.121895 0.0829195 0.0145876
internal_weight=2855 863 181 130 1992 682 91 555 392 163 134 127 71 54 441 113 80 321 51 245 194 48 89 1551 105 51 146 99 75 76
internal_count=2855 863 181 130 1992 682 91 555 392 163 134 127 71 54 441 113 80 321 51 245 194 48 89 1551 105 51 146 99 75 76
is_linear=0
shrinkage=0.05


Tree=6
num_leaves=31
num_cat=0
split_feature=4 5 2 7 5 12 0 11 1 15 4 7 2 12 6 0 0 16 2 4 1 13 9 0 11 12 4 12 12 9
split_gain=11244 1876.44 1171.17 1135.93 1077.24 1024.24 798.588 611.764 598.819 375.507 317.431 387.472 243.062 240.626 196.812 196.136 505.423 193.481 174.6 188.468 223.169 212.011 207.649 359.559 173.441 172.802 118.655 113.877 107.934 105.514
threshold=3.4214285714285722 59.95000000000001 14.350000000000003 24.01071428571429 9.2000000000000011 16.615000000000006 0.55000000000000016 15.178571428571432 2.0500000000000003 333.50000000000006 4.0928571428571443 25.360714285714288 5.8500000000000005 22.665000000000003 26.125000000000004 9.0500000000000025 6.3500000000000005 2.5000000000000004 8.9500000000000011 6.6642857142857173 11.850000000000003 18.631428571428575 93.500000000000014 7.2500000000000009 14.307142857142859 22.665000000000003 0.55714285714285749 18.995000000000001 21.815000000000001 88.500000000000014
decision_type=2 2 2 2 2 2 2 2 2 2 2 2 2 2 2 2 2 2 2 2 2 2 2 2 2 2 2 2 2 2
left_child=4 6 3 5 26 7 13 -3 10 18 -8 15 -11 -2 -6 16 28 -7 19 20 22 -21 23 -10 -4 -16 -1 -20 -12 -27
right_child=1 2 24 -5 14 17 8 -9 9 12 11 -13 -14 -15 25 -17 -18 -19 27 21 -22 -23 -24 -25 -26 29 -28 -29 -30 -31
leaf_value=-0.092634994909237323 0.11141121689887608 0.27348680859804153 0.011580722704529763 0.59721867396281325 -0.01523152263226538 0.0036952104915500337 0.067127043676787415 0.63955435300511976 0.33668513226915492 0.29835451390180323 0.24332952102025351 0.44680165080797107 0.11331158369779587 -0.044028503207429764 0.15252744603074261 0.11035663788065767 0.47290644407272336 0.21110066798600285 0.073472460263814682 0.078601936602758049 -0.041605733888167323 0.27172953028852742 0.063998939882143654 0.05684036525587241 0.19893399505388171 -0.044349505549127408 -0.053071208584293032 -0.048978471433794177 0.10853092405531142 0.10119357392191888
leaf_weight=1330 34 25 30 39 352 23 29 21 22 36 33 21 35 93 36 33 20 22 39 27 33 30 109 24 21 33 221 37 27 20
leaf_count=1330 34 25 30 39 352 23 29 21 22 36 33 21 35 93 36 33 20 22 39 27 33 30 109 24 21 33 221 37 27 20
internal_value=-0.00208012 0.148673 0.291788 0.37145 -0.0673913 0.274692 0.110691 0.440605 0.136573 0.103082 0.217114 0.249574 0.207136 -0.00241472 0.00156424 0.212921 0.255229 0.105093 0.080067 0.100605 0.0764582 0.180248 0.101594 0.190679 0.0887262 0.0679924 -0.0869976 0.0138582 0.18267 0.0105724
internal_weight=2855 863 181 130 1992 91 682 46 555 392 163 134 71 127 441 113 80 45 321 245 188 57 155 46 51 89 1551 76 60 53
internal_count=2855 863 181 130 1992 91 682 46 555 392 163 134 71 127 441 113 80 45 321 245 188 57 155 46 51 89 1551 76 60 53
is_linear=0
shrinkage=0.05


Tree=7
num_leaves=31
num_cat=0
split_feature=4 4 4 2 7 11 2 11 6 16 0 11 2 12 12 4 1 0 0 1 4 6 4 9 13 11 1 6 11 7
split_gain=10147.7 1702.32 969.934 810.863 911.314 726.729 643.046 485.24 476.385 471.775 361.587 265.546 250.79 242.595 209.134 197.524 214.147 203.532 168.331 208.878 200.637 271.372 215.84 141.137 176.243 137.633 134.862 133.335 129.509 126.714
threshold=3.4214285714285722 7.6214285714285728 0.78571428571428559 14.350000000000003 24.68214285714286 14.692857142857145 10.050000000000002 12.764285714285718 26.325000000000006 2.5000000000000004 0.75000000000000011 14.835714285714289 1.0000000180025095e-35 22.705000000000002 16.615000000000006 5.400000000000003 8.9500000000000011 9.8500000000000032 0.35000000000000003 3.6500000000000008 1.6071428571428574 24.825000000000006 2.5857142857142867 97.214285714285737 19.141428571428577 14.935714285714287 9.0500000000000025 23.225000000000005 11.828571428571431 24.26071428571429
decision_type=2 2 2 2 2 2 2 2 2 2 2 2 2 2 2 2 2 2 2 2 2 2 2 2 2 2 2 2 2 2
left_child=2 6 -1 4 5 7 8 14 10 -7 13 -5 -12 -2 -3 16 25 23 -4 20 -20 -22 -23 24 -17 -14 -26 -19 -15 -29
right_child=1 3 18 11 -6 9 -8 -9 -10 -11 12 -13 15 28 -16 17 -18 27 19 -21 21 22 -24 -25 26 -27 -28 29 -30 -31
leaf_value=-0.086955212470810894 0.14597295870383581 0.38819293356858769 -0.044908244317061058 0.035793949390186909 0.58442700574174522 0.25687441173517572 -0.014772065867738868 0.066598156754575352 0.32402777616624484 0.57434597873687743 0.27957764967129778 0.25332115396857263 0.084129478139502389 0.067115824737332089 0.20855986628421519 0.33059634824593864 -0.042799351287299191 -0.011220407892357219 -0.024812055168913143 -0.054362798062594309 0.0030516399050151913 0.069421376959469761 0.23511185203989349 0.10666018313375013 0.25328775617480276 0.21273004996776579 0.081412419783217574 0.22628816274756736 -0.081462201812643228 0.065935271233320242
leaf_weight=1391 27 26 227 47 25 22 108 46 27 25 26 20 124 22 43 30 29 22 101 95 91 57 30 29 25 25 21 22 44 28
leaf_count=1391 27 26 227 47 25 22 108 46 27 25 26 20 124 22 43 30 29 22 101 95 91 57 30 29 25 25 21 22 44 28
internal_value=-0.00197612 0.141239 -0.0640217 0.249976 0.30345 0.260089 0.0958876 0.192388 0.119742 0.425742 0.108106 0.100727 0.129682 0.0197149 0.276248 0.118703 0.0815119 0.156105 -0.0109427 0.0096727 0.0314769 0.0634161 0.126556 0.200504 0.236312 0.105707 0.174823 0.0913566 -0.0319362 0.136491
internal_weight=2855 863 1992 254 187 162 609 115 501 47 474 67 381 93 69 355 178 177 601 374 279 178 87 105 76 149 46 72 66 50
internal_count=2855 863 1992 254 187 162 609 115 501 47 474 67 381 93 69 355 178 177 601 374 279 178 87 105 76 149 46 72 66 50
is_linear=0
shrinkage=0.05


Tree=8
num_leaves=31
num_cat=0
split_feature=4 5 2 7 5 0 6 1 11 15 4 7 7 10 2 0 0 2 6 4 2 9 0 1 16 4 4 1 4 1
split_gain=9158.28 1559.09 980.049 992.636 882.07 665.639 529.815 521.242 505.767 329.484 284.768 337.325 215.053 302.395 214.631 179.681 440.868 177.97 190.598 160.404 151.648 164.188 134.002 171.265 105.51 145.034 96.8585 95.7123 91.4355 107.772
threshold=3.4214285714285722 59.95000000000001 14.350000000000003 24.01071428571429 9.2000000000000011 0.55000000000000016 23.125000000000004 2.0500000000000003 15.178571428571432 333.50000000000006 4.0928571428571443 25.360714285714288 24.353571428571431 11.350000000000003 5.8500000000000005 9.0500000000000025 6.3500000000000005 2.0500000000000003 24.975000000000005 11.250000000000002 2.0500000000000003 93.214285714285737 1.0000000180025095e-35 1.0500000000000003 4.5000000000000009 5.3428571428571461 0.55714285714285749 0.8500000000000002 6.8142857142857158 5.7500000000000009
decision_type=2 2 2 2 2 2 2 2 2 2 2 2 2 2 2 2 2 2 2 2 2 2 2 2 2 2 2 2 2 2
left_child=4 5 3 6 26 12 8 10 -3 20 -7 15 -2 -14 -11 16 27 18 -6 -4 21 -9 -20 -24 -22 -26 -1 -12 29 -23
right_child=1 2 19 -5 17 7 -8 9 -10 14 11 -13 13 -15 -16 -17 -18 -19 22 -21 24 28 23 -25 25 -27 -28 -29 -30 -31
leaf_value=-0.08365548880168594 -0.058770068269222979 0.22407278333391464 -0.0014921060206168997 0.54855149999642983 -0.017862772509334206 0.056267524947380201 0.11958702916366071 0.20027559846639634 0.55328191675245764 0.27512590475380422 0.12126175915965667 0.41309593319892884 0.21494584645737302 -0.027437674356324063 0.10124157573495592 0.096706282505483354 0.43866987131536012 -0.042221318791914542 -0.016390693932771684 0.17671261183593587 0.02584291930232336 0.116934509947896 0.14775881197792096 0.023604229308080441 0.0060538151860237126 0.18107446087845441 -0.047909877515435899 0.25366161423070088 0.16070347669578733 -0.029136756435036659
leaf_weight=1330 74 28 28 39 138 29 43 39 20 36 39 21 22 31 35 33 20 152 39 23 161 23 61 51 20 29 221 21 21 28
leaf_count=1330 74 28 28 39 138 29 43 39 20 36 39 21 22 31 35 33 20 152 39 23 161 23 61 51 20 29 221 21 21 28
internal_value=-0.00187731 0.134177 0.26463 0.337503 -0.0608206 0.0995557 0.247054 0.123185 0.361243 0.0919391 0.198329 0.229073 -0.00370665 0.0731744 0.189408 0.194874 0.235369 0.00157633 0.0246118 0.0788747 0.0703805 0.11765 0.0634296 0.0912241 0.045395 0.109637 -0.0785621 0.167602 0.072895 0.0367385
internal_weight=2855 863 181 130 1992 682 91 555 48 392 163 134 127 53 71 113 80 441 289 51 321 111 151 112 210 49 1551 60 72 51
internal_count=2855 863 181 130 1992 682 91 555 48 392 163 134 127 53 71 113 80 441 289 51 321 111 151 112 210 49 1551 60 72 51
is_linear=0
shrinkage=0.05


Tree=9
num_leaves=31
num_cat=0
split_feature=4 4 5 0 3 2 11 3 0 11 9 0 6 16 3 12 7 11 2 6 0 12 11 12 9 9 0 0 0 4
split_gain=8265.35 1424.42 796.068 667.294 785.916 531.027 432.266 425.848 333.932 833.451 333.738 301.538 233.427 214.277 242.103 210.2 193.963 190.982 160.618 172.014 149.882 148.448 147.313 165.97 142.93 481.188 136.856 299.601 120.936 138.511
threshold=3.4214285714285722 7.1357142857142888 9.2000000000000011 5.7500000000000009 0.25000000000000006 8.2500000000000018 11.664285714285716 0.95000000000000007 10.850000000000003 14.250000000000002 85.500000000000014 19.550000000000004 22.925000000000004 4.5000000000000009 3.0500000000000003 15.915000000000001 24.696428571428577 15.107142857142859 2.0500000000000003 24.975000000000005 1.6500000000000001 22.395000000000003 12.235714285714289 19.955000000000002 94.928571428571445 91.214285714285737 4.3500000000000005 9.2500000000000018 1.0000000180025095e-35 2.5857142857142867
decision_type=2 2 2 2 2 2 2 2 2 2 2 2 2 2 2 2 2 2 2 2 2 2 2 2 2 2 2 2 2 2
left_child=2 5 -1 6 -5 7 -3 10 9 -6 -2 12 -10 14 -9 -12 20 22 19 -4 -15 -7 -8 -24 25 -17 -16 -28 -21 -30
right_child=1 3 18 4 8 21 17 13 11 -11 15 -13 -14 16 26 24 -18 -19 -20 28 -22 -23 23 -25 -26 -27 27 -29 29 -31
leaf_value=-0.074634031339620294 0.37170331880450247 0.33337553537761178 -0.016969634032727259 0.56511017988835066 0.19974453236907722 0.033568395574234036 0.16069341559301725 -0.040724251472524238 -0.024735506549477579 0.59505711287260066 0.018813915178179742 0.30294589519449583 0.18280466459691525 -0.020236962512135508 0.0398817514251361 0.091629247209251252 0.25045696741768292 0.2190116379942213 -0.040110253098445313 -0.015571158474836595 0.15322753914744791 -0.074312189539584017 0.12276441082358361 -0.051583943458703853 0.1180720780885256 0.41536394466053361 0.24148591815522225 0.026769079110817984 0.052264274610781383 0.17654328415951423
leaf_weight=1551 20 21 138 21 40 95 22 56 20 20 24 33 42 20 87 24 28 21 152 39 33 48 21 39 41 22 33 32 81 31
leaf_count=1551 20 21 138 21 40 95 22 56 20 20 24 33 42 20 87 24 28 21 152 39 33 48 21 39 41 22 33 32 81 31
internal_value=-0.00178344 0.127468 -0.0577796 0.215467 0.27806 0.0805773 0.126626 0.108912 0.239169 0.331515 0.183692 0.180845 0.115856 0.0750151 0.0481481 0.149816 0.144007 0.0844736 0.00149752 0.0233812 0.0877692 -0.00264327 0.0500187 0.00943798 0.185955 0.246459 0.0808905 0.135779 0.0602581 0.0866629
internal_weight=2855 863 1992 300 176 563 124 420 155 60 131 95 62 289 208 111 81 103 441 289 53 143 82 60 87 46 152 65 151 112
internal_count=2855 863 1992 300 176 563 124 420 155 60 131 95 62 289 208 111 81 103 441 289 53 143 82 60 87 46 152 65 151 112
is_linear=0
shrinkage=0.05


Tree=10
num_leaves=31
num_cat=0
split_feature=4 4 0 4 1 7 12 4 11 5 1 7 0 1 15 11 1 13 6 8 4 15 7 11 11 7 1 4 1 3
split_gain=8252.26 2054.66 1012.7 851.555 769.094 705.119 531.585 598.717 362.428 277.523 260.301 251.138 242.247 344.455 238.952 231.311 197.759 195.862 193.399 186.071 162.965 154.42 148.229 143.499 153.709 133.264 128.682 100.124 96.7578 92.8694
threshold=4.1785714285714297 14.900000000000002 0.35000000000000003 6.7357142857142867 15.200000000000001 24.960714285714293 18.635000000000002 9.7357142857142858 10.992857142857146 12.950000000000006 11.550000000000002 23.967857142857145 4.0500000000000007 2.7500000000000004 342.50000000000006 14.307142857142859 2.2500000000000004 17.185714285714287 24.525000000000002 97.500000000000014 4.8214285714285738 68.500000000000014 24.303571428571434 15.235714285714289 12.350000000000003 24.960714285714293 2.8500000000000001 0.60000000000000064 6.1500000000000012 1.2500000000000002
decision_type=2 2 2 2 2 2 2 2 2 2 2 2 2 2 2 2 2 2 2 2 2 2 2 2 2 2 2 2 2 2
left_child=2 3 27 10 5 6 7 11 -8 -4 12 17 23 20 18 28 -17 -5 26 21 -14 -6 -22 24 -2 -15 -10 -1 29 -11
right_child=1 -3 9 4 19 -7 8 -9 14 15 -12 -13 13 25 -16 16 -18 -19 -20 -21 22 -23 -24 -25 -26 -27 -28 -29 -30 -31
leaf_value=-0.076415530764071121 0.082727768480084674 0.6312318185255642 -0.032742087128648088 0.25358539223670962 0.013429934790600902 0.46172687103008409 0.32947065174579621 0.48830810917748346 -0.078703720258040871 0.071717484328506872 -0.037445928555514131 0.33173289977841908 0.33615572871196842 0.042376101374424796 0.25440997391939163 0.21238527258392426 0.035189849811215555 0.041724713395039248 0.18844069443319156 -0.062304161216777114 0.26707085982450973 0.19664996473685556 0.098357291569312416 0.16837852244886262 -0.015563486636037361 0.1801707094130309 0.068849266105227999 -0.044765531299755169 -0.046627251169783002 0.0037268638109358462
leaf_weight=1255 86 21 230 20 23 29 20 27 22 88 42 27 21 74 20 32 31 24 23 26 23 23 30 24 74 23 45 312 47 117
leaf_count=1255 86 21 230 20 23 29 20 27 22 88 42 27 21 74 20 32 31 24 23 26 23 23 30 24 74 23 45 312 47 117
internal_value=0.000824795 0.14366 -0.0496951 0.129557 0.189042 0.229505 0.199968 0.2879 0.133681 0.00901328 0.080261 0.211689 0.0941869 0.137031 0.0980825 0.0395013 0.125194 0.138025 0.063343 0.0446101 0.218279 0.10504 0.171573 0.0543694 0.0372681 0.075049 0.020399 -0.0701138 0.0180782 0.0329131
internal_weight=2859 747 2112 726 329 257 228 98 130 545 397 71 355 171 110 315 63 44 90 72 74 46 53 184 160 97 67 1567 252 205
internal_count=2859 747 2112 726 329 257 228 98 130 545 397 71 355 171 110 315 63 44 90 72 74 46 53 184 160 97 67 1567 252 205
is_linear=0
shrinkage=0.05


Tree=11
num_leaves=31
num_cat=0
split_feature=4 4 4 1 4 0 9 10 4 8 1 2 0 1 3 15 11 3 8 1 12 2 15 0 9 2 12 15 1 15
split_gain=7450.67 1954.13 1002.3 694.107 599.666 558.189 1166.91 410.426 506.337 334.271 332.248 310.161 223.351 275.778 232.364 227.122 197.832 191.915 167.929 167.021 218.687 191.645 139.364 138.427 172.926 137.265 190.735 119.474 118.122 105.231
threshold=3.4214285714285722 14.900000000000002 6.7357142857142867 15.200000000000001 0.78571428571428559 0.55000000000000016 94.214285714285737 9.6500000000000004 7.4928571428571447 94.500000000000014 11.450000000000001 0.15000000000000005 1.3500000000000003 2.4500000000000006 1.0500000000000003 84.500000000000014 13.192857142857145 3.9500000000000006 97.500000000000014 7.8500000000000005 21.275000000000002 8.5500000000000025 68.500000000000014 1.0000000180025095e-35 81.071428571428584 11.250000000000002 20.455000000000002 347.50000000000006 0.45000000000000007 42.500000000000007
decision_type=2 2 2 2 2 2 2 2 2 2 2 2 2 2 2 2 2 2 2 2 2 2 2 2 2 2 2 2 2 2
left_child=4 2 11 5 -1 -4 -7 -8 -9 -10 19 17 25 14 16 -16 -14 -2 22 20 21 -11 -5 -6 28 26 -13 -15 -25 -28
right_child=1 -3 3 18 23 6 7 8 9 10 -12 12 13 27 15 -17 -18 -19 -20 -21 -22 -23 -24 24 -26 -27 29 -29 -30 -31
leaf_value=-0.070874939515708835 0.24800328980717393 0.5996702503235567 -0.022803725302219392 0.012758434369512225 -0.051727176677668463 0.54351920549358634 0.37761024835386447 0.012423383163956879 0.4000529431161427 0.34524580688904161 0.33790087003122876 0.15503221738338471 0.12777064421679826 0.029375459703468006 0.18891729857291906 0.0076016365335537838 0.35016197983175518 0.054827946349978451 -0.059188949775237303 0.02502195433092614 0.060848684310913087 0.13361724421381951 0.18681747071121052 0.18035973296279001 -0.0084304248453276522 -0.079274016370375955 0.10292052405886352 0.15582910059463412 0.024651303013850906 -0.025469276162831091
leaf_weight=1372 36 21 22 23 160 28 28 39 21 23 27 25 20 169 31 39 20 20 26 24 25 20 23 21 411 36 20 21 29 79
leaf_count=1372 36 21 22 23 160 28 28 39 21 23 27 25 20 169 31 39 20 20 26 24 25 20 23 21 411 36 20 21 29 79
internal_value=0.000783556 0.123233 0.111392 0.17959 -0.0524231 0.21803 0.240576 0.199598 0.171752 0.216137 0.183681 0.0679096 0.0543841 0.0798281 0.142832 0.0878986 0.238966 0.179012 0.0423796 0.138421 0.178444 0.246814 0.099788 -0.0116567 0.00225062 0.00667674 0.0316302 0.0433519 0.0900488 0.000468057
internal_weight=2859 866 845 329 1993 257 235 207 179 140 119 516 460 300 110 70 40 56 72 92 68 43 46 621 461 160 124 190 50 99
internal_count=2859 866 845 329 1993 257 235 207 179 140 119 516 460 300 110 70 40 56 72 92 68 43 46 621 461 160 124 190 50 99
is_linear=0
shrinkage=0.05


Tree=12
num_leaves=31
num_cat=0
split_feature=4 4 0 4 1 6 2 12 5 11 2 2 12 4 8 10 10 4 1 11 8 4 1 0 15 13 12 15 4 2
split_gain=6746.16 1671.74 830.942 687.335 626.432 532.199 655.867 642.344 489.932 498.447 297.122 240.83 375.861 234.754 233.326 222.969 262.715 183.7 166.119 156.436 151.556 142.655 179.853 137.117 125.776 116.43 108.132 106.266 97.1687 94.3698
threshold=4.1785714285714297 14.900000000000002 0.35000000000000003 6.7357142857142867 15.200000000000001 24.525000000000002 6.8500000000000005 22.815000000000001 73.40000000000002 11.121428571428575 6.1500000000000012 13.350000000000003 14.720000000000001 1.6071428571428574 96.500000000000014 11.050000000000002 12.750000000000002 4.6928571428571457 0.8500000000000002 14.307142857142859 97.500000000000014 2.3785714285714294 2.4500000000000006 3.1500000000000008 68.500000000000014 20.662142857142861 18.055000000000003 104.50000000000001 5.2357142857142867 7.3500000000000005
decision_type=2 2 2 2 2 2 2 2 2 2 2 2 2 2 2 2 2 2 2 2 2 2 2 2 2 2 2 2 2 2
left_child=2 3 -1 10 5 7 -7 8 9 -5 15 12 -11 -4 -14 27 28 -18 -12 29 24 -21 -23 -19 -6 -25 -20 -2 -17 -15
right_child=1 -3 13 4 20 6 -8 -9 -10 11 18 -13 14 19 -16 16 17 23 26 21 -22 22 -24 25 -26 -27 -28 -29 -30 -31
leaf_value=-0.06342910448659507 0.083659996309119175 0.56968673556333493 -0.035717546391563541 0.39192430794239047 0.012120515075714692 0.45924060940742495 0.11781263236295095 -0.030592188633540098 0.37408918925694062 0.32781415594120822 0.13152062140691739 -0.015870017051696779 0.21625277276920235 0.024914298576914008 0.011246077498154983 0.17734929924761808 -0.033225281784931823 0.029840383678674698 0.07475205644654731 0.00077678821980953217 -0.056229504513052801 0.25001952792315379 0.052286192904347967 0.12392666643961919 0.17747659462949505 0.26995011769235133 -0.034561055400611267 -0.028844394790939989 0.32075364532924833 -0.078776433784514668
leaf_weight=1567 61 21 195 20 23 39 22 34 35 24 26 25 23 256 35 27 21 24 30 24 26 23 23 43 23 20 92 32 21 24
leaf_count=1567 61 21 195 20 23 39 22 34 35 24 26 25 23 256 35 27 21 24 30 24 26 23 23 43 23 20 92 32 21 24
internal_value=0.000744378 0.129889 -0.0449333 0.117168 0.17061 0.207128 0.336103 0.166988 0.208456 0.162809 0.0728798 0.119983 0.161402 0.0082462 0.0925418 0.106228 0.14276 0.0995027 0.0167735 0.0327403 0.0402606 0.0995953 0.151153 0.13154 0.0947986 0.170283 -0.00768078 0.0449488 0.240089 0.0160265
internal_weight=2859 747 2112 726 329 257 61 196 162 127 397 107 82 545 58 249 156 108 148 350 72 70 46 87 46 63 122 93 48 280
internal_count=2859 747 2112 726 329 257 61 196 162 127 397 107 82 545 58 249 156 108 148 350 72 70 46 87 46 63 122 93 48 280
is_linear=0
shrinkage=0.05


Tree=13
num_leaves=31
num_cat=0
split_feature=4 4 4 4 1 7 12 4 2 2 0 1 10 0 1 4 13 1 9 15 4 1 13 12 15 9 1 10 9 0
split_gain=6088.41 1508.74 758.6 620.32 565.354 572.356 435.291 507.337 343.3 268.153 203.668 285.062 201.372 190.397 149.922 149.452 141.472 177.524 146.232 138.398 159.185 129.534 127.788 134.21 125.516 125.23 139.122 119.928 108.283 100.016
threshold=4.1785714285714297 14.900000000000002 1.6071428571428574 6.7357142857142867 15.200000000000001 24.960714285714293 18.635000000000002 9.7357142857142858 9.9500000000000011 6.1500000000000012 0.65000000000000002 1.3500000000000003 10.250000000000002 0.35000000000000003 0.8500000000000002 10.692857142857145 21.630714285714291 0.75000000000000011 94.500000000000014 309.50000000000006 5.3428571428571461 3.2500000000000004 18.755000000000006 20.705000000000002 311.50000000000006 93.642857142857153 2.5500000000000003 12.850000000000003 88.500000000000014 1.8500000000000003
decision_type=2 2 2 2 2 2 2 2 2 2 2 2 2 2 2 2 2 2 2 2 2 2 2 2 2 2 2 2 2 2
left_child=2 3 -1 9 5 6 7 8 27 12 -8 -12 -2 -4 -11 24 17 -14 -18 20 -19 -13 -23 -24 -6 26 -15 -5 -28 -16
right_child=1 -3 13 4 15 -7 10 -9 -10 14 11 21 16 25 29 -17 18 19 -20 -21 -22 22 23 -25 -26 -27 28 -29 -30 -31
leaf_value=-0.059572473882406454 0.030416431567735144 0.54120239665110903 -0.034878841599554948 0.35040824619077504 -0.070981852061325498 0.40599259343640565 -0.032405032146544686 0.4342120651845579 0.034932771783608658 0.12494459043328579 0.29400150361268418 -0.015642400840297343 -0.032691467163108646 0.093844775245648576 -0.056444330994937834 0.1505090436765126 0.2602442290414782 0.022015947456422606 0.092432241141796115 0.23486808839699497 0.16492074318230154 0.040512971431016925 0.091240995153784754 0.27222072549075599 0.089678781181573866 -0.0016766626278008772 -0.058269307379211703 0.18679401924212774 0.060179089061742609 0.034404238434790665
leaf_weight=1603 72 21 159 21 31 29 21 27 26 26 23 20 21 113 56 21 34 38 21 23 40 25 20 21 20 159 35 24 43 66
leaf_count=1603 72 21 159 21 31 29 21 27 26 26 23 20 21 113 56 21 34 38 21 23 40 25 20 21 20 159 35 24 43 66
internal_value=0.000707159 0.123395 -0.0426867 0.11131 0.16208 0.196772 0.17016 0.249731 0.179576 0.0692358 0.110177 0.137646 0.100917 0.010492 0.0159348 0.0382476 0.129595 0.099581 0.196171 0.127083 0.0953005 0.0958306 0.12961 0.183938 -0.00797768 0.0311033 0.0583913 0.263147 0.00702917 -0.00729674
internal_weight=2859 747 2112 726 329 257 228 98 71 397 130 109 249 509 148 72 177 122 55 101 78 86 66 41 51 350 191 45 78 122
internal_count=2859 747 2112 726 329 257 228 98 71 397 130 109 249 509 148 72 177 122 55 101 78 86 66 41 51 350 191 45 78 122
is_linear=0
shrinkage=0.05


Tree=14
num_leaves=31
num_cat=0
split_feature=4 4 4 1 7 4 12 4 2 3 3 2 16 6 11 12 12 2 10 1 2 6 5 4 10 10 4 15 1 11
split_gain=5506.76 1434.45 729.429 510.232 524.84 462.762 433.647 478.886 298.918 277.714 272.035 231.637 223.982 208.016 178.344 156.605 156.276 142.274 141.299 194.563 135.969 147.65 137.685 134.881 128.36 123.298 114.053 113.279 110.07 125.389
threshold=3.4214285714285722 14.900000000000002 6.7357142857142867 15.200000000000001 24.68214285714286 0.74285714285714399 18.635000000000002 8.6357142857142879 7.2500000000000009 3.6500000000000008 1.0500000000000003 0.25000000000000006 5.5000000000000009 23.225000000000005 12.264285714285718 20.395000000000003 20.955000000000002 9.7500000000000018 9.9500000000000011 2.5500000000000003 2.0500000000000003 24.825000000000006 11.150000000000009 10.692857142857145 11.750000000000002 12.750000000000002 4.5928571428571443 311.50000000000006 10.450000000000001 12.464285714285717
decision_type=2 2 2 2 2 2 2 2 2 2 2 2 2 2 2 2 2 2 2 2 2 2 2 2 2 2 2 2 2 2
left_child=5 2 10 4 6 -1 7 13 -6 -9 11 -2 16 -4 24 -16 26 -17 -13 -20 21 -7 -23 27 -8 -21 -12 -5 29 -28
right_child=1 -3 3 23 8 20 14 9 -10 -11 12 18 -14 -15 15 17 -18 -19 19 25 -22 22 -24 -25 -26 -27 28 -29 -30 -31
leaf_value=-0.061469471661466969 0.25804803345514382 0.51414226631057403 -0.0046676616370677953 -0.067432759461864347 0.46311096722881007 -0.027577603938916964 0.096321994345635181 0.46827032838178717 0.20138206750154497 0.23183727429972756 -0.010434273257851602 -0.00028113098282899179 0.13864963708276098 0.21366796116344633 0.14894361769159634 -0.095934665068984029 -0.015759257232677772 0.082983232717961083 0.19375107513497705 0.14731416332721711 -0.045573424365902226 -0.0085346622032528158 0.065496474314004863 0.14298359319745077 0.25541007227840878 0.0064315066638788807 0.17758210614705697 0.085194841772317897 -0.011720520427281207 0.048178325048583152
leaf_weight=1362 23 21 20 31 24 193 32 23 20 27 44 35 44 24 21 25 161 20 46 25 186 119 133 21 21 41 39 20 22 36
leaf_count=1362 23 21 20 31 24 193 32 23 20 27 44 35 44 24 21 25 161 20 46 25 186 119 133 21 21 41 39 20 22 36
internal_value=0.000671801 0.105942 0.0957974 0.153976 0.186933 -0.0450703 0.154458 0.234729 0.344143 0.340596 0.0587032 0.110496 0.0332558 0.114424 0.0910507 0.0361987 0.0179004 -0.0164156 0.0874099 0.114813 -0.0096731 0.00533242 0.0305373 0.0363352 0.159357 0.0597961 0.0563345 -0.0075788 0.0866213 0.115468
internal_weight=2859 866 845 329 257 1993 213 94 44 50 516 170 346 44 119 66 302 45 147 112 631 445 252 72 53 66 141 51 97 75
internal_count=2859 866 845 329 257 1993 213 94 44 50 516 170 346 44 119 66 302 45 147 112 631 445 252 72 53 66 141 51 97 75
is_linear=0
shrinkage=0.05


Tree=15
num_leaves=31
num_cat=0
split_feature=5 4 0 0 6 4 2 1 7 10 4 10 13 2 16 7 1 12 12 5 9 13 1 1 10 6 7 1 7 14
split_gain=5332.43 1432.35 709.302 611.114 367.682 311.404 340.572 349.461 335.714 288.374 365.94 472.905 245.384 270.847 211.304 200.204 179.724 197.619 173.972 166.752 208.539 143.987 116.274 161.195 110.484 129.678 81.9857 81.9319 105.235 104.757
threshold=28.850000000000012 15.657142857142858 0.25000000000000006 0.55000000000000016 26.275000000000002 5.400000000000003 19.750000000000004 8.6500000000000004 23.76071428571429 15.050000000000002 8.578571428571431 12.65 15.894285714285715 8.5500000000000025 3.5000000000000004 23.089285714285719 2.6500000000000008 21.365000000000006 22.485000000000003 12.950000000000006 82.642857142857153 19.662142857142857 18.950000000000003 10.750000000000002 12.250000000000002 23.925000000000004 24.76071428571429 3.6500000000000008 24.817857142857147 9.5000000000000018
decision_type=2 2 2 2 2 2 2 2 2 2 2 2 2 2 2 2 2 2 2 2 2 2 2 2 2 2 2 2 2 2
left_child=2 3 -1 18 5 16 7 8 12 10 11 21 -7 14 -14 -9 17 -5 -2 -4 -21 -10 23 -17 -25 -26 -18 28 -22 -30
right_child=1 -3 19 4 -6 6 -8 15 9 -11 -12 -13 13 -15 -16 22 26 -19 -20 20 27 -23 -24 24 25 -27 -28 -29 29 -31
leaf_value=-0.055781531510177042 0.10144808739423752 0.53276125818490982 -0.020621744872525681 0.20623926270392634 0.3288664779492787 0.27538855068385598 -0.012232276921470961 0.2066022200509906 0.23200805966670696 0.11013606784462526 0.4650204721093178 0.37071636311105782 0.076134426777975439 -0.032055553949127596 0.27883361844345927 0.0027223061531077369 -0.028438535093196798 0.010296152663332496 -0.038603800489183743 0.18199773566289382 0.011638887340210888 0.07570018316893018 -0.027362700952933385 0.055897073540836575 0.10635310765998117 0.2694999953111013 0.069112486200673243 -0.013839540250745476 0.15079351246356965 0.033668918978600276
leaf_weight=1542 30 20 258 31 21 20 36 32 26 37 20 37 36 33 20 37 56 22 85 22 117 34 26 32 29 21 35 102 35 42
leaf_count=1542 30 20 258 31 21 20 36 32 26 37 20 37 36 33 20 37 56 22 85 22 117 34 26 32 29 21 35 102 35 42
internal_value=0.00298491 0.115113 -0.0380971 0.104064 0.123105 0.116136 0.135626 0.147724 0.184279 0.231805 0.270281 0.230129 0.117133 0.0815694 0.148527 0.0934069 0.0517105 0.124904 -0.00206853 0.0092457 0.0334778 0.143434 0.0684258 0.0893544 0.128444 0.174875 0.00908109 0.0224391 0.0415135 0.0869074
internal_weight=2894 776 2118 756 641 620 476 440 263 154 117 97 109 89 56 177 144 53 115 576 318 60 145 119 82 50 91 296 194 77
internal_count=2894 776 2118 756 641 620 476 440 263 154 117 97 109 89 56 177 144 53 115 576 318 60 145 119 82 50 91 296 194 77
is_linear=0
shrinkage=0.05


Tree=16
num_leaves=31
num_cat=0
split_feature=4 4 0 0 6 4 1 13 11 11 6 1 3 15 15 15 1 12 4 6 12 1 1 10 15 1 12 11 0 9
split_gain=4774.58 1292.04 662.821 538.99 372.627 298.37 315.293 318.238 315.433 464.1 300.215 317 195.049 488.467 302.949 280.251 159.878 155.034 147.817 184.04 142.717 141.573 134.521 139.143 163.67 104.937 101.874 89.9221 78.3663 101.921
threshold=4.1357142857142888 15.657142857142858 0.25000000000000006 0.55000000000000016 26.275000000000002 5.400000000000003 12.65 14.996428571428574 10.992857142857146 10.521428571428574 24.875000000000004 1.6500000000000001 2.9500000000000006 52.500000000000007 317.50000000000006 346.50000000000006 3.7500000000000004 22.485000000000003 2.5857142857142867 26.025000000000002 21.365000000000006 9.6500000000000004 23.600000000000005 12.450000000000001 310.50000000000006 6.4500000000000011 22.245000000000001 12.40714285714286 0.55000000000000016 92.785714285714292
decision_type=2 2 2 2 2 2 2 2 2 2 2 2 2 2 2 2 2 2 2 2 2 2 2 2 2 2 2 2 2 2
left_child=2 3 -1 17 5 16 7 -7 9 -9 12 -12 13 -10 -15 21 20 -2 -4 28 -5 25 23 -8 -25 26 -14 -19 -20 -30
right_child=1 -3 18 4 -6 6 22 8 10 -11 11 -13 15 14 -16 -17 -18 27 19 -21 -22 -23 -24 24 -26 -27 -28 -29 29 -31
leaf_value=-0.052992456563447643 0.096375683595736825 0.50612318426370617 -0.009868955094965973 0.16796379125601538 0.3292686136811972 0.33551668863404882 0.006274540480729696 0.11742164789965111 0.32500325585233758 0.42054397075072586 0.37360103455456822 0.11336526143550874 0.074080975432739116 -0.025782206654548646 0.2049680213276297 0.22998300465670499 -0.0025227410742988837 0.028273058253707309 -0.064833924270616003 0.15719703570008281 0.015105196511229643 0.15719038110802927 -0.062676908373832704 0.064224081881570097 0.24549174517393113 -0.066264482998642432 -0.05235745690408207 -0.0776525403573817 0.10291112464453495 0.012791074700878875
leaf_weight=1542 30 20 364 37 20 22 37 28 29 23 22 25 66 33 25 22 77 33 22 30 26 21 20 33 20 29 21 51 42 124
leaf_count=1542 30 20 364 37 20 22 37 28 29 23 22 25 66 33 25 22 77 33 22 30 26 21 20 33 20 29 21 51 42 124
internal_value=0.00283566 0.1095 -0.0358327 0.0989236 0.116869 0.109973 0.128845 0.151154 0.139363 0.254124 0.119388 0.235178 0.0972653 0.157454 0.0736791 0.064332 0.0458082 -0.00119297 0.00963166 0.0421923 0.104879 0.0377311 0.0546168 0.0806821 0.132627 0.0161049 0.0435614 -0.0360389 0.0238405 0.0355925
internal_weight=2894 770 2124 750 636 616 476 366 344 51 293 47 246 87 58 159 140 114 582 218 63 137 110 90 53 116 87 84 188 166
internal_count=2894 770 2124 750 636 616 476 366 344 51 293 47 246 87 58 159 140 114 582 218 63 137 110 90 53 116 87 84 188 166
is_linear=0
shrinkage=0.05


Tree=17
num_leaves=31
num_cat=0
split_feature=5 4 0 0 1 4 10 11 2 9 9 12 4 16 11 5 9 10 9 8 2 11 15 12 16 10 10 0 1 16
split_gain=4344.73 1166.56 577.29 498.047 312.988 369.14 623.954 513.349 346.941 319.67 319.317 264.06 228.672 219.496 145.208 140.533 186.066 131.486 128.415 127.539 133.394 121.257 120.362 111.718 102.832 112.152 102.228 75.1701 73.0068 84.6452
threshold=28.850000000000012 15.657142857142858 0.25000000000000006 0.55000000000000016 12.65 7.1357142857142888 10.950000000000001 15.735714285714288 7.3500000000000005 93.214285714285737 94.500000000000014 20.705000000000002 8.6357142857142879 3.5000000000000004 12.40714285714286 12.950000000000006 82.642857142857153 10.950000000000001 97.214285714285737 96.500000000000014 6.9500000000000011 12.121428571428575 338.50000000000006 24.780000000000005 1.5000000000000002 13.450000000000001 13.750000000000002 7.1500000000000012 3.6500000000000008 1.0000000180025095e-35
decision_type=2 2 2 2 2 2 2 2 2 2 2 2 2 2 2 2 2 2 2 2 2 2 2 2 2 2 2 2 2 2
left_child=2 3 -1 14 5 8 12 10 9 11 -8 -5 -7 26 23 -4 -17 18 -11 27 -21 -19 24 -2 -6 -26 -10 -12 29 -18
right_child=1 -3 15 4 22 6 7 -9 13 17 19 -13 -14 -15 -16 16 28 21 -20 20 -22 -23 -24 -25 25 -27 -28 -29 -30 -31
leaf_value=-0.050342833515783308 0.14116684918602307 0.48081704080104831 -0.019097209376528455 0.12934085935354234 -0.063983446770700919 0.23717310413097345 0.27066756576299666 0.33801883721351622 0.11774791676713073 -0.011321585483494261 0.056027918871348871 0.34283979660831393 0.46034468791701583 -0.074683082633112616 -0.04858783234787338 0.17085680853236807 0.12028451565377139 0.20184078348898576 0.14010881256489527 0.077874313896665215 -0.082290006529253279 0.089722626701448913 0.14448138637976213 -0.013042459993258768 -0.015301363138215882 0.11127547408986305 -0.013296853547746484 0.18496257768943908 -0.014105231240026507 0.024866141340399755
leaf_weight=1542 24 20 258 30 29 24 20 25 46 42 26 28 22 38 68 22 27 38 21 26 26 66 22 23 35 35 22 20 102 167
leaf_count=1542 24 20 258 30 29 24 20 25 46 42 26 28 22 38 68 22 27 38 21 26 26 66 22 23 35 35 22 20 102 167
internal_value=0.00269388 0.103906 -0.0343887 0.0939352 0.111125 0.127978 0.183729 0.132203 0.0961453 0.131281 0.0885976 0.232409 0.343907 0.0215652 -0.00187778 0.00832181 0.0305674 0.0961582 0.0391552 0.0514405 -0.00220785 0.130689 0.0386956 0.0657027 0.0151876 0.0479871 0.0753511 0.112086 0.0201405 0.038146
internal_weight=2894 776 2118 756 641 520 189 143 331 225 118 58 46 106 115 576 318 167 63 98 52 104 121 47 99 70 68 46 296 194
internal_count=2894 776 2118 756 641 520 189 143 331 225 118 58 46 106 115 576 318 167 63 98 52 104 121 47 99 70 68 46 296 194
is_linear=0
shrinkage=0.05


Tree=18
num_leaves=31
num_cat=0
split_feature=5 4 0 0 1 4 10 11 9 4 7 4 9 12 8 15 15 3 11 1 0 10 15 16 7 10 12 0 11 16
split_gain=3921.12 1052.82 522.578 449.488 282.471 333.149 563.119 463.297 288.184 206.377 204.518 150.225 185.994 135.459 116.733 111.352 153.948 114.934 170.044 148.333 130.928 110.189 203.606 109.033 144.113 96.0675 89.8683 95.6739 79.0805 78.8656
threshold=28.850000000000012 15.657142857142858 1.0000000180025095e-35 0.55000000000000016 12.65 7.1357142857142888 10.950000000000001 15.735714285714288 94.500000000000014 8.6357142857142879 25.989285714285717 1.6071428571428574 79.785714285714292 22.485000000000003 95.500000000000014 336.50000000000006 317.50000000000006 0.25000000000000006 12.121428571428575 3.8500000000000001 4.6500000000000012 12.850000000000003 310.50000000000006 3.5000000000000004 23.817857142857147 13.950000000000001 19.815000000000001 6.9500000000000011 12.621428571428575 4.5000000000000009
decision_type=2 2 2 2 2 2 2 2 2 2 2 2 2 2 2 2 2 2 2 2 2 2 2 2 2 2 2 2 2 2
left_child=2 3 -1 13 5 10 9 8 -8 -7 15 -4 -13 -2 -10 16 17 25 19 20 -19 -6 -23 24 -16 -5 27 -20 -17 -15
right_child=1 -3 11 4 21 6 7 -9 14 -11 -12 12 -14 29 23 28 -18 18 26 -21 -22 22 -24 -25 -26 -27 -28 -29 -30 -31
leaf_value=-0.050511615046312665 0.089558681199948004 0.45677617788314823 -0.023010783598228928 0.081828406582707958 -0.01296746144392367 0.22531444883594909 0.25713419482111932 0.32111789846420291 0.13515112389411246 0.43732745437459508 0.24234338385008633 0.16757222924913681 0.014616533505386421 -0.070513655452264679 -0.018189949470643813 0.074877203741799223 0.18673202685619658 0.088477989548647953 0.12958638742566109 0.048252736906311954 0.26097845855084334 0.016698635542174666 0.20525113127448341 -0.072036630660295489 0.16033486515283585 0.23166347116231922 -0.039403927796096971 -0.01476753531870517 -0.056238837232408315 0.029542885240047209
leaf_weight=1397 30 20 329 23 58 24 20 25 28 22 21 21 371 54 26 23 38 22 24 49 22 41 22 24 20 20 44 22 23 31
leaf_count=1397 30 20 329 23 58 24 20 25 28 22 21 21 371 54 26 23 38 22 24 49 22 41 22 24 20 20 44 22 23 31
internal_value=0.00255918 0.0987111 -0.0326693 0.0892385 0.105569 0.12158 0.174542 0.125593 0.0841678 0.326712 0.091338 0.00190181 0.0228106 -0.00178389 0.0488685 0.0811086 0.0936174 0.0779609 0.0606767 0.108091 0.174728 0.0367608 0.0825424 0.0143554 0.0594295 0.151519 0.0116824 0.0605476 0.00931918 -0.0340224
internal_weight=2894 776 2118 756 641 520 189 143 118 46 331 721 392 115 98 310 264 226 183 93 44 121 63 70 46 43 90 46 46 85
internal_count=2894 776 2118 756 641 520 189 143 118 46 331 721 392 115 98 310 264 226 183 93 44 121 63 70 46 43 90 46 46 85
is_linear=0
shrinkage=0.05


Tree=19
num_leaves=31
num_cat=0
split_feature=5 4 4 6 12 2 4 2 9 6 4 2 6 11 6 12 13 13 2 3 3 7 2 2 7 11 3 4 7 4
split_gain=3538.81 950.17 463.202 406.652 317.608 271.454 299.881 269.498 265.786 210.022 211.142 215.935 211.254 165 188.504 140.792 152.645 138.165 242.266 133.138 130.092 126.149 124.444 112.286 150.995 146.908 111.633 86.5779 85.1133 74.7063
threshold=28.850000000000012 15.657142857142858 0.74285714285714399 26.275000000000002 22.815000000000001 18.950000000000003 11.735714285714288 0.15000000000000005 97.071428571428584 22.925000000000004 5.7428571428571447 9.9500000000000011 23.725000000000005 12.492857142857146 23.425000000000004 17.715000000000003 20.739285714285717 18.480714285714289 4.1500000000000012 3.8500000000000001 0.25000000000000006 22.775000000000006 5.7500000000000009 0.15000000000000005 25.846428571428579 11.092857142857143 0.35000000000000003 9.0000000000000018 23.610714285714291 1.6071428571428574
decision_type=2 2 2 2 2 2 2 2 2 2 2 2 2 2 2 2 2 2 2 2 2 2 2 2 2 2 2 2 2 2
left_child=2 3 -1 4 5 6 7 -2 20 21 15 13 -13 17 -15 -11 -17 -12 -19 -14 -6 -9 -16 24 25 29 -26 -7 -23 -4
right_child=1 -3 23 -5 8 27 -8 9 -10 10 11 12 19 14 22 16 -18 18 -20 -21 -22 28 -24 -25 26 -27 -28 -29 -30 -31
leaf_value=-0.048046394446948776 0.2570450284481049 0.43393737584352493 0.0068181065576417114 0.28307033041119578 0.11497978560981298 -0.10200759734958412 0.26018028547366462 -0.091932518985122447 0.18805685071718126 -0.036353216297698741 0.14040247694109426 -0.040837616920471193 0.21855365017598327 0.23753353438029687 0.1196864151623514 0.032950289769653689 0.16446201445327865 0.1584190238605846 0.39306871511719449 0.048265822534449401 -0.018475378793913737 0.10649435338290299 -0.030210599713027475 -0.011626669554293012 0.15464499524661474 -0.037514226703594132 0.029241570457816127 0.045113049149513251 -0.0071181715000420811 0.12131879930866177
leaf_weight=1385 25 20 28 25 21 20 30 20 21 33 33 30 22 24 45 57 36 22 22 24 140 34 20 515 35 90 36 20 32 29
leaf_count=1385 25 20 28 25 21 20 30 20 21 33 33 30 22 24 45 57 36 22 22 24 140 34 20 515 35 90 36 20 32 29
internal_value=0.00243122 0.0937755 -0.0310358 0.0847765 0.0779949 0.096971 0.106827 0.0972225 0.0207539 0.0884217 0.104862 0.13219 0.0623873 0.164148 0.117781 0.0523741 0.0838581 0.21774 0.275744 0.129708 -0.00106818 0.0180741 0.0735643 0.0011056 0.0311841 0.00226443 0.0910602 -0.0284473 0.0514095 0.0650728
internal_weight=2894 776 2118 756 731 549 509 479 182 454 368 242 76 166 89 126 93 77 44 46 161 86 65 733 218 147 71 40 66 57
internal_count=2894 776 2118 756 731 549 509 479 182 454 368 242 76 166 89 126 93 77 44 46 161 86 65 733 218 147 71 40 66 57
is_linear=0
shrinkage=0.05


Tree=20
num_leaves=31
num_cat=0
split_feature=4 4 3 4 9 16 6 6 0 11 10 1 11 11 7 2 9 4 0 9 1 3 0 7 11 15 11 1 2 15
split_gain=3061.75 648.009 577.357 697.883 548.521 292.012 371.595 280.163 247.504 242.535 232.996 225.817 224.163 245.987 193.441 189.165 174.325 138.589 129.383 120.266 116.267 145.263 122.016 105.464 103.836 390.632 133.317 94.733 85.5605 95.4142
threshold=2.5857142857142867 7.1357142857142888 1.8500000000000003 10.692857142857145 80.357142857142875 3.5000000000000004 24.475000000000005 24.675000000000004 0.55000000000000016 12.778571428571432 16.250000000000004 2.0500000000000003 15.00714285714286 12.464285714285717 23.967857142857145 6.3500000000000005 93.357142857142875 6.4357142857142877 1.0000000180025095e-35 88.500000000000014 9.6500000000000004 5.3500000000000005 3.8500000000000001 24.18214285714286 13.478571428571431 308.50000000000006 12.378571428571432 10.850000000000003 0.25000000000000006 96.500000000000014
decision_type=2 2 2 2 2 2 2 2 2 2 2 2 2 2 2 2 2 2 2 2 2 2 2 2 2 2 2 2 2 2
left_child=18 4 3 7 -2 9 12 23 16 14 27 19 13 -7 -4 17 -6 20 -1 -10 21 22 -13 -3 26 -26 28 -11 -21 -30
right_child=1 2 5 -5 8 6 -8 -9 11 10 -12 15 -14 -15 -16 -17 -18 -19 -20 24 -22 -23 -24 -25 25 -27 -28 -29 29 -31
leaf_value=-0.046309745093576098 0.30062198420986536 0.15248545233924421 0.031790100464422724 0.48372872869173689 -0.076125007174355358 0.17112212330102922 0.33368823897270933 0.32115871636196974 0.20683802540103594 -0.02992066042125225 0.10215388644825329 0.16450743322309697 0.23837286695837975 -0.046066322270780807 0.22438934242183511 -0.028952989924066471 0.029724611083000174 0.1536261203474012 -0.016066091226560896 0.18556314464658499 -0.027116006345681426 -0.0062342305259223572 0.052644889363471205 0.011263896822929383 0.0072575789430867066 0.30939816609025006 -0.010436351854435129 -0.17397285962388631 0.10803272417220085 -0.02059229277074337
leaf_weight=1384 20 39 32 21 74 22 21 20 21 25 22 38 20 32 22 106 82 29 475 20 53 57 68 20 23 20 46 21 46 21
leaf_count=1384 20 39 32 21 74 22 21 20 21 25 22 38 20 32 22 106 82 29 475 20 53 57 68 20 23 20 46 21 46 21
internal_value=-0.000136897 0.0685178 0.128135 0.227537 0.0424145 0.0823284 0.148058 0.159435 0.0350791 0.0311458 -0.0316774 0.0508969 0.0953787 0.0424179 0.110256 0.0268512 -0.0204861 0.0509951 -0.0385821 0.0937398 0.0372159 0.0581336 0.0927466 0.104614 0.0802451 0.147788 0.058408 -0.0956836 0.0948084 0.0677174
internal_weight=2900 1041 317 100 724 217 95 79 704 122 68 548 74 54 54 351 156 245 1859 197 216 163 106 59 176 43 133 46 87 67
internal_count=2900 1041 317 100 724 217 95 79 704 122 68 548 74 54 54 351 156 245 1859 197 216 163 106 59 176 43 133 46 87 67
is_linear=0
shrinkage=0.05


Tree=21
num_leaves=31
num_cat=0
split_feature=4 4 3 4 9 16 2 1 0 0 12 2 16 1 2 9 15 13 10 12 12 2 4 3 4 12 0 0 13 12
split_gain=2763.23 584.828 521.065 629.84 495.04 269.81 446.65 256.522 237.149 223.373 205.334 276.879 210.313 203.8 170.721 157.328 143.244 240.535 133.413 200.524 125.236 150.315 124.949 119.475 160.635 140.842 116.769 113.658 107.826 83.2178
threshold=2.5857142857142867 7.1357142857142888 1.8500000000000003 10.692857142857145 80.357142857142875 4.5000000000000009 8.3500000000000032 13.750000000000002 8.8500000000000032 0.55000000000000016 19.215000000000003 12.15 1.5000000000000002 2.0500000000000003 6.3500000000000005 93.357142857142875 40.500000000000007 18.186428571428575 11.950000000000001 22.245000000000001 23.585000000000004 0.15000000000000005 4.642857142857145 1.0500000000000003 5.4500000000000011 20.555000000000003 1.0000000180025095e-35 7.1500000000000012 22.300000000000001 18.055000000000003
decision_type=2 2 2 2 2 2 2 2 2 2 2 2 2 2 2 2 2 2 2 2 2 2 2 2 2 2 2 2 2 2
left_child=26 4 3 7 -2 10 -7 8 -3 15 11 12 -4 20 18 -6 -12 -18 -15 22 21 -11 -20 25 -25 -23 -1 -24 -22 -16
right_child=1 2 5 -5 9 6 -8 -9 -10 13 16 -13 -14 14 29 -17 17 -19 19 -21 28 23 27 24 -26 -27 -28 -29 -30 -31
leaf_value=-0.04399425680032458 0.28559088725596665 0.11680429025042444 0.046204077443107963 0.45954227844874068 -0.07231875639629072 0.31904151500375183 0.051580256626412684 0.010875217130650646 0.32378210091590881 0.22898347492775192 -0.10435554076518333 -0.036347894292945666 0.25696369785783363 0.0092161328734263123 0.029401846422115342 0.02823837925566406 -0.089659146558154712 0.12800619795918464 -0.0078628666698932655 0.21708787639989802 -0.059528027389846416 0.079897816319550785 0.18601973286519449 -0.009707934935059814 0.13429036758401816 0.25362324822694066 -0.015262786710365234 0.046309331864924044 0.091971344019596779 -0.061994545048836502
leaf_weight=1384 20 31 20 21 74 27 37 23 25 23 28 24 29 115 40 82 22 30 46 23 23 28 24 45 34 20 475 37 24 66
leaf_count=1384 20 31 20 21 74 27 37 23 25 23 28 24 29 115 40 82 22 30 46 23 23 28 24 45 34 20 475 37 24 66
internal_value=-0.000130052 0.065092 0.121729 0.21616 0.0402938 0.078212 0.164415 0.151463 0.209205 0.0333251 0.042153 0.10279 0.170939 0.0483521 0.0255087 -0.0194618 -0.0131784 0.035917 0.0484453 0.0831481 0.0890528 0.111368 0.0543573 0.0900679 0.052266 0.152283 -0.036653 0.101277 0.0178334 -0.0275053
internal_weight=2900 1041 317 100 724 217 64 79 56 704 153 73 49 548 351 156 80 52 245 130 197 150 107 127 79 48 1859 61 47 106
internal_count=2900 1041 317 100 724 217 64 79 56 704 153 73 49 548 351 156 80 52 245 130 197 150 107 127 79 48 1859 61 47 106
is_linear=0
shrinkage=0.05


Tree=22
num_leaves=31
num_cat=0
split_feature=4 4 3 4 9 6 16 2 11 10 0 3 1 2 9 4 4 1 9 1 9 0 10 4 6 4 4 11 0 0
split_gain=2493.82 527.807 470.261 568.43 446.774 248.432 243.504 403.102 316.072 256.73 201.594 199.329 183.93 154.076 141.989 125.729 109.433 107.346 106.702 101.05 114.704 177.268 127.456 107.608 98.1457 96.5987 217.634 152.032 109.845 106.328
threshold=2.5857142857142867 7.1357142857142888 1.8500000000000003 10.692857142857145 80.357142857142875 24.675000000000004 4.5000000000000009 8.3500000000000032 12.678571428571432 17.050000000000004 0.55000000000000016 6.9500000000000011 2.0500000000000003 6.3500000000000005 93.357142857142875 5.7642857142857169 0.20000000000000159 6.7500000000000009 88.500000000000014 12.050000000000002 93.785714285714292 4.5500000000000007 11.950000000000001 4.642857142857145 23.875000000000004 6.1857142857142877 5.5928571428571452 14.40714285714286 3.0500000000000003 5.0500000000000007
decision_type=2 2 2 2 2 2 2 2 2 2 2 2 2 2 2 2 2 2 2 2 2 2 2 2 2 2 2 2 2 2
left_child=16 4 3 5 -2 24 8 -8 11 -10 14 -4 18 15 -6 19 -1 -17 -12 20 21 -14 -22 -24 -3 26 27 28 -20 -30
right_child=1 2 6 -5 10 -7 7 -9 9 -11 12 -13 13 -15 -16 17 -18 -19 25 -21 22 -23 23 -25 -26 -27 -28 -29 29 -31
leaf_value=-0.043746964419399625 0.27131134659051898 0.14199334523967796 0.21630101858848527 0.43656516419280145 -0.068702818654678963 0.29618029132485391 0.30308944417370692 0.049001241374660186 -0.065220341501491405 0.13790571179240943 0.19112965194064946 0.038403644063510003 0.21761600852012633 -0.026130073427943126 0.026826460077995207 0.028637481495738033 -0.018334062541956238 0.16350498692029053 -0.0211770855445177 -0.07783223809230895 -0.038118094392120841 0.016062438674271106 0.003351583844050765 0.13888981000140863 0.0086352298205549082 -0.026115754517641938 0.22090978613495826 0.18644194480031728 0.17506117507815364 0.034989912710374313
leaf_weight=1206 20 37 31 21 74 20 27 37 70 20 21 32 20 106 82 25 653 36 47 21 60 24 32 27 22 22 25 20 20 42
leaf_count=1206 20 37 31 21 74 20 27 37 70 20 21 32 20 106 82 25 653 36 47 21 60 24 32 27 22 22 25 20 20 42
internal_value=-0.00012355 0.0618374 0.115642 0.205352 0.0382791 0.14389 0.0743014 0.156195 0.0400453 -0.0200812 0.0316589 0.12594 0.0459345 0.0242332 -0.0184887 0.0460231 -0.0348203 0.108231 0.0846002 0.0253996 0.0386994 0.107678 0.0131949 0.0653776 0.0922666 0.0718893 0.08589 0.0597234 0.0364723 0.0801742
internal_weight=2900 1041 317 100 724 79 217 64 153 90 704 63 548 351 156 245 1859 61 197 184 163 44 119 59 59 176 154 129 109 62
internal_count=2900 1041 317 100 724 79 217 64 153 90 704 63 548 351 156 245 1859 61 197 184 163 44 119 59 59 176 154 129 109 62
is_linear=0
shrinkage=0.05


Tree=23
num_leaves=31
num_cat=0
split_feature=4 13 15 2 0 0 1 0 4 6 3 13 3 10 6 0 3 13 7 10 10 6 4 4 6 0 1 4 4 2
split_gain=2261.07 451.83 470.142 443.558 393.994 284.722 261.74 248.456 194.704 347.189 310.203 232.51 148.09 147.609 145.761 139.519 203.66 186.675 146.519 128.024 124.947 115.648 185.263 176.744 114.219 112.233 310.709 126.777 105.437 98.4983
threshold=3.9071428571428588 15.248571428571431 110.50000000000001 0.15000000000000005 2.0500000000000003 0.35000000000000003 23.000000000000004 0.65000000000000002 7.1357142857142888 24.775000000000002 2.7500000000000004 18.317857142857147 4.5500000000000007 10.750000000000002 23.875000000000004 9.8500000000000032 0.65000000000000002 19.537857142857145 24.025000000000006 14.750000000000002 13.65 24.925000000000004 2.5857142857142867 3.3142857142857154 23.725000000000005 5.1500000000000012 2.6500000000000008 5.400000000000003 6.078571428571431 0.65000000000000002
decision_type=2 2 2 2 2 2 2 2 2 2 2 2 2 2 2 2 2 2 2 2 2 2 2 2 2 2 2 2 2 2
left_child=5 2 -2 4 -3 -1 7 20 15 10 11 -10 -12 -14 -13 16 17 -9 -17 24 -5 -7 29 -24 -15 27 -27 -18 -29 -23
right_child=1 3 -4 6 -6 21 -8 8 9 -11 12 14 13 19 -16 18 25 -19 -20 -21 -22 22 23 -25 -26 26 -28 28 -30 -31
leaf_value=-0.037560129954650981 0.090351120433930704 0.021815319973975421 0.40546586245298388 0.017590121091588549 0.30000901327601504 -0.015975956626025824 -0.11453888286714969 0.026242735524746503 0.060466418895990616 0.27781962769535873 -0.065536717924156371 0.33432492273194447 0.18603200357407335 -0.095086052889625239 0.15016100142489783 0.086068122309667094 -0.041455697957426312 0.20757188510149716 -0.055328021873643399 0.11057708864100278 -0.10939114400400565 0.032516683691314295 0.17054555135456703 0.00023970119655132295 0.062638848816806633 0.24000082080778867 0.013226528000086547 0.12191170119878017 -0.006503915498333593 -0.048667143985372169
leaf_weight=1598 29 20 20 76 35 283 23 22 31 26 28 21 20 24 22 27 60 40 57 32 26 105 39 25 22 23 44 33 31 58
leaf_count=1598 29 20 20 76 35 283 23 22 31 26 28 21 20 24 22 27 60 40 57 32 26 105 39 25 22 23 44 33 31 58
internal_value=-0.000117373 0.0719104 0.218969 0.0622121 0.198848 -0.0271791 0.0512892 0.0570246 0.0700332 0.105939 0.0835945 0.164849 0.0358736 0.0648479 0.240102 0.0459539 0.0644914 0.143229 -0.00987926 0.0337751 -0.0147777 0.0053483 0.0319332 0.10402 -0.0196524 0.0389325 0.0910744 0.0107591 0.0597104 0.00362919
internal_weight=2900 792 49 743 55 2108 688 665 563 226 200 74 126 98 43 337 253 62 84 78 102 510 227 64 46 191 67 124 64 163
internal_count=2900 792 49 743 55 2108 688 665 563 226 200 74 126 98 43 337 253 62 84 78 102 510 227 64 46 191 67 124 64 163
is_linear=0
shrinkage=0.05


Tree=24
num_leaves=31
num_cat=0
split_feature=4 4 2 9 9 16 11 11 2 5 6 0 10 16 7 12 2 1 10 6 4 9 1 12 4 2 1 2 7 15
split_gain=2042.35 382.869 425.886 761.2 368.124 238.335 411.701 234.599 171.222 172.002 216.383 167.843 166.26 137.848 233.618 180.532 139.405 136.612 95.744 93.2153 165.613 91.874 122.358 97.4385 92.2208 83.9499 71.2641 61.1031 66.3831 104.77
threshold=3.0857142857142867 8.3785714285714317 9.6500000000000004 94.928571428571445 82.357142857142875 2.5000000000000004 12.621428571428575 15.178571428571432 6.3500000000000005 38.95000000000001 23.025000000000002 0.45000000000000007 11.350000000000003 3.5000000000000004 24.525000000000006 19.025000000000002 3.8500000000000001 12.050000000000002 17.050000000000004 24.925000000000004 2.5857142857142867 91.642857142857153 2.0500000000000003 18.995000000000001 6.1857142857142877 0.65000000000000002 10.050000000000002 5.3500000000000005 24.696428571428577 46.500000000000007
decision_type=2 2 2 2 2 2 2 2 2 2 2 2 2 2 2 2 2 2 2 2 2 2 2 2 2 2 2 2 2 2
left_child=11 4 3 -3 -2 -5 -7 12 9 17 -11 -1 -4 15 -15 -12 -17 18 27 -13 25 -10 24 26 -23 -21 -24 28 -6 -30
right_child=1 2 7 5 8 6 -8 -9 21 10 13 19 -14 14 -16 16 -18 -19 -20 20 -22 22 23 -25 -26 -27 -28 -29 29 -31
leaf_value=-0.036083419229595425 0.25492704078555106 0.43036492718756203 0.10172601219104685 0.029717165304393302 0.0025314673384213273 0.35100570941682568 0.048459495733613557 0.15322463120169499 -0.076317574770655483 -0.040130929190665486 0.17680039132634801 -0.02357316605428136 -0.063526477747493315 0.10023344324694738 0.30704470493576747 -0.037792826345299978 0.12856848035939036 -0.090804046782709313 0.13691113960618775 0.032416568790535331 0.13599754496124283 0.12018811385600994 0.080707232795051639 -0.046322806568149438 -0.009774373223384222 -0.044552167032465895 -0.031369686952751615 0.11411999783345633 0.15863276422023775 0.03018849790096283
leaf_weight=1592 20 25 23 41 136 22 23 34 32 25 30 190 45 36 22 34 20 21 24 103 29 39 37 81 21 54 23 21 20 77
leaf_count=1592 20 25 23 41 136 22 23 34 32 25 30 190 45 36 22 34 20 21 24 103 29 39 37 81 21 54 23 21 20 77
internal_value=-0.000111503 0.0608619 0.119741 0.187516 0.0434193 0.11692 0.196371 0.0459867 0.0373676 0.0548659 0.0955122 -0.0289871 -0.00763225 0.119393 0.178679 0.0784574 0.0238225 0.0321637 0.0414526 0.00105882 0.0262205 0.00237094 0.0148985 -0.0105495 0.0747012 0.00594325 0.0377444 0.0324329 0.0250706 0.0566719
internal_weight=2900 932 213 111 719 86 45 102 699 466 167 1968 68 142 58 84 54 299 278 376 186 233 201 141 60 157 60 254 233 97
internal_count=2900 932 213 111 719 86 45 102 699 466 167 1968 68 142 58 84 54 299 278 376 186 233 201 141 60 157 60 254 233 97
is_linear=0
shrinkage=0.05


Tree=25
num_leaves=31
num_cat=0
split_feature=4 12 1 3 4 3 2 10 3 9 4 4 8 4 3 7 4 6 1 16 10 12 3 16 7 2 10 10 12 4
split_gain=1710.65 918.313 706.306 719.792 681.703 653.912 274.311 211.553 195.785 190.627 200.702 136.199 129.662 120.716 175.682 165.53 187.173 116.61 90.6991 105.485 97.1058 86.7243 126.825 130.912 97.5444 84.6399 75.817 74.5848 66.851 66.6008
threshold=7.6214285714285728 9.8850000000000016 8.8500000000000032 2.9500000000000006 1.6071428571428574 0.65000000000000002 9.9500000000000011 14.65 10.15 81.071428571428584 2.6928571428571439 12.828571428571431 82.500000000000014 3.4214285714285722 0.55000000000000016 24.246428571428577 4.892857142857145 23.225000000000005 13.350000000000003 5.5000000000000009 14.050000000000002 20.825000000000003 3.4500000000000006 1.5000000000000002 23.63214285714286 1.0000000180025095e-35 13.65 11.950000000000001 16.415000000000003 6.078571428571431
decision_type=2 2 2 2 2 2 2 2 2 2 2 2 2 2 2 2 2 2 2 2 2 2 2 2 2 2 2 2 2 2
left_child=4 -2 3 5 -1 -3 9 8 -5 10 -6 17 -11 25 15 -15 -17 -4 19 21 -21 22 -16 -24 -25 -14 -19 -23 -8 -29
right_child=1 2 11 7 6 -7 28 -9 -10 12 -12 -13 13 14 18 16 -18 26 -20 20 -22 27 23 24 -26 -27 -28 29 -30 -31
leaf_value=-0.032590900287077951 0.42616737921806902 0.1545543621959431 0.096730936495097064 0.11146087846473646 0.031874440286470497 0.51436326976703561 0.031419744573178747 0.21254557371139526 -0.061045788896494903 -0.052600215167245445 0.24844569712877274 -0.11264411750293912 0.065731299042701724 0.19180627621929436 -0.0073753478095078696 0.13392775658258171 -0.015387808216349564 -0.060661640199455059 -0.061877829180313995 0.16894148794504316 0.022396916188299656 -0.039499068716152885 0.19357740561599318 -0.03639875359833241 0.10353970437338858 -0.005152420832318593 0.047313913446048211 0.069347139279654427 -0.066544337882934249 -0.038878597053033967
leaf_weight=1626 22 28 38 38 23 23 21 23 29 51 20 21 50 34 52 43 41 37 26 26 20 72 23 20 33 267 29 44 102 21
leaf_count=1626 22 28 38 38 23 23 21 23 29 51 20 21 50 34 52 43 41 37 26 26 20 72 23 20 33 267 29 44 102 21
internal_value=5.66399e-05 0.115712 0.0900357 0.166749 -0.012681 0.316821 0.0200526 0.0817082 0.0367938 0.0299766 0.132605 0.00350298 0.0246145 0.0297155 0.0462187 0.0987238 0.0610475 0.0269558 0.0278341 0.0353341 0.105226 0.0232018 0.0527937 0.093962 0.0507327 0.00602798 -0.0132178 -0.00444605 -0.0498188 0.0343819
internal_weight=2903 288 266 141 2615 51 989 90 67 866 43 125 823 772 455 118 84 104 337 311 46 265 128 76 53 317 66 137 123 65
internal_count=2903 288 266 141 2615 51 989 90 67 866 43 125 823 772 455 118 84 104 337 311 46 265 128 76 53 317 66 137 123 65
is_linear=0
shrinkage=0.05


Tree=26
num_leaves=31
num_cat=0
split_feature=4 13 6 0 1 5 3 4 5 6 6 10 11 11 13 6 5 9 1 10 13 13 12 0 4 14 9 3 9 11
split_gain=1549.16 702.249 396.134 381.574 339.678 379.969 845.474 392.021 381.662 233.252 252.214 204.409 195.812 124.808 168.786 120.948 141.854 219.819 169.784 116.565 91.0821 106.126 103.606 183.251 126.592 92.2015 81.0093 86.6738 96.7456 79.0579
threshold=5.400000000000003 13.887142857142857 25.725000000000005 1.0000000180025095e-35 23.600000000000005 59.95000000000001 3.0500000000000003 10.692857142857145 66.950000000000017 25.075000000000006 24.875000000000004 16.250000000000004 10.864285714285716 13.750000000000002 17.983571428571434 24.825000000000006 9.6500000000000092 83.785714285714292 1.2500000000000002 9.7500000000000018 18.631428571428575 17.813571428571432 21.755000000000006 2.4500000000000006 7.3357142857142881 10.500000000000002 88.071428571428584 0.25000000000000006 91.214285714285737 14.307142857142859
decision_type=2 2 2 2 2 2 2 2 2 2 2 2 2 2 2 2 2 2 2 2 2 2 2 2 2 2 2 2 2 2
left_child=3 -2 4 -1 5 9 7 8 -7 10 12 13 19 14 -8 29 -17 18 -18 -3 21 -14 23 -22 25 -25 -19 28 -28 -5
right_child=1 2 -4 15 -6 6 11 -9 -10 -11 -12 -13 20 -15 -16 16 17 26 -20 -21 22 -23 -24 24 -26 -27 27 -29 -30 -31
leaf_value=-0.034098402446496034 0.33879914757950852 0.046755420948777882 0.24913773878856943 -0.018050225895813825 -0.13100350225965182 0.30034234431971396 0.1424020141363144 0.44466116403229539 0.014361940324306488 -0.11728931483253838 0.20076450886933703 0.17189841859397437 0.010812020392128916 -0.098874821700155741 -0.030082108926128698 -0.010196958699574073 0.25444286133916605 -0.044381017389241606 0.059768073633313185 0.21541893228888515 0.19845452183369727 -0.099004935586091247 -0.022918339790371452 -0.094468852735701062 0.13322817176580429 0.048990854520040261 0.028944018341246103 0.022727577141180202 0.1807158064274561 0.035942059485126791
leaf_weight=1426 24 21 27 416 24 28 23 20 20 25 23 21 66 24 37 156 21 32 24 20 21 33 46 21 20 24 21 137 21 81
leaf_count=1426 24 21 27 416 24 28 23 20 20 25 23 21 66 24 37 156 21 32 24 20 21 33 46 21 20 24 21 137 21 81
internal_value=5.38084e-05 0.0741105 0.0624331 -0.0179608 0.0526825 0.0616246 0.121324 0.258677 0.181184 0.0293494 0.0417765 0.0323722 0.0283326 -0.00250937 0.0360368 0.00735507 0.0273868 0.0502894 0.150616 0.12903 0.0104599 -0.0257936 0.03765 0.070047 0.0285615 -0.017957 0.0288926 0.0419918 0.10483 -0.00925068
internal_weight=2903 568 544 2335 517 493 173 68 48 320 295 105 272 84 60 909 412 256 45 41 231 99 132 86 65 45 211 179 42 497
internal_count=2903 568 544 2335 517 493 173 68 48 320 295 105 272 84 60 909 412 256 45 41 231 99 132 86 65 45 211 179 42 497
is_linear=0
shrinkage=0.05


Tree=27
num_leaves=31
num_cat=0
split_feature=4 8 11 5 6 2 3 10 13 2 9 6 8 2 3 5 3 1 4 10 2 2 13 15 7 1 8 1 10 6
split_gain=1398.19 576.578 915.344 568.919 374.754 369.753 367.741 514.243 367.412 253.737 228.539 203.622 101.64 116.467 136.715 136.261 144.766 138.409 108.179 170.612 155.127 109.777 105.275 90.8569 89.9038 79.8237 89.9948 79.1967 100.484 78.3389
threshold=7.6214285714285728 93.500000000000014 15.650000000000002 12.700000000000005 23.175000000000004 18.750000000000004 6.9500000000000011 14.350000000000003 20.103571428571431 9.9500000000000011 79.071428571428584 23.175000000000004 82.500000000000014 1.0000000180025095e-35 3.8500000000000001 32.350000000000016 7.9500000000000011 8.9500000000000011 6.6214285714285728 11.950000000000001 1.6500000000000001 3.8500000000000001 21.74071428571429 110.50000000000001 23.610714285714291 6.4500000000000011 87.500000000000014 5.6500000000000012 12.550000000000002 25.575000000000006
decision_type=2 2 2 2 2 2 2 2 2 2 2 2 2 2 2 2 2 2 2 2 2 2 2 2 2 2 2 2 2 2
left_child=3 -2 5 -1 -4 6 7 8 11 10 -5 -3 29 14 23 25 17 18 19 20 -17 -21 24 -14 -18 26 -15 -8 -29 -12
right_child=1 2 4 9 -6 -7 27 -9 -10 -11 12 -13 13 15 -16 16 22 -19 -20 21 -22 -23 -24 -25 -26 -27 -28 28 -30 -31
leaf_value=-0.028877494550397821 0.31603556010743672 0.25587067447602746 0.40745849715402493 0.19265327340080626 0.12347311726993038 -0.11440669136012303 0.044727009038130448 -0.036531974879257821 0.38149199619889262 -0.04747353409260481 -0.10340538666798518 0.053686092003728404 0.21946579279998937 0.098128087998464189 0.010489703664172661 -0.095121425483375793 -0.059292324508229889 0.011856184208825712 0.18963777406939442 0.19564450351411808 0.083487516124883018 0.04801693862304092 -0.10481419046409429 0.079635402531577998 0.065997299113207397 -0.046660777118343572 0.0056748364888654472 -0.13302833438695719 0.018719993233680728 0.01933483945635649
leaf_weight=1679 29 20 26 21 21 34 27 34 20 122 26 33 21 29 34 20 21 62 28 34 31 20 20 26 45 65 285 24 20 26
leaf_count=1679 29 20 26 21 21 34 27 34 20 122 26 33 21 29 34 20 21 62 28 34 31 20 20 26 45 65 285 24 20 26
internal_value=5.11176e-05 0.104612 0.0809389 -0.0114646 0.280571 0.0366808 0.0655402 0.124082 0.198889 0.0197708 0.0298492 0.129982 0.0255379 0.0302799 0.0868636 0.0233355 0.04972 0.0735532 0.102314 0.079028 0.0134448 0.140968 -0.00432028 0.142113 0.0261324 0.00377333 0.0142135 -0.0226852 -0.0640518 -0.0420353
internal_weight=2903 288 259 2615 47 212 178 107 73 936 814 53 793 741 81 660 281 195 133 105 51 54 86 47 66 379 314 71 44 52
internal_count=2903 288 259 2615 47 212 178 107 73 936 814 53 793 741 81 660 281 195 133 105 51 54 86 47 66 379 314 71 44 52
is_linear=0
shrinkage=0.05


Tree=28
num_leaves=31
num_cat=0
split_feature=0 13 4 8 11 11 3 1 3 0 4 9 10 8 2 0 11 11 11 9 0 6 9 1 5 9 0 6 4 4
split_gain=1296.37 733.228 387.549 732.354 394.872 265.658 284.344 152.304 153.133 114.842 153.58 359.421 124.233 132.315 125.707 128.103 129.685 122.046 118.254 203.177 114.545 107.786 138.576 91.9659 117.298 159.863 71.8762 129.907 122.383 71.3554
threshold=0.55000000000000016 13.887142857142857 6.7357142857142867 93.500000000000014 10.992857142857146 15.150000000000004 1.8500000000000003 18.750000000000004 12.750000000000002 12.850000000000003 3.4785714285714295 87.214285714285737 11.050000000000002 91.500000000000014 6.1500000000000012 2.2500000000000004 14.592857142857145 11.978571428571431 13.192857142857145 96.214285714285737 13.15 24.375000000000004 97.071428571428584 2.5500000000000003 12.950000000000006 92.357142857142875 1.0000000180025095e-35 25.725000000000005 1.2500000000000004 5.0500000000000007
decision_type=2 2 2 2 2 2 2 2 2 2 2 2 2 2 2 2 2 2 2 2 2 2 2 2 2 2 2 2 2 2
left_child=26 -2 9 -4 -5 7 -7 8 20 10 23 -12 17 -14 15 -15 18 29 19 -17 21 22 -6 24 -3 -26 -1 -28 -29 -13
right_child=1 2 3 4 5 6 -8 -9 -10 -11 11 12 13 14 -16 16 -18 -19 -20 -21 -22 -23 -24 -25 25 -27 27 28 -30 -31
leaf_value=-0.031456295223566931 0.30945079970359801 -0.0093280059628580748 0.31298070958545132 0.22905822654565175 -0.057875172553273541 0.27429115414958111 0.042228607920873351 -0.088907233998179444 -0.072869554460048683 -0.060711785571442717 0.23636732561432799 0.071275031797179006 -0.038073822506703436 0.21346450472871462 0.01113889077514933 0.20293317110765552 0.17124821183582148 -0.089918281013766921 -0.060600925888866189 0.0027809396298835057 0.12445715077412434 0.11446284830570222 0.077745788616518818 -0.037057555470836619 0.13790702244702679 0.0082943574357472495 -0.025068457354481023 -0.0053448821237424811 0.11421896519237443 -0.017318180846232996
leaf_weight=1453 25 171 31 30 48 22 33 32 30 45 23 41 32 21 57 21 27 33 20 32 39 25 31 118 39 61 225 49 38 51
leaf_count=1453 25 171 31 30 48 22 33 32 30 45 23 41 32 21 57 21 27 33 20 32 39 25 31 118 39 61 225 49 38 51
internal_value=4.85618e-05 0.0416599 0.0356448 0.0819891 0.0572969 0.0374782 0.135054 0.0112995 0.0298348 0.0168614 0.0215344 0.045167 0.0320398 0.0555313 0.0723592 0.101199 0.0776227 -0.00742603 0.0429941 0.0820865 0.0513812 0.0239777 -0.00465682 -0.000214784 0.0158275 0.0588433 -0.0267807 -0.00500635 0.0468784 0.0221636
internal_weight=2903 1138 1113 321 290 260 55 205 173 792 747 358 335 210 178 121 100 125 73 53 143 104 79 389 271 100 1765 312 87 92
internal_count=2903 1138 1113 321 290 260 55 205 173 792 747 358 335 210 178 121 100 125 73 53 143 104 79 389 271 100 1765 312 87 92
is_linear=0
shrinkage=0.05


Tree=29
num_leaves=31
num_cat=0
split_feature=0 13 4 3 1 16 1 1 5 9 15 4 0 3 0 9 13 11 11 9 10 9 12 1 12 15 1 6 4 4
split_gain=1169.97 661.738 367.003 756.961 464.141 242.245 190.34 151.229 242.219 423.371 139.828 128.308 153.811 123.345 218.946 177.185 141.373 124.406 122.442 85.7951 82.949 106.78 73.2925 110.478 72.3151 65.4974 58.4518 55.9351 99.0781 50.0715
threshold=0.55000000000000016 13.887142857142857 8.578571428571431 1.2500000000000002 5.9500000000000011 1.5000000000000002 17.450000000000003 8.9500000000000011 17.800000000000015 85.500000000000014 50.500000000000007 7.7428571428571447 12.850000000000003 1.9500000000000002 2.6500000000000008 93.928571428571445 17.605000000000004 12.621428571428575 14.65 91.642857142857153 13.550000000000002 95.785714285714292 21.700000000000006 2.1500000000000008 23.545000000000005 74.500000000000014 3.2500000000000004 23.725000000000005 4.321428571428573 1.6071428571428574
decision_type=2 2 2 2 2 2 2 2 2 2 2 2 2 2 2 2 2 2 2 2 2 2 2 2 2 2 2 2 2 2
left_child=25 -2 7 4 -4 -5 10 8 26 -10 -7 12 13 14 15 -11 -15 22 -19 -16 21 -21 23 -18 -24 27 -3 -1 29 -29
right_child=1 2 3 5 -6 6 -8 -9 9 11 -12 -13 -14 16 19 -17 17 18 -20 20 -22 -23 24 -25 -26 -27 -28 28 -30 -31
leaf_value=0.079039126499132681 0.29397825790941717 0.0021491754162860544 0.45129413932561874 -0.070712572414624073 0.14033424655596416 0.20758557851825443 -0.047018763626163661 -0.022515945804641686 0.24749594496992919 0.25980978185931841 0.060331408816732858 0.14045946123699346 -0.050931425320777636 0.12884903272184042 -0.051740283180366865 0.078851373184231979 0.17516840294003488 -0.081950261867765731 0.039883331791497771 0.15411716462112965 -0.013932637228020307 0.030881429583025283 -0.062898577153682717 0.02785543401326452 0.053142638247588581 -0.028493238320142181 -0.062697197569579616 -0.017031507780133136 -0.088979234546422967 0.050537289998744829
leaf_weight=22 25 228 20 38 30 28 22 162 26 24 38 30 48 26 22 31 20 58 32 32 29 39 25 35 29 1604 41 58 29 52
leaf_count=22 25 228 20 38 30 28 22 162 26 24 38 30 48 26 22 31 20 58 32 32 29 39 25 35 29 1604 41 58 29 52
internal_value=4.61337e-05 0.0395769 0.0338626 0.10011 0.264718 0.0347897 0.0803475 0.021419 0.0306029 0.0509838 0.122803 0.0403394 0.0336647 0.0437657 0.0749922 0.157815 0.0192009 0.00487503 -0.0386317 0.037654 0.0573208 0.0864243 0.040798 0.0814238 -0.000580147 -0.0254417 -0.00773447 0.00496009 -0.00676465 0.0149101
internal_weight=2903 1138 1113 176 50 126 88 937 775 506 66 480 450 402 177 55 225 199 90 122 100 71 109 55 54 1765 269 161 139 110
internal_count=2903 1138 1113 176 50 126 88 937 775 506 66 480 450 402 177 55 225 199 90 122 100 71 109 55 54 1765 269 161 139 110
is_linear=0
shrinkage=0.05


Tree=30
num_leaves=31
num_cat=0
split_feature=4 4 2 4 0 3 4 3 6 12 2 2 2 15 12 4 6 5 0 3 15 10 4 11 16 10 11 11 2 4
split_gain=1334.99 460.189 375.125 483.272 282.988 187.503 321.351 294.774 225.38 166.518 150.29 216.811 141.355 141.298 220.87 130.01 104.094 135.597 231.17 237.309 164.204 101.695 100.289 77.5356 69.7806 66.0311 95.7748 64.2243 62.5112 64.7806
threshold=5.400000000000003 15.657142857142858 0.45000000000000007 6.5785714285714301 1.0000000180025095e-35 13.850000000000003 11.250000000000002 11.850000000000003 24.775000000000002 11.940000000000001 4.0500000000000007 9.5500000000000025 14.600000000000001 44.500000000000007 20.425000000000004 12.542857142857146 24.825000000000006 18.45000000000001 9.0500000000000025 0.55000000000000016 283.50000000000006 17.250000000000004 9.2928571428571463 12.292857142857146 1.5000000000000002 12.050000000000002 12.264285714285718 12.492857142857146 0.95000000000000007 0.54285714285714326
decision_type=2 2 2 2 2 2 2 2 2 2 2 2 2 2 2 2 2 2 2 2 2 2 2 2 2 2 2 2 2 2
left_child=4 2 3 -2 -1 6 7 8 9 -4 -10 -12 13 14 -11 -8 21 28 19 20 -19 24 25 -21 -6 -15 -27 -7 29 -18
right_child=1 -3 5 -5 16 27 15 -9 10 12 11 -13 -14 22 -16 -17 17 18 -20 23 -22 -23 -24 -25 -26 26 -28 -29 -30 -31
leaf_value=-0.029382769010194085 0.039344602424119204 0.30559418648481373 0.11420140288966268 0.38277046352624899 -0.047552072889799998 0.035180893205106256 0.27793091431260114 0.22315733837471768 0.0065634548325430274 0.17101953949666385 0.26692295072972777 0.05652906894683838 -0.072543382279428789 -0.022755399054628523 -0.033507935838265855 0.11441962094076219 -0.02800423777907303 0.26409497335553173 -0.091231380385302374 0.089709064654178106 0.080996961115549007 0.070873699307038976 -0.10025727632253066 -0.0087386151899894095 -0.0036385564076338427 0.12745023913060624 0.0046864759890322986 -0.076569082256820464 -0.041240889988228925 0.035425880673701747
leaf_weight=1428 21 20 38 20 123 20 20 22 22 33 25 24 51 68 22 31 57 25 21 36 24 37 23 45 342 24 47 36 61 137
leaf_count=1428 21 20 38 20 123 20 20 22 22 33 25 24 51 68 22 31 57 25 21 36 24 37 23 45 342 24 47 36 61 137
internal_value=0.001199 0.0700214 0.0614081 0.206869 -0.0155057 0.0496217 0.0603588 0.0452527 0.034871 0.016249 0.115129 0.163873 0.00236024 0.0199643 0.0892085 0.178542 0.00631848 0.0251432 0.0626936 0.0875584 0.174414 -0.0089063 -0.00354453 0.0350159 -0.0152544 0.0124583 0.0461841 -0.0366584 0.00290749 0.0167892
internal_weight=2903 567 547 41 2336 506 450 399 377 306 71 49 268 217 55 51 908 406 151 130 49 502 162 81 465 139 71 56 255 194
internal_count=2903 567 547 41 2336 506 450 399 377 306 71 49 268 217 55 51 908 406 151 130 49 502 162 81 465 139 71 56 255 194
is_linear=0
shrinkage=0.05


Tree=31
num_leaves=31
num_cat=0
split_feature=5 5 1 0 3 5 7 11 8 10 15 0 3 15 12 5 5 12 1 11 11 10 12 9 0 5 9 8 8 9
split_gain=1211.79 455.832 237.57 230.778 253.313 476.958 242.637 274.067 236.479 326.503 176.909 141.1 128.065 161.785 171.471 141.606 291.832 155.037 133.415 120.175 113.188 110.403 104.329 96.2118 89.0737 99.6737 115.962 70.9163 94.914 72.5453
threshold=28.850000000000012 109.60000000000001 24.250000000000004 1.3500000000000003 13.850000000000003 78.750000000000014 24.146428571428576 12.292857142857146 93.500000000000014 16.450000000000003 303.50000000000006 1.0000000180025095e-35 11.65 40.500000000000007 20.425000000000004 64.850000000000023 59.150000000000013 22.335000000000004 2.6500000000000008 12.464285714285717 12.578571428571431 14.750000000000002 20.125000000000004 95.785714285714292 3.8500000000000001 9.6500000000000092 81.928571428571445 84.500000000000014 96.500000000000014 94.928571428571445
decision_type=2 2 2 2 2 2 2 2 2 2 2 2 2 2 2 2 2 2 2 2 2 2 2 2 2 2 2 2 2 2
left_child=11 2 3 6 5 8 -2 -8 9 22 -9 -1 13 14 20 16 17 18 23 -6 -10 -7 -5 -15 25 -13 -27 -28 29 -29
right_child=1 -3 -4 4 19 21 7 10 12 -11 -12 24 -14 15 -16 -17 -18 -19 -20 -21 -22 -23 -24 -25 -26 26 27 28 -30 -31
leaf_value=-0.027492124121998408 -0.056025770015415102 0.29031447440385821 -0.11734776028564997 -0.0047904709620135173 0.068007029042346401 0.32917725905776024 0.16558406385215554 -0.086107710987562314 0.26039064027834685 0.31476613779862728 0.098078061775727712 -0.01319442787457443 0.17348503926768899 0.15585162043571474 0.027546936810310736 -0.064224404018176237 0.21773042914768062 0.12850311386709412 -0.017263786206564113 -0.08411700665145308 0.099335199058987203 0.16304259404540064 0.13863479221472516 0.012483746796846391 -0.032973921678451278 0.14249886125326158 -0.067711495075907027 0.077386926896501299 -0.0095323589418341622 0.0032454098973955427
leaf_weight=1414 87 20 21 21 20 20 37 32 20 21 22 261 20 22 38 38 21 30 146 37 24 20 32 25 161 21 21 101 101 49
leaf_count=1414 87 20 21 21 20 20 37 32 20 21 22 261 20 22 38 38 21 30 146 37 24 20 32 25 161 21 21 101 101 49
internal_value=0.00113905 0.054716 0.0484667 0.0532172 0.0691055 0.0805337 0.00367775 0.0607569 0.0660729 0.147916 -0.0110691 -0.0183389 0.0503009 0.0435326 0.105349 0.0255575 0.03954 0.0227597 0.00632288 -0.0307402 0.172542 0.24611 0.0818059 0.0795921 -0.000237309 0.0092764 0.0292931 0.0205529 0.0279376 0.0531674
internal_weight=2903 774 754 733 555 498 178 91 458 74 54 2129 384 364 82 282 244 223 193 57 44 40 53 47 715 554 293 272 251 150
internal_count=2903 774 754 733 555 498 178 91 458 74 54 2129 384 364 82 282 244 223 193 57 44 40 53 47 715 554 293 272 251 150
is_linear=0
shrinkage=0.05


Tree=32
num_leaves=31
num_cat=0
split_feature=4 4 0 7 0 3 13 3 12 1 6 15 12 15 4 4 1 4 3 0 6 4 1 12 10 13 13 10 9 1
split_gain=1098.39 373.719 249.523 266.274 228.368 186.936 216.436 233.645 150.525 208.995 181.036 137.693 186.945 170.902 273.164 125.31 114.79 134.237 208.688 293.014 141.505 116.022 109.813 81.5498 135.562 132.359 96.2514 81.1865 78.4399 75.7464
threshold=5.400000000000003 15.657142857142858 0.45000000000000007 25.742857142857147 1.0000000180025095e-35 13.850000000000003 14.452857142857143 11.850000000000003 11.940000000000001 13.350000000000003 22.975000000000005 44.500000000000007 20.285000000000004 341.50000000000006 7.1357142857142888 9.2928571428571463 9.9500000000000011 2.5857142857142867 0.45000000000000007 7.0500000000000007 24.325000000000006 3.8428571428571447 8.0500000000000025 22.215000000000003 11.550000000000002 18.545714285714286 18.680000000000003 17.850000000000005 94.785714285714292 6.4500000000000011
decision_type=2 2 2 2 2 2 2 2 2 2 2 2 2 2 2 2 2 2 2 2 2 2 2 2 2 2 2 2 2 2
left_child=4 2 28 5 -1 6 -4 8 9 -8 -10 12 22 15 -15 23 17 -6 19 20 -19 -22 -12 24 26 -26 -13 29 -2 -20
right_child=1 -3 3 -5 16 -7 7 -9 10 -11 11 13 -14 14 -16 -17 -18 18 27 -21 21 -23 -24 -25 25 -27 -28 -29 -30 -31
leaf_value=-0.026536341646884461 -0.090085739152772085 0.2757987519353628 0.23081360079348087 0.23715941370888191 -0.0077488297283129226 -0.030214874449974075 0.22310493801321304 0.21020225374400617 -0.064039494781880771 0.011480932044796647 0.26757648602128031 0.018008808846670121 0.030813169192809325 0.0056585153952861825 0.25585846096277237 -0.07549945643969945 -0.067341011056822594 0.046645123139023782 0.010492675688627336 -0.029919835367925571 0.12428195466597876 0.27354572486618295 0.10387094078496809 0.12134893096628643 -0.030095816820859912 0.11728283880063549 -0.13164465193237579 0.10445547707378865 0.032147388302144551 -0.07203562930226326
leaf_weight=1428 35 20 20 22 478 52 28 25 37 20 20 22 39 24 20 35 51 26 212 36 30 23 21 21 25 39 21 20 21 32
leaf_count=1428 35 20 20 22 478 52 28 25 37 20 20 22 39 24 20 35 51 26 212 36 30 23 21 21 25 39 21 20 21 32
internal_value=0.0010821 0.0635088 0.0557468 0.0671515 -0.0140703 0.0591767 0.0703239 0.0622388 0.052295 0.134928 0.040053 0.0534726 0.109182 0.0319426 0.119386 0.00833827 0.00553497 0.00987182 0.0320952 0.0883102 0.142187 0.189057 0.183727 0.0312626 0.0135822 0.0597131 -0.0550778 0.00760764 -0.0442483 -0.000330709
internal_weight=2903 567 547 491 2336 469 417 397 372 48 324 287 80 207 44 163 908 857 379 115 79 53 41 128 107 64 43 264 56 244
internal_count=2903 567 547 491 2336 469 417 397 372 48 324 287 80 207 44 163 908 857 379 115 79 53 41 128 107 64 43 264 56 244
is_linear=0
shrinkage=0.05


Tree=33
num_leaves=31
num_cat=0
split_feature=5 2 4 2 5 6 12 7 10 6 1 3 15 15 8 1 2 12 13 12 4 15 15 3 12 13 2 8 3 14
split_gain=998.324 355.737 989.371 313.785 191.448 177.789 331.698 181.834 208.803 204.54 163.831 142.18 124.341 111.633 108.105 151.019 124.375 228.151 102.121 93.5851 93.4469 92.4958 106.461 90.5903 137.604 139.049 98.6806 73.9579 71.2128 69.6553
threshold=38.95000000000001 17.250000000000004 13.957142857142861 0.45000000000000007 12.950000000000006 25.725000000000005 20.285000000000004 23.089285714285719 15.550000000000002 24.475000000000005 10.350000000000003 0.95000000000000007 293.50000000000006 74.500000000000014 82.500000000000014 6.4500000000000011 0.15000000000000005 21.015000000000004 23.116428571428575 14.265000000000002 8.3785714285714317 56.500000000000007 38.500000000000007 0.45000000000000007 20.085000000000004 23.313571428571432 2.2500000000000004 96.500000000000014 9.5500000000000025 1.5000000000000002
decision_type=2 2 2 2 2 2 2 2 2 2 2 2 2 2 2 2 2 2 2 2 2 2 2 2 2 2 2 2 2 2
left_child=4 2 3 -2 -1 6 7 13 9 11 -10 -9 21 -5 -6 16 17 -16 -19 -13 -14 22 -8 24 -18 26 -26 -3 -21 -25
right_child=1 27 -4 5 14 -7 12 8 10 -11 -12 19 20 -15 15 -17 23 18 -20 28 -22 -23 -24 29 25 -27 -28 -29 -30 -31
leaf_value=-0.021990325702012443 0.19789037227105255 0.0055327306942720171 0.41349257684889296 0.092748161724635542 -0.058301481094073376 0.1948674432002008 -0.080420832974570144 0.14932536744645664 -0.12649394366890193 0.22623501392928036 0.064737105724357424 0.10239118730973905 -0.0074788981344964776 0.25780536621809008 0.19772547357555093 -0.029799281616209889 -0.013149489535261755 -0.032940945675363764 0.10895822835820063 -0.034178553910169288 0.12241470471024514 -0.14801659204743126 0.061981243125739549 0.063730210930300069 0.23383138805627823 0.00580826155268229 0.0848242266625166 -0.096783092979228866 0.07282389577316202 -0.0083371035255897005
leaf_weight=1689 39 38 21 21 54 20 35 35 24 22 21 33 45 20 29 142 46 32 21 48 20 22 21 39 20 26 25 33 23 239
leaf_count=1689 39 38 21 21 54 20 35 35 24 22 21 33 45 20 29 142 46 32 21 48 20 22 21 39 20 26 25 33 23 239
internal_value=0.00102799 0.0622946 0.0780531 0.0623644 -0.0130047 0.0494729 0.0420168 0.0771024 0.0579635 0.0845767 -0.0372528 0.0621559 -0.0185856 0.173264 0.00954614 0.015465 0.0289399 0.0849762 0.0232833 0.0328201 0.0324884 -0.0611473 -0.0270201 0.017307 0.0542169 0.0978627 0.15105 -0.0420225 0.000484211 0.00177306
internal_weight=2903 541 470 449 2362 410 390 247 206 161 45 139 143 41 673 619 477 82 53 104 65 78 56 395 117 71 45 71 71 278
internal_count=2903 541 470 449 2362 410 390 247 206 161 45 139 143 41 673 619 477 82 53 104 65 78 56 395 117 71 45 71 71 278
is_linear=0
shrinkage=0.05


Tree=34
num_leaves=31
num_cat=0
split_feature=4 4 1 0 2 4 4 7 11 15 0 0 6 6 7 8 6 16 3 0 0 11 3 0 12 6 4 2 3 10
split_gain=902.758 336.113 213.641 181.696 291.801 468.541 234.375 213.46 233.114 163.651 157.569 156.496 232.307 206.383 161.283 159.445 147.099 106.569 127.656 106.494 85.4568 81.5056 88.5748 125.591 70.1558 69.6266 81.2594 101.198 116.217 67.5191
threshold=4.1357142857142888 15.657142857142858 24.250000000000004 1.3500000000000003 0.55000000000000016 5.8500000000000023 11.250000000000002 24.146428571428576 12.292857142857146 303.50000000000006 11.550000000000002 9.0500000000000025 24.825000000000006 24.525000000000002 24.339285714285719 96.500000000000014 25.125000000000004 3.5000000000000004 2.7500000000000004 1.0000000180025095e-35 6.8500000000000005 14.935714285714287 0.35000000000000003 2.7500000000000004 16.615000000000006 24.525000000000002 2.6214285714285732 2.2500000000000004 1.6500000000000001 11.750000000000002
decision_type=2 2 2 2 2 2 2 2 2 2 2 2 2 2 2 2 2 2 2 2 2 2 2 2 2 2 2 2 2 2
left_child=19 2 3 7 5 -5 11 -2 -9 -10 -8 12 13 21 17 -16 -14 18 -13 -1 25 22 -6 -24 -25 -21 -27 28 -28 -26
right_child=1 -3 -4 4 6 -7 10 8 9 -11 -12 14 16 -15 15 -17 -18 -19 -20 20 -22 -23 23 24 29 26 27 -29 -30 -31
leaf_value=-0.023720384370456576 -0.053311625773879302 0.24975242614746096 -0.11516710356587456 0.042671132382169803 -0.038501286529133039 0.32463489885513602 0.26057025566697123 0.15283144845350372 -0.081888054311275493 0.097743572330191028 0.075405768470631712 0.15777820788185906 0.26105081170797345 -0.11160406605118799 0.0042985648355063277 -0.16018605845478864 0.089203969152136298 -0.029494305124972017 0.017764069041856224 -0.013923230939918627 -0.054793435019942431 0.13959355217715105 0.15036250291199521 0.096297956195970383 -0.035872908490823537 0.0050014279722470608 0.16368623669259252 -0.0031156411305779501 0.026703692016502224 0.052829313369260888
leaf_weight=1414 87 20 21 34 29 26 20 37 32 21 27 27 20 21 34 26 33 40 41 274 65 24 29 33 41 278 32 42 30 45
leaf_count=1414 87 20 21 34 29 26 20 37 32 21 27 27 20 21 34 26 33 40 41 274 65 24 29 33 41 278 32 42 30 45
internal_value=0.000976593 0.0474656 0.0420569 0.0465984 0.0607786 0.164855 0.0480345 0.00253587 0.0565218 -0.0107133 0.154199 0.0367709 0.0599987 0.0375446 -0.00125071 -0.0669781 0.154052 0.0352645 0.0733579 -0.0157464 -0.000108083 0.0531273 0.041403 0.05706 0.0343224 0.00531043 0.0191063 0.0568097 0.0974044 0.010541
internal_weight=2903 768 748 727 550 60 490 177 90 53 47 443 275 222 168 60 53 108 68 2135 721 201 177 148 119 656 382 104 62 86
internal_count=2903 768 748 727 550 60 490 177 90 53 47 443 275 222 168 60 53 108 68 2135 721 201 177 148 119 656 382 104 62 86
is_linear=0
shrinkage=0.05


Tree=35
num_leaves=31
num_cat=0
split_feature=4 1 4 10 0 8 2 6 3 4 0 13 9 4 1 11 2 0 12 12 1 7 9 8 9 13 8 1 13 6
split_gain=776.041 409.48 361.129 882.426 923.829 181.353 175.851 308.755 177.635 126.21 147.372 147.642 138.796 215.521 123.719 216.4 199.84 156.75 112.034 109.768 114.658 106.038 99.3174 84.1131 132.877 113.36 88.5222 80.2618 64.3051 133.694
threshold=5.1785714285714297 23.000000000000004 9.4785714285714295 14.65 12.750000000000002 97.500000000000014 7.3500000000000005 25.375000000000004 8.1500000000000004 1.8000000000000014 9.0500000000000025 23.116428571428575 94.928571428571445 3.350000000000001 3.4500000000000006 11.850000000000003 0.95000000000000007 3.6500000000000008 20.395000000000003 22.880000000000006 6.1500000000000012 23.803571428571434 96.785714285714292 83.500000000000014 88.500000000000014 21.885000000000005 90.500000000000014 10.750000000000002 20.142857142857146 24.375000000000004
decision_type=2 2 2 2 2 2 2 2 2 2 2 2 2 2 2 2 2 2 2 2 2 2 2 2 2 2 2 2 2 2
left_child=9 2 6 5 -5 -4 7 8 14 -1 11 19 13 -13 15 -2 -16 -18 21 20 23 -10 28 -11 -25 26 -26 -19 29 -8
right_child=1 -3 3 4 -6 -7 22 -9 18 10 -12 12 -14 -15 16 -17 17 27 -20 -21 -22 -23 -24 24 25 -27 -28 -29 -30 -31
leaf_value=-0.020377617235605917 0.1329110455341064 -0.12338123673107476 0.098073909412591892 0.54502468190409925 0.08138678205155192 -0.0687117266867842 -0.030756742762581959 0.22663110594644592 -0.037347963786768641 -0.053873542758325732 -0.06779915505693844 0.052135468110667937 -0.021381951740809851 0.23604008668944954 0.24298098859461872 -0.053313259235941449 0.17566862845862355 -0.017199765497611631 -0.084708890465624409 -0.036217495422515511 -0.037588411952472395 0.12172598328441382 0.065361805212624524 0.16116711680184714 -0.07526407701880089 0.11509820954507273 0.029443247046130966 0.096841362660267841 -0.064024011582136151 0.11039161371148153
leaf_weight=1650 26 32 39 22 21 28 62 27 22 24 61 66 35 21 22 39 27 36 33 139 72 20 47 22 24 33 127 27 50 23
leaf_count=1650 26 32 39 22 21 28 62 27 22 24 61 66 35 21 22 39 27 36 33 139 72 20 47 22 24 33 127 27 50 23
internal_value=0.000238568 0.0506674 0.0604215 0.141824 0.318597 0.0283724 0.0409979 0.0659396 0.0487226 -0.0131337 0.00602079 0.014019 0.0627001 0.0965262 0.0760488 0.0211765 0.107894 0.0748731 -0.0157671 0.000551722 0.0174753 0.0384015 0.00276315 0.0347126 0.0450334 0.0311478 0.012801 0.031675 -0.0190305 0.00743634
internal_weight=2877 603 571 110 43 67 461 279 252 2274 624 563 122 87 177 65 112 90 75 441 302 42 182 230 206 184 151 63 135 85
